digraph Tree {
node [shape=box] ;
0 [label="WOA_TEMP_K <= 292.695\nmse = 4565.662\nsamples = 668\nvalue = 94.785"] ;
1 [label="WOA_Nitrate <= 7.709\nmse = 2074.274\nsamples = 385\nvalue = 57.016"] ;
0 -> 1 [labeldistance=2.5, labelangle=45, headlabel="True"] ;
2 [label="WOA_Salinity <= 35.237\nmse = 2405.215\nsamples = 195\nvalue = 76.615"] ;
1 -> 2 ;
3 [label="WOA_TEMP_K <= 278.636\nmse = 2751.763\nsamples = 120\nvalue = 94.032"] ;
2 -> 3 ;
4 [label="WOA_Salinity <= 20.126\nmse = 7627.011\nsamples = 9\nvalue = 151.935"] ;
3 -> 4 ;
5 [label="mse = 63.054\nsamples = 3\nvalue = 17.717"] ;
4 -> 5 ;
6 [label="WOA_MLDpt <= 25.75\nmse = 2870.56\nsamples = 6\nvalue = 192.2"] ;
4 -> 6 ;
7 [label="WOA_TEMP_K <= 277.497\nmse = 950.0\nsamples = 3\nvalue = 250.0"] ;
6 -> 7 ;
8 [label="mse = 100.0\nsamples = 2\nvalue = 220.0"] ;
7 -> 8 ;
9 [label="mse = 0.0\nsamples = 1\nvalue = 280.0"] ;
7 -> 9 ;
10 [label="WOA_Nitrate <= 5.484\nmse = 438.889\nsamples = 3\nvalue = 153.667"] ;
6 -> 10 ;
11 [label="WOA_Salinity <= 28.925\nmse = 196.0\nsamples = 2\nvalue = 181.0"] ;
10 -> 11 ;
12 [label="(...)"] ;
11 -> 12 ;
13 [label="(...)"] ;
11 -> 13 ;
14 [label="mse = 0.0\nsamples = 1\nvalue = 140.0"] ;
10 -> 14 ;
15 [label="WOA_MLDpt <= 5.85\nmse = 2110.726\nsamples = 111\nvalue = 89.655"] ;
3 -> 15 ;
16 [label="WOA_TEMP_K <= 289.987\nmse = 5425.984\nsamples = 5\nvalue = 158.375"] ;
15 -> 16 ;
17 [label="WOA_Salinity <= 31.844\nmse = 2104.0\nsamples = 3\nvalue = 206.0"] ;
16 -> 17 ;
18 [label="mse = 0.0\nsamples = 1\nvalue = 170.0"] ;
17 -> 18 ;
19 [label="SWrad <= 178.386\nmse = 400.0\nsamples = 2\nvalue = 260.0"] ;
17 -> 19 ;
20 [label="(...)"] ;
19 -> 20 ;
21 [label="(...)"] ;
19 -> 21 ;
22 [label="WOA_TEMP_K <= 290.765\nmse = 882.0\nsamples = 2\nvalue = 79.0"] ;
16 -> 22 ;
23 [label="mse = 0.0\nsamples = 1\nvalue = 58.0"] ;
22 -> 23 ;
24 [label="mse = 0.0\nsamples = 1\nvalue = 121.0"] ;
22 -> 24 ;
25 [label="SWrad <= 198.594\nmse = 1707.407\nsamples = 106\nvalue = 86.303"] ;
15 -> 25 ;
26 [label="WOA_MLDpt <= 56.7\nmse = 1188.836\nsamples = 89\nvalue = 92.1"] ;
25 -> 26 ;
27 [label="WOA_MLDpt <= 51.45\nmse = 1087.831\nsamples = 66\nvalue = 98.493"] ;
26 -> 27 ;
28 [label="(...)"] ;
27 -> 28 ;
129 [label="(...)"] ;
27 -> 129 ;
130 [label="WOA_TEMP_K <= 281.408\nmse = 1001.446\nsamples = 23\nvalue = 72.922"] ;
26 -> 130 ;
131 [label="(...)"] ;
130 -> 131 ;
152 [label="(...)"] ;
130 -> 152 ;
169 [label="WOA_MLDpt <= 21.05\nmse = 3270.002\nsamples = 17\nvalue = 58.144"] ;
25 -> 169 ;
170 [label="WOA_Salinity <= 34.432\nmse = 4101.493\nsamples = 6\nvalue = 125.513"] ;
169 -> 170 ;
171 [label="(...)"] ;
170 -> 171 ;
174 [label="(...)"] ;
170 -> 174 ;
179 [label="SWrad <= 221.008\nmse = 395.78\nsamples = 11\nvalue = 31.196"] ;
169 -> 179 ;
180 [label="(...)"] ;
179 -> 180 ;
195 [label="(...)"] ;
179 -> 195 ;
198 [label="WOA_TEMP_K <= 289.248\nmse = 722.218\nsamples = 75\nvalue = 50.204"] ;
2 -> 198 ;
199 [label="WOA_Nitrate <= 0.074\nmse = 112.093\nsamples = 35\nvalue = 29.173"] ;
198 -> 199 ;
200 [label="mse = 0.0\nsamples = 1\nvalue = 73.0"] ;
199 -> 200 ;
201 [label="WOA_TEMP_K <= 286.599\nmse = 80.337\nsamples = 34\nvalue = 28.417"] ;
199 -> 201 ;
202 [label="WOA_Salinity <= 35.313\nmse = 32.447\nsamples = 18\nvalue = 24.01"] ;
201 -> 202 ;
203 [label="WOA_TEMP_K <= 283.423\nmse = 50.213\nsamples = 8\nvalue = 27.177"] ;
202 -> 203 ;
204 [label="(...)"] ;
203 -> 204 ;
207 [label="(...)"] ;
203 -> 207 ;
212 [label="WOA_TEMP_K <= 286.411\nmse = 3.246\nsamples = 10\nvalue = 21.438"] ;
202 -> 212 ;
213 [label="(...)"] ;
212 -> 213 ;
218 [label="(...)"] ;
212 -> 218 ;
219 [label="WOA_Salinity <= 35.653\nmse = 89.384\nsamples = 16\nvalue = 32.824"] ;
201 -> 219 ;
220 [label="WOA_Salinity <= 35.329\nmse = 58.686\nsamples = 11\nvalue = 29.97"] ;
219 -> 220 ;
221 [label="(...)"] ;
220 -> 221 ;
226 [label="(...)"] ;
220 -> 226 ;
233 [label="WOA_TEMP_K <= 287.752\nmse = 79.75\nsamples = 5\nvalue = 41.797"] ;
219 -> 233 ;
234 [label="(...)"] ;
233 -> 234 ;
235 [label="(...)"] ;
233 -> 235 ;
242 [label="WOA_MLDpt <= 149.25\nmse = 491.433\nsamples = 40\nvalue = 69.901"] ;
198 -> 242 ;
243 [label="SWrad <= 151.435\nmse = 357.67\nsamples = 35\nvalue = 65.159"] ;
242 -> 243 ;
244 [label="WOA_MLDpt <= 35.15\nmse = 125.298\nsamples = 8\nvalue = 49.238"] ;
243 -> 244 ;
245 [label="mse = 0.0\nsamples = 1\nvalue = 77.0"] ;
244 -> 245 ;
246 [label="WOA_MLDpt <= 46.85\nmse = 7.763\nsamples = 7\nvalue = 44.967"] ;
244 -> 246 ;
247 [label="(...)"] ;
246 -> 247 ;
248 [label="(...)"] ;
246 -> 248 ;
259 [label="WOA_TEMP_K <= 290.355\nmse = 314.119\nsamples = 27\nvalue = 71.129"] ;
243 -> 259 ;
260 [label="WOA_Salinity <= 35.513\nmse = 138.139\nsamples = 15\nvalue = 63.26"] ;
259 -> 260 ;
261 [label="(...)"] ;
260 -> 261 ;
266 [label="(...)"] ;
260 -> 266 ;
275 [label="WOA_Salinity <= 35.53\nmse = 355.087\nsamples = 12\nvalue = 81.775"] ;
259 -> 275 ;
276 [label="(...)"] ;
275 -> 276 ;
281 [label="(...)"] ;
275 -> 281 ;
298 [label="WOA_TEMP_K <= 292.48\nmse = 193.75\nsamples = 5\nvalue = 102.5"] ;
242 -> 298 ;
299 [label="mse = 355.556\nsamples = 2\nvalue = 93.333"] ;
298 -> 299 ;
300 [label="WOA_Salinity <= 36.613\nmse = 16.0\nsamples = 3\nvalue = 108.0"] ;
298 -> 300 ;
301 [label="mse = 0.0\nsamples = 2\nvalue = 110.0"] ;
300 -> 301 ;
302 [label="mse = 0.0\nsamples = 1\nvalue = 100.0"] ;
300 -> 302 ;
303 [label="WOA_MLDpt <= 32.65\nmse = 950.42\nsamples = 190\nvalue = 37.092"] ;
1 -> 303 ;
304 [label="WOA_Nitrate <= 12.609\nmse = 1571.226\nsamples = 43\nvalue = 60.735"] ;
303 -> 304 ;
305 [label="WOA_MLDpt <= 25.8\nmse = 2370.669\nsamples = 16\nvalue = 93.475"] ;
304 -> 305 ;
306 [label="mse = 0.0\nsamples = 1\nvalue = 7.254"] ;
305 -> 306 ;
307 [label="WOA_TEMP_K <= 285.722\nmse = 2156.239\nsamples = 15\nvalue = 96.924"] ;
305 -> 307 ;
308 [label="WOA_MLDpt <= 30.4\nmse = 2582.293\nsamples = 12\nvalue = 89.286"] ;
307 -> 308 ;
309 [label="WOA_TEMP_K <= 278.29\nmse = 2427.753\nsamples = 11\nvalue = 93.246"] ;
308 -> 309 ;
310 [label="(...)"] ;
309 -> 310 ;
311 [label="(...)"] ;
309 -> 311 ;
312 [label="mse = -0.0\nsamples = 1\nvalue = 18.0"] ;
308 -> 312 ;
313 [label="WOA_TEMP_K <= 289.423\nmse = 37.27\nsamples = 3\nvalue = 121.112"] ;
307 -> 313 ;
314 [label="mse = 0.0\nsamples = 1\nvalue = 134.669"] ;
313 -> 314 ;
315 [label="mse = 0.617\nsamples = 2\nvalue = 118.401"] ;
313 -> 315 ;
316 [label="SWrad <= 259.958\nmse = 171.062\nsamples = 27\nvalue = 42.23"] ;
304 -> 316 ;
317 [label="WOA_Salinity <= 33.458\nmse = 185.906\nsamples = 19\nvalue = 46.489"] ;
316 -> 317 ;
318 [label="WOA_TEMP_K <= 272.918\nmse = 239.43\nsamples = 8\nvalue = 57.142"] ;
317 -> 318 ;
319 [label="mse = 0.0\nsamples = 1\nvalue = 37.51"] ;
318 -> 319 ;
320 [label="WOA_MLDpt <= 22.45\nmse = 220.978\nsamples = 7\nvalue = 59.105"] ;
318 -> 320 ;
321 [label="(...)"] ;
320 -> 321 ;
322 [label="(...)"] ;
320 -> 322 ;
325 [label="WOA_Nitrate <= 25.506\nmse = 41.46\nsamples = 11\nvalue = 39.978"] ;
317 -> 325 ;
326 [label="WOA_Salinity <= 33.673\nmse = 19.007\nsamples = 5\nvalue = 44.996"] ;
325 -> 326 ;
327 [label="(...)"] ;
326 -> 327 ;
332 [label="(...)"] ;
326 -> 332 ;
335 [label="WOA_MLDpt <= 27.95\nmse = 23.164\nsamples = 6\nvalue = 35.964"] ;
325 -> 335 ;
336 [label="(...)"] ;
335 -> 336 ;
337 [label="(...)"] ;
335 -> 337 ;
346 [label="SWrad <= 268.09\nmse = 62.035\nsamples = 8\nvalue = 34.966"] ;
316 -> 346 ;
347 [label="WOA_Nitrate <= 20.022\nmse = 73.598\nsamples = 6\nvalue = 35.456"] ;
346 -> 347 ;
348 [label="mse = 85.553\nsamples = 5\nvalue = 35.245"] ;
347 -> 348 ;
349 [label="mse = -0.0\nsamples = 1\nvalue = 36.72"] ;
347 -> 349 ;
350 [label="WOA_TEMP_K <= 277.378\nmse = 1.73\nsamples = 2\nvalue = 32.68"] ;
346 -> 350 ;
351 [label="mse = 0.0\nsamples = 1\nvalue = 33.61"] ;
350 -> 351 ;
352 [label="mse = 0.0\nsamples = 1\nvalue = 30.82"] ;
350 -> 352 ;
353 [label="WOA_Salinity <= 33.864\nmse = 526.309\nsamples = 147\nvalue = 29.691"] ;
303 -> 353 ;
354 [label="WOA_Salinity <= 33.859\nmse = 847.575\nsamples = 51\nvalue = 45.581"] ;
353 -> 354 ;
355 [label="WOA_Nitrate <= 19.199\nmse = 662.504\nsamples = 50\nvalue = 44.006"] ;
354 -> 355 ;
356 [label="SWrad <= 206.926\nmse = 1669.187\nsamples = 15\nvalue = 67.231"] ;
355 -> 356 ;
357 [label="WOA_Salinity <= 32.979\nmse = 1695.55\nsamples = 14\nvalue = 65.234"] ;
356 -> 357 ;
358 [label="(...)"] ;
357 -> 358 ;
361 [label="(...)"] ;
357 -> 361 ;
366 [label="mse = -0.0\nsamples = 1\nvalue = 101.19"] ;
356 -> 366 ;
367 [label="SWrad <= 87.322\nmse = 150.131\nsamples = 35\nvalue = 37.039"] ;
355 -> 367 ;
368 [label="WOA_Salinity <= 33.362\nmse = 96.511\nsamples = 10\nvalue = 28.885"] ;
367 -> 368 ;
369 [label="(...)"] ;
368 -> 369 ;
370 [label="(...)"] ;
368 -> 370 ;
385 [label="WOA_TEMP_K <= 278.703\nmse = 136.662\nsamples = 25\nvalue = 40.004"] ;
367 -> 385 ;
386 [label="(...)"] ;
385 -> 386 ;
427 [label="(...)"] ;
385 -> 427 ;
428 [label="mse = -0.0\nsamples = 1\nvalue = 168.421"] ;
354 -> 428 ;
429 [label="WOA_TEMP_K <= 286.095\nmse = 157.012\nsamples = 96\nvalue = 21.377"] ;
353 -> 429 ;
430 [label="WOA_TEMP_K <= 274.135\nmse = 112.765\nsamples = 95\nvalue = 20.83"] ;
429 -> 430 ;
431 [label="SWrad <= 56.184\nmse = 31.76\nsamples = 11\nvalue = 33.597"] ;
430 -> 431 ;
432 [label="WOA_Salinity <= 33.888\nmse = 8.942\nsamples = 3\nvalue = 26.26"] ;
431 -> 432 ;
433 [label="(...)"] ;
432 -> 433 ;
434 [label="(...)"] ;
432 -> 434 ;
437 [label="SWrad <= 139.227\nmse = 16.808\nsamples = 8\nvalue = 35.89"] ;
431 -> 437 ;
438 [label="(...)"] ;
437 -> 438 ;
449 [label="(...)"] ;
437 -> 449 ;
452 [label="WOA_TEMP_K <= 275.015\nmse = 95.094\nsamples = 84\nvalue = 18.751"] ;
430 -> 452 ;
453 [label="WOA_Nitrate <= 24.011\nmse = 12.111\nsamples = 12\nvalue = 10.203"] ;
452 -> 453 ;
454 [label="(...)"] ;
453 -> 454 ;
463 [label="(...)"] ;
453 -> 463 ;
474 [label="WOA_Nitrate <= 25.274\nmse = 94.779\nsamples = 72\nvalue = 20.137"] ;
452 -> 474 ;
475 [label="(...)"] ;
474 -> 475 ;
552 [label="(...)"] ;
474 -> 552 ;
555 [label="mse = -0.0\nsamples = 1\nvalue = 103.53"] ;
429 -> 555 ;
556 [label="WOA_TEMP_K <= 297.981\nmse = 3260.46\nsamples = 283\nvalue = 147.662"] ;
0 -> 556 [labeldistance=2.5, labelangle=-45, headlabel="False"] ;
557 [label="WOA_Salinity <= 36.709\nmse = 1996.7\nsamples = 153\nvalue = 133.518"] ;
556 -> 557 ;
558 [label="WOA_Nitrate <= 3.875\nmse = 1712.856\nsamples = 138\nvalue = 138.722"] ;
557 -> 558 ;
559 [label="WOA_MLDpt <= 62.95\nmse = 1590.547\nsamples = 136\nvalue = 137.26"] ;
558 -> 559 ;
560 [label="WOA_MLDpt <= 40.4\nmse = 1279.603\nsamples = 100\nvalue = 130.135"] ;
559 -> 560 ;
561 [label="WOA_TEMP_K <= 294.114\nmse = 1200.677\nsamples = 78\nvalue = 135.823"] ;
560 -> 561 ;
562 [label="WOA_Nitrate <= 3.334\nmse = 838.374\nsamples = 8\nvalue = 98.261"] ;
561 -> 562 ;
563 [label="(...)"] ;
562 -> 563 ;
572 [label="(...)"] ;
562 -> 572 ;
575 [label="WOA_Nitrate <= 0.77\nmse = 1045.975\nsamples = 70\nvalue = 140.561"] ;
561 -> 575 ;
576 [label="(...)"] ;
575 -> 576 ;
677 [label="(...)"] ;
575 -> 677 ;
682 [label="WOA_MLDpt <= 58.6\nmse = 842.512\nsamples = 22\nvalue = 104.738"] ;
560 -> 682 ;
683 [label="WOA_TEMP_K <= 295.82\nmse = 698.17\nsamples = 18\nvalue = 97.303"] ;
682 -> 683 ;
684 [label="(...)"] ;
683 -> 684 ;
707 [label="(...)"] ;
683 -> 707 ;
716 [label="WOA_Salinity <= 35.606\nmse = 82.168\nsamples = 4\nvalue = 138.943"] ;
682 -> 716 ;
717 [label="(...)"] ;
716 -> 717 ;
720 [label="(...)"] ;
716 -> 720 ;
721 [label="WOA_MLDpt <= 111.2\nmse = 1914.164\nsamples = 36\nvalue = 158.635"] ;
559 -> 721 ;
722 [label="WOA_TEMP_K <= 292.795\nmse = 1798.146\nsamples = 30\nvalue = 167.346"] ;
721 -> 722 ;
723 [label="mse = 376.0\nsamples = 4\nvalue = 122.0"] ;
722 -> 723 ;
724 [label="WOA_Salinity <= 34.028\nmse = 1670.405\nsamples = 26\nvalue = 173.644"] ;
722 -> 724 ;
725 [label="(...)"] ;
724 -> 725 ;
726 [label="(...)"] ;
724 -> 726 ;
757 [label="WOA_TEMP_K <= 293.536\nmse = 803.138\nsamples = 6\nvalue = 122.92"] ;
721 -> 757 ;
758 [label="WOA_Nitrate <= 0.346\nmse = 355.102\nsamples = 4\nvalue = 111.429"] ;
757 -> 758 ;
759 [label="(...)"] ;
758 -> 759 ;
760 [label="(...)"] ;
758 -> 760 ;
761 [label="SWrad <= 110.633\nmse = 821.476\nsamples = 2\nvalue = 149.733"] ;
757 -> 761 ;
762 [label="(...)"] ;
761 -> 762 ;
763 [label="(...)"] ;
761 -> 763 ;
764 [label="WOA_TEMP_K <= 293.74\nmse = 1.869\nsamples = 2\nvalue = 238.133"] ;
558 -> 764 ;
765 [label="mse = 0.0\nsamples = 1\nvalue = 239.1"] ;
764 -> 765 ;
766 [label="mse = 0.0\nsamples = 1\nvalue = 236.2"] ;
764 -> 766 ;
767 [label="WOA_MLDpt <= 56.2\nmse = 1753.715\nsamples = 15\nvalue = 79.662"] ;
557 -> 767 ;
768 [label="WOA_TEMP_K <= 294.255\nmse = 191.02\nsamples = 10\nvalue = 54.635"] ;
767 -> 768 ;
769 [label="WOA_Salinity <= 36.758\nmse = 137.397\nsamples = 4\nvalue = 41.93"] ;
768 -> 769 ;
770 [label="mse = 0.0\nsamples = 1\nvalue = 64.818"] ;
769 -> 770 ;
771 [label="SWrad <= 202.122\nmse = 39.152\nsamples = 3\nvalue = 37.353"] ;
769 -> 771 ;
772 [label="mse = 0.0\nsamples = 1\nvalue = 31.882"] ;
771 -> 772 ;
773 [label="mse = 32.0\nsamples = 2\nvalue = 41.0"] ;
771 -> 773 ;
774 [label="SWrad <= 190.274\nmse = 19.379\nsamples = 6\nvalue = 64.164"] ;
768 -> 774 ;
775 [label="WOA_MLDpt <= 44.95\nmse = 9.509\nsamples = 3\nvalue = 59.467"] ;
774 -> 775 ;
776 [label="WOA_Nitrate <= 0.129\nmse = 0.132\nsamples = 2\nvalue = 61.637"] ;
775 -> 776 ;
777 [label="(...)"] ;
776 -> 777 ;
778 [label="(...)"] ;
776 -> 778 ;
779 [label="mse = -0.0\nsamples = 1\nvalue = 55.126"] ;
775 -> 779 ;
780 [label="WOA_MLDpt <= 47.4\nmse = 4.116\nsamples = 3\nvalue = 66.983"] ;
774 -> 780 ;
781 [label="WOA_TEMP_K <= 297.033\nmse = 0.339\nsamples = 2\nvalue = 69.426"] ;
780 -> 781 ;
782 [label="(...)"] ;
781 -> 782 ;
783 [label="(...)"] ;
781 -> 783 ;
784 [label="mse = 0.0\nsamples = 1\nvalue = 65.354"] ;
780 -> 784 ;
785 [label="SWrad <= 211.427\nmse = 528.65\nsamples = 5\nvalue = 138.056"] ;
767 -> 785 ;
786 [label="WOA_MLDpt <= 59.15\nmse = 34.356\nsamples = 3\nvalue = 153.89"] ;
785 -> 786 ;
787 [label="WOA_TEMP_K <= 297.007\nmse = 3.276\nsamples = 2\nvalue = 148.17"] ;
786 -> 787 ;
788 [label="mse = 0.0\nsamples = 1\nvalue = 149.98"] ;
787 -> 788 ;
789 [label="mse = -0.0\nsamples = 1\nvalue = 146.36"] ;
787 -> 789 ;
790 [label="mse = 0.0\nsamples = 1\nvalue = 159.61"] ;
786 -> 790 ;
791 [label="WOA_Salinity <= 37.027\nmse = 13.036\nsamples = 2\nvalue = 106.389"] ;
785 -> 791 ;
792 [label="mse = 0.0\nsamples = 1\nvalue = 110.0"] ;
791 -> 792 ;
793 [label="mse = 0.0\nsamples = 1\nvalue = 102.779"] ;
791 -> 793 ;
794 [label="WOA_Salinity <= 35.614\nmse = 4183.046\nsamples = 130\nvalue = 163.099"] ;
556 -> 794 ;
795 [label="SWrad <= 216.962\nmse = 3369.989\nsamples = 79\nvalue = 144.444"] ;
794 -> 795 ;
796 [label="WOA_Salinity <= 33.888\nmse = 2622.025\nsamples = 36\nvalue = 171.336"] ;
795 -> 796 ;
797 [label="SWrad <= 205.826\nmse = 454.564\nsamples = 10\nvalue = 151.52"] ;
796 -> 797 ;
798 [label="WOA_TEMP_K <= 298.154\nmse = 242.264\nsamples = 9\nvalue = 148.259"] ;
797 -> 798 ;
799 [label="SWrad <= 152.124\nmse = 61.757\nsamples = 4\nvalue = 162.455"] ;
798 -> 799 ;
800 [label="(...)"] ;
799 -> 800 ;
801 [label="(...)"] ;
799 -> 801 ;
802 [label="WOA_MLDpt <= 43.95\nmse = 56.599\nsamples = 5\nvalue = 135.353"] ;
798 -> 802 ;
803 [label="(...)"] ;
802 -> 803 ;
810 [label="(...)"] ;
802 -> 810 ;
811 [label="mse = -0.0\nsamples = 1\nvalue = 220.0"] ;
797 -> 811 ;
812 [label="WOA_Salinity <= 34.629\nmse = 3559.952\nsamples = 26\nvalue = 183.446"] ;
796 -> 812 ;
813 [label="WOA_Salinity <= 33.903\nmse = 4162.024\nsamples = 20\nvalue = 197.039"] ;
812 -> 813 ;
814 [label="mse = 0.0\nsamples = 1\nvalue = 254.717"] ;
813 -> 814 ;
815 [label="WOA_TEMP_K <= 298.875\nmse = 4214.374\nsamples = 19\nvalue = 189.516"] ;
813 -> 815 ;
816 [label="(...)"] ;
815 -> 816 ;
825 [label="(...)"] ;
815 -> 825 ;
836 [label="WOA_Nitrate <= 0.614\nmse = 265.205\nsamples = 6\nvalue = 148.105"] ;
812 -> 836 ;
837 [label="WOA_Salinity <= 34.828\nmse = 204.321\nsamples = 5\nvalue = 151.111"] ;
836 -> 837 ;
838 [label="(...)"] ;
837 -> 838 ;
841 [label="(...)"] ;
837 -> 841 ;
842 [label="mse = -0.0\nsamples = 1\nvalue = 121.053"] ;
836 -> 842 ;
843 [label="WOA_Salinity <= 33.554\nmse = 2760.236\nsamples = 43\nvalue = 119.286"] ;
795 -> 843 ;
844 [label="WOA_TEMP_K <= 302.355\nmse = 2979.439\nsamples = 4\nvalue = 206.703"] ;
843 -> 844 ;
845 [label="WOA_MLDpt <= 26.65\nmse = 1089.0\nsamples = 2\nvalue = 145.0"] ;
844 -> 845 ;
846 [label="mse = 0.0\nsamples = 1\nvalue = 112.0"] ;
845 -> 846 ;
847 [label="mse = 0.0\nsamples = 1\nvalue = 178.0"] ;
845 -> 847 ;
848 [label="WOA_Nitrate <= 0.202\nmse = 9.398\nsamples = 2\nvalue = 247.839"] ;
844 -> 848 ;
849 [label="mse = 0.0\nsamples = 1\nvalue = 243.503"] ;
848 -> 849 ;
850 [label="mse = -0.0\nsamples = 1\nvalue = 250.007"] ;
848 -> 850 ;
851 [label="WOA_MLDpt <= 36.15\nmse = 2011.873\nsamples = 39\nvalue = 111.618"] ;
843 -> 851 ;
852 [label="SWrad <= 303.41\nmse = 2354.113\nsamples = 20\nvalue = 129.313"] ;
851 -> 852 ;
853 [label="SWrad <= 273.923\nmse = 1945.045\nsamples = 19\nvalue = 125.42"] ;
852 -> 853 ;
854 [label="(...)"] ;
853 -> 854 ;
885 [label="(...)"] ;
853 -> 885 ;
890 [label="mse = 0.0\nsamples = 1\nvalue = 250.0"] ;
852 -> 890 ;
891 [label="WOA_Salinity <= 35.005\nmse = 660.002\nsamples = 19\nvalue = 88.968"] ;
851 -> 891 ;
892 [label="WOA_Nitrate <= 0.114\nmse = 328.905\nsamples = 11\nvalue = 75.553"] ;
891 -> 892 ;
893 [label="(...)"] ;
892 -> 893 ;
906 [label="(...)"] ;
892 -> 906 ;
911 [label="WOA_Salinity <= 35.165\nmse = 359.991\nsamples = 8\nvalue = 112.816"] ;
891 -> 911 ;
912 [label="(...)"] ;
911 -> 912 ;
917 [label="(...)"] ;
911 -> 917 ;
926 [label="WOA_Salinity <= 36.45\nmse = 4170.046\nsamples = 51\nvalue = 188.538"] ;
794 -> 926 ;
927 [label="WOA_Nitrate <= 2.304\nmse = 3839.977\nsamples = 42\nvalue = 200.291"] ;
926 -> 927 ;
928 [label="WOA_Salinity <= 36.442\nmse = 3403.103\nsamples = 40\nvalue = 193.485"] ;
927 -> 928 ;
929 [label="WOA_Nitrate <= 0.025\nmse = 3087.832\nsamples = 36\nvalue = 186.155"] ;
928 -> 929 ;
930 [label="WOA_MLDpt <= 20.15\nmse = 2404.761\nsamples = 8\nvalue = 243.347"] ;
929 -> 930 ;
931 [label="(...)"] ;
930 -> 931 ;
932 [label="(...)"] ;
930 -> 932 ;
937 [label="WOA_Nitrate <= 0.213\nmse = 2316.442\nsamples = 28\nvalue = 172.957"] ;
929 -> 937 ;
938 [label="(...)"] ;
937 -> 938 ;
959 [label="(...)"] ;
937 -> 959 ;
966 [label="mse = 80.556\nsamples = 4\nvalue = 271.667"] ;
928 -> 966 ;
967 [label="WOA_TEMP_K <= 300.608\nmse = 227.674\nsamples = 2\nvalue = 295.58"] ;
927 -> 967 ;
968 [label="mse = 0.0\nsamples = 1\nvalue = 307.9"] ;
967 -> 968 ;
969 [label="mse = -0.0\nsamples = 1\nvalue = 277.1"] ;
967 -> 969 ;
970 [label="WOA_Nitrate <= 2.275\nmse = 679.425\nsamples = 9\nvalue = 120.73"] ;
926 -> 970 ;
971 [label="WOA_MLDpt <= 41.5\nmse = 140.014\nsamples = 7\nvalue = 110.681"] ;
970 -> 971 ;
972 [label="WOA_Nitrate <= 0.105\nmse = 60.768\nsamples = 4\nvalue = 103.229"] ;
971 -> 972 ;
973 [label="WOA_Nitrate <= 0.038\nmse = 0.563\nsamples = 2\nvalue = 107.65"] ;
972 -> 973 ;
974 [label="(...)"] ;
973 -> 974 ;
975 [label="(...)"] ;
973 -> 975 ;
976 [label="mse = 80.222\nsamples = 2\nvalue = 97.333"] ;
972 -> 976 ;
977 [label="WOA_TEMP_K <= 300.623\nmse = 11.423\nsamples = 3\nvalue = 123.722"] ;
971 -> 977 ;
978 [label="WOA_TEMP_K <= 299.203\nmse = 0.76\nsamples = 2\nvalue = 125.624"] ;
977 -> 978 ;
979 [label="(...)"] ;
978 -> 979 ;
980 [label="(...)"] ;
978 -> 980 ;
981 [label="mse = -0.0\nsamples = 1\nvalue = 118.016"] ;
977 -> 981 ;
982 [label="mse = 36.0\nsamples = 2\nvalue = 176.0"] ;
970 -> 982 ;
}