digraph Tree {
node [shape=box] ;
0 [label="WOA_TEMP_K <= 294.171\nmse = 4484.446\nsamples = 648\nvalue = 93.222"] ;
1 [label="Depth_GEBCO <= -81.5\nmse = 2148.972\nsamples = 414\nvalue = 59.655"] ;
0 -> 1 [labeldistance=2.5, labelangle=45, headlabel="True"] ;
2 [label="WOA_TEMP_K <= 288.79\nmse = 1644.978\nsamples = 293\nvalue = 46.653"] ;
1 -> 2 ;
3 [label="SeaWIFs_ChlrA <= 2.673\nmse = 1161.015\nsamples = 210\nvalue = 35.335"] ;
2 -> 3 ;
4 [label="Depth_GEBCO <= -4054.5\nmse = 949.011\nsamples = 199\nvalue = 33.508"] ;
3 -> 4 ;
5 [label="SeaWIFs_ChlrA <= 0.787\nmse = 1536.865\nsamples = 41\nvalue = 50.71"] ;
4 -> 5 ;
6 [label="Depth_GEBCO <= -4161.0\nmse = 896.591\nsamples = 39\nvalue = 47.769"] ;
5 -> 6 ;
7 [label="WOA_TEMP_K <= 280.094\nmse = 601.537\nsamples = 35\nvalue = 43.509"] ;
6 -> 7 ;
8 [label="(...)"] ;
7 -> 8 ;
31 [label="(...)"] ;
7 -> 31 ;
76 [label="WOA_TEMP_K <= 276.412\nmse = 1948.394\nsamples = 4\nvalue = 78.119"] ;
6 -> 76 ;
77 [label="(...)"] ;
76 -> 77 ;
80 [label="(...)"] ;
76 -> 80 ;
83 [label="SeaWIFs_ChlrA <= 1.147\nmse = 12924.34\nsamples = 2\nvalue = 146.315"] ;
5 -> 83 ;
84 [label="mse = 0.0\nsamples = 1\nvalue = 260.0"] ;
83 -> 84 ;
85 [label="mse = -0.0\nsamples = 1\nvalue = 32.629"] ;
83 -> 85 ;
86 [label="Depth_GEBCO <= -100.0\nmse = 707.633\nsamples = 158\nvalue = 29.175"] ;
4 -> 86 ;
87 [label="WOA_TEMP_K <= 277.476\nmse = 634.545\nsamples = 152\nvalue = 27.894"] ;
86 -> 87 ;
88 [label="WOA_TEMP_K <= 275.585\nmse = 1262.88\nsamples = 56\nvalue = 34.852"] ;
87 -> 88 ;
89 [label="(...)"] ;
88 -> 89 ;
180 [label="(...)"] ;
88 -> 180 ;
195 [label="WOA_TEMP_K <= 287.548\nmse = 242.153\nsamples = 96\nvalue = 24.014"] ;
87 -> 195 ;
196 [label="(...)"] ;
195 -> 196 ;
313 [label="(...)"] ;
195 -> 313 ;
314 [label="WOA_TEMP_K <= 283.65\nmse = 1409.607\nsamples = 6\nvalue = 65.757"] ;
86 -> 314 ;
315 [label="WOA_TEMP_K <= 279.913\nmse = 646.202\nsamples = 5\nvalue = 49.659"] ;
314 -> 315 ;
316 [label="(...)"] ;
315 -> 316 ;
319 [label="(...)"] ;
315 -> 319 ;
324 [label="mse = -0.0\nsamples = 1\nvalue = 122.1"] ;
314 -> 324 ;
325 [label="WOA_TEMP_K <= 275.789\nmse = 4237.015\nsamples = 11\nvalue = 78.778"] ;
3 -> 325 ;
326 [label="Depth_GEBCO <= -617.0\nmse = 73.706\nsamples = 9\nvalue = 45.717"] ;
325 -> 326 ;
327 [label="Depth_GEBCO <= -653.0\nmse = 39.372\nsamples = 4\nvalue = 49.913"] ;
326 -> 327 ;
328 [label="mse = 0.0\nsamples = 1\nvalue = 43.78"] ;
327 -> 328 ;
329 [label="mse = 38.219\nsamples = 3\nvalue = 51.14"] ;
327 -> 329 ;
330 [label="SeaWIFs_ChlrA <= 3.094\nmse = 68.423\nsamples = 5\nvalue = 40.682"] ;
326 -> 330 ;
331 [label="mse = 99.797\nsamples = 3\nvalue = 43.06"] ;
330 -> 331 ;
332 [label="WOA_TEMP_K <= 273.364\nmse = 0.156\nsamples = 2\nvalue = 37.115"] ;
330 -> 332 ;
333 [label="(...)"] ;
332 -> 333 ;
334 [label="(...)"] ;
332 -> 334 ;
335 [label="Depth_GEBCO <= -414.5\nmse = 800.0\nsamples = 2\nvalue = 200.0"] ;
325 -> 335 ;
336 [label="mse = 0.0\nsamples = 1\nvalue = 220.0"] ;
335 -> 336 ;
337 [label="mse = 0.0\nsamples = 1\nvalue = 160.0"] ;
335 -> 337 ;
338 [label="SeaWIFs_ChlrA <= 5.947\nmse = 1620.641\nsamples = 83\nvalue = 78.847"] ;
2 -> 338 ;
339 [label="WOA_TEMP_K <= 288.92\nmse = 1396.563\nsamples = 81\nvalue = 76.756"] ;
338 -> 339 ;
340 [label="WOA_TEMP_K <= 288.89\nmse = 4330.702\nsamples = 2\nvalue = 137.533"] ;
339 -> 340 ;
341 [label="mse = 0.0\nsamples = 1\nvalue = 91.0"] ;
340 -> 341 ;
342 [label="mse = -0.0\nsamples = 1\nvalue = 230.6"] ;
340 -> 342 ;
343 [label="WOA_TEMP_K <= 292.358\nmse = 1222.678\nsamples = 79\nvalue = 75.184"] ;
339 -> 343 ;
344 [label="SeaWIFs_ChlrA <= 0.524\nmse = 824.947\nsamples = 47\nvalue = 68.295"] ;
343 -> 344 ;
345 [label="Depth_GEBCO <= -4994.0\nmse = 606.756\nsamples = 36\nvalue = 61.073"] ;
344 -> 345 ;
346 [label="(...)"] ;
345 -> 346 ;
373 [label="(...)"] ;
345 -> 373 ;
404 [label="WOA_TEMP_K <= 290.083\nmse = 779.358\nsamples = 11\nvalue = 93.121"] ;
344 -> 404 ;
405 [label="(...)"] ;
404 -> 405 ;
412 [label="(...)"] ;
404 -> 412 ;
417 [label="WOA_TEMP_K <= 292.924\nmse = 1657.197\nsamples = 32\nvalue = 86.053"] ;
343 -> 417 ;
418 [label="WOA_TEMP_K <= 292.853\nmse = 2661.948\nsamples = 11\nvalue = 116.302"] ;
417 -> 418 ;
419 [label="(...)"] ;
418 -> 419 ;
434 [label="(...)"] ;
418 -> 434 ;
437 [label="Depth_GEBCO <= -2672.0\nmse = 468.555\nsamples = 21\nvalue = 70.928"] ;
417 -> 437 ;
438 [label="(...)"] ;
437 -> 438 ;
467 [label="(...)"] ;
437 -> 467 ;
472 [label="mse = 3452.537\nsamples = 2\nvalue = 161.811"] ;
338 -> 472 ;
473 [label="WOA_TEMP_K <= 277.555\nmse = 1958.468\nsamples = 121\nvalue = 91.415"] ;
1 -> 473 ;
474 [label="SeaWIFs_ChlrA <= 0.627\nmse = 1786.76\nsamples = 39\nvalue = 55.913"] ;
473 -> 474 ;
475 [label="SeaWIFs_ChlrA <= 0.105\nmse = 88.94\nsamples = 14\nvalue = 31.516"] ;
474 -> 475 ;
476 [label="WOA_TEMP_K <= 271.667\nmse = 10.154\nsamples = 5\nvalue = 26.562"] ;
475 -> 476 ;
477 [label="SeaWIFs_ChlrA <= 0.089\nmse = 1.563\nsamples = 4\nvalue = 27.683"] ;
476 -> 477 ;
478 [label="mse = 1.008\nsamples = 2\nvalue = 27.16"] ;
477 -> 478 ;
479 [label="mse = 1.621\nsamples = 2\nvalue = 28.075"] ;
477 -> 479 ;
480 [label="mse = -0.0\nsamples = 1\nvalue = 18.72"] ;
476 -> 480 ;
481 [label="WOA_TEMP_K <= 271.993\nmse = 116.634\nsamples = 9\nvalue = 35.479"] ;
475 -> 481 ;
482 [label="SeaWIFs_ChlrA <= 0.177\nmse = 201.64\nsamples = 2\nvalue = 50.76"] ;
481 -> 482 ;
483 [label="mse = 0.0\nsamples = 1\nvalue = 36.56"] ;
482 -> 483 ;
484 [label="mse = 0.0\nsamples = 1\nvalue = 64.96"] ;
482 -> 484 ;
485 [label="Depth_GEBCO <= -31.5\nmse = 22.41\nsamples = 7\nvalue = 31.659"] ;
481 -> 485 ;
486 [label="WOA_TEMP_K <= 272.411\nmse = 21.031\nsamples = 6\nvalue = 30.902"] ;
485 -> 486 ;
487 [label="(...)"] ;
486 -> 487 ;
488 [label="(...)"] ;
486 -> 488 ;
489 [label="mse = 0.0\nsamples = 1\nvalue = 36.956"] ;
485 -> 489 ;
490 [label="Depth_GEBCO <= -19.5\nmse = 2156.123\nsamples = 25\nvalue = 66.623"] ;
474 -> 490 ;
491 [label="WOA_TEMP_K <= 272.065\nmse = 2170.602\nsamples = 24\nvalue = 67.604"] ;
490 -> 491 ;
492 [label="SeaWIFs_ChlrA <= 0.94\nmse = 91.012\nsamples = 2\nvalue = 39.67"] ;
491 -> 492 ;
493 [label="mse = 0.0\nsamples = 1\nvalue = 30.13"] ;
492 -> 493 ;
494 [label="mse = -0.0\nsamples = 1\nvalue = 49.21"] ;
492 -> 494 ;
495 [label="WOA_TEMP_K <= 273.418\nmse = 2236.825\nsamples = 22\nvalue = 69.074"] ;
491 -> 495 ;
496 [label="SeaWIFs_ChlrA <= 1.62\nmse = 1896.01\nsamples = 12\nvalue = 68.425"] ;
495 -> 496 ;
497 [label="(...)"] ;
496 -> 497 ;
498 [label="(...)"] ;
496 -> 498 ;
499 [label="mse = 2757.768\nsamples = 10\nvalue = 70.07"] ;
495 -> 499 ;
500 [label="mse = 0.0\nsamples = 1\nvalue = 27.4"] ;
490 -> 500 ;
501 [label="Depth_GEBCO <= -22.5\nmse = 1227.471\nsamples = 82\nvalue = 107.164"] ;
473 -> 501 ;
502 [label="SeaWIFs_ChlrA <= 2.104\nmse = 603.015\nsamples = 64\nvalue = 98.178"] ;
501 -> 502 ;
503 [label="SeaWIFs_ChlrA <= 0.9\nmse = 560.794\nsamples = 53\nvalue = 94.85"] ;
502 -> 503 ;
504 [label="SeaWIFs_ChlrA <= 0.235\nmse = 590.18\nsamples = 18\nvalue = 107.742"] ;
503 -> 504 ;
505 [label="WOA_TEMP_K <= 292.519\nmse = 393.75\nsamples = 5\nvalue = 87.5"] ;
504 -> 505 ;
506 [label="(...)"] ;
505 -> 506 ;
507 [label="(...)"] ;
505 -> 507 ;
508 [label="WOA_TEMP_K <= 293.48\nmse = 449.447\nsamples = 13\nvalue = 115.454"] ;
504 -> 508 ;
509 [label="(...)"] ;
508 -> 509 ;
526 [label="(...)"] ;
508 -> 526 ;
527 [label="Depth_GEBCO <= -47.5\nmse = 424.489\nsamples = 35\nvalue = 88.513"] ;
503 -> 527 ;
528 [label="SeaWIFs_ChlrA <= 1.942\nmse = 386.106\nsamples = 18\nvalue = 98.078"] ;
527 -> 528 ;
529 [label="(...)"] ;
528 -> 529 ;
548 [label="(...)"] ;
528 -> 548 ;
549 [label="SeaWIFs_ChlrA <= 0.976\nmse = 271.641\nsamples = 17\nvalue = 78.618"] ;
527 -> 549 ;
550 [label="(...)"] ;
549 -> 550 ;
551 [label="(...)"] ;
549 -> 551 ;
582 [label="SeaWIFs_ChlrA <= 2.422\nmse = 490.43\nsamples = 11\nvalue = 114.452"] ;
502 -> 582 ;
583 [label="WOA_TEMP_K <= 288.3\nmse = 32.151\nsamples = 3\nvalue = 136.684"] ;
582 -> 583 ;
584 [label="mse = 0.0\nsamples = 1\nvalue = 128.029"] ;
583 -> 584 ;
585 [label="Depth_GEBCO <= -29.0\nmse = 3.068\nsamples = 2\nvalue = 140.145"] ;
583 -> 585 ;
586 [label="(...)"] ;
585 -> 586 ;
587 [label="(...)"] ;
585 -> 587 ;
588 [label="SeaWIFs_ChlrA <= 2.669\nmse = 267.387\nsamples = 8\nvalue = 100.304"] ;
582 -> 588 ;
589 [label="SeaWIFs_ChlrA <= 2.561\nmse = 144.455\nsamples = 2\nvalue = 82.997"] ;
588 -> 589 ;
590 [label="(...)"] ;
589 -> 590 ;
591 [label="(...)"] ;
589 -> 591 ;
592 [label="Depth_GEBCO <= -46.5\nmse = 159.041\nsamples = 6\nvalue = 106.795"] ;
588 -> 592 ;
593 [label="(...)"] ;
592 -> 593 ;
594 [label="(...)"] ;
592 -> 594 ;
601 [label="WOA_TEMP_K <= 291.2\nmse = 2117.547\nsamples = 18\nvalue = 142.442"] ;
501 -> 601 ;
602 [label="SeaWIFs_ChlrA <= 2.808\nmse = 2130.596\nsamples = 13\nvalue = 158.774"] ;
601 -> 602 ;
603 [label="Depth_GEBCO <= -10.0\nmse = 1240.5\nsamples = 3\nvalue = 209.0"] ;
602 -> 603 ;
604 [label="SeaWIFs_ChlrA <= 1.952\nmse = 0.222\nsamples = 2\nvalue = 188.667"] ;
603 -> 604 ;
605 [label="(...)"] ;
604 -> 605 ;
606 [label="(...)"] ;
604 -> 606 ;
607 [label="mse = 0.0\nsamples = 1\nvalue = 270.0"] ;
603 -> 607 ;
608 [label="SeaWIFs_ChlrA <= 4.932\nmse = 1458.203\nsamples = 10\nvalue = 144.423"] ;
602 -> 608 ;
609 [label="SeaWIFs_ChlrA <= 4.686\nmse = 1443.757\nsamples = 7\nvalue = 128.103"] ;
608 -> 609 ;
610 [label="(...)"] ;
609 -> 610 ;
617 [label="(...)"] ;
609 -> 617 ;
622 [label="Depth_GEBCO <= -12.5\nmse = 141.76\nsamples = 3\nvalue = 173.8"] ;
608 -> 622 ;
623 [label="(...)"] ;
622 -> 623 ;
626 [label="(...)"] ;
622 -> 626 ;
627 [label="WOA_TEMP_K <= 291.365\nmse = 491.062\nsamples = 5\nvalue = 109.778"] ;
601 -> 627 ;
628 [label="mse = 0.0\nsamples = 1\nvalue = 82.0"] ;
627 -> 628 ;
629 [label="SeaWIFs_ChlrA <= 0.395\nmse = 157.889\nsamples = 4\nvalue = 123.667"] ;
627 -> 629 ;
630 [label="mse = 0.0\nsamples = 1\nvalue = 150.0"] ;
629 -> 630 ;
631 [label="Depth_GEBCO <= -20.0\nmse = 23.04\nsamples = 3\nvalue = 118.4"] ;
629 -> 631 ;
632 [label="(...)"] ;
631 -> 632 ;
633 [label="(...)"] ;
631 -> 633 ;
636 [label="Depth_GEBCO <= -25.5\nmse = 3214.522\nsamples = 234\nvalue = 151.153"] ;
0 -> 636 [labeldistance=2.5, labelangle=-45, headlabel="False"] ;
637 [label="SeaWIFs_ChlrA <= 0.082\nmse = 2678.82\nsamples = 196\nvalue = 143.118"] ;
636 -> 637 ;
638 [label="Depth_GEBCO <= -1142.0\nmse = 2712.727\nsamples = 32\nvalue = 114.613"] ;
637 -> 638 ;
639 [label="Depth_GEBCO <= -2513.5\nmse = 1894.94\nsamples = 30\nvalue = 108.912"] ;
638 -> 639 ;
640 [label="Depth_GEBCO <= -3491.0\nmse = 1352.271\nsamples = 29\nvalue = 118.585"] ;
639 -> 640 ;
641 [label="SeaWIFs_ChlrA <= 0.074\nmse = 1269.097\nsamples = 24\nvalue = 109.464"] ;
640 -> 641 ;
642 [label="SeaWIFs_ChlrA <= 0.07\nmse = 1135.607\nsamples = 21\nvalue = 115.507"] ;
641 -> 642 ;
643 [label="(...)"] ;
642 -> 643 ;
678 [label="(...)"] ;
642 -> 678 ;
683 [label="SeaWIFs_ChlrA <= 0.078\nmse = 466.8\nsamples = 3\nvalue = 72.0"] ;
641 -> 683 ;
684 [label="(...)"] ;
683 -> 684 ;
687 [label="(...)"] ;
683 -> 687 ;
688 [label="WOA_TEMP_K <= 298.549\nmse = 21.287\nsamples = 5\nvalue = 155.067"] ;
640 -> 688 ;
689 [label="Depth_GEBCO <= -3086.0\nmse = 12.677\nsamples = 3\nvalue = 157.6"] ;
688 -> 689 ;
690 [label="(...)"] ;
689 -> 690 ;
693 [label="(...)"] ;
689 -> 693 ;
694 [label="mse = 0.0\nsamples = 2\nvalue = 150.0"] ;
688 -> 694 ;
695 [label="mse = 0.0\nsamples = 1\nvalue = 36.364"] ;
639 -> 695 ;
696 [label="WOA_TEMP_K <= 300.303\nmse = 1600.0\nsamples = 2\nvalue = 260.0"] ;
638 -> 696 ;
697 [label="mse = 0.0\nsamples = 1\nvalue = 300.0"] ;
696 -> 697 ;
698 [label="mse = 0.0\nsamples = 1\nvalue = 220.0"] ;
696 -> 698 ;
699 [label="SeaWIFs_ChlrA <= 0.117\nmse = 2477.026\nsamples = 164\nvalue = 148.819"] ;
637 -> 699 ;
700 [label="Depth_GEBCO <= -4044.5\nmse = 4530.657\nsamples = 25\nvalue = 189.076"] ;
699 -> 700 ;
701 [label="SeaWIFs_ChlrA <= 0.112\nmse = 2650.847\nsamples = 14\nvalue = 154.575"] ;
700 -> 701 ;
702 [label="SeaWIFs_ChlrA <= 0.09\nmse = 1768.718\nsamples = 10\nvalue = 133.658"] ;
701 -> 702 ;
703 [label="WOA_TEMP_K <= 298.085\nmse = 1095.489\nsamples = 3\nvalue = 185.644"] ;
702 -> 703 ;
704 [label="(...)"] ;
703 -> 704 ;
707 [label="(...)"] ;
703 -> 707 ;
708 [label="WOA_TEMP_K <= 298.4\nmse = 870.622\nsamples = 7\nvalue = 117.412"] ;
702 -> 708 ;
709 [label="(...)"] ;
708 -> 709 ;
710 [label="(...)"] ;
708 -> 710 ;
721 [label="WOA_TEMP_K <= 301.162\nmse = 46.722\nsamples = 4\nvalue = 217.328"] ;
701 -> 721 ;
722 [label="WOA_TEMP_K <= 300.156\nmse = 2.478\nsamples = 3\nvalue = 211.499"] ;
721 -> 722 ;
723 [label="(...)"] ;
722 -> 723 ;
724 [label="(...)"] ;
722 -> 724 ;
725 [label="mse = -0.0\nsamples = 1\nvalue = 225.1"] ;
721 -> 725 ;
726 [label="Depth_GEBCO <= -3800.5\nmse = 3162.876\nsamples = 11\nvalue = 237.378"] ;
700 -> 726 ;
727 [label="SeaWIFs_ChlrA <= 0.111\nmse = 4469.887\nsamples = 3\nvalue = 280.256"] ;
726 -> 727 ;
728 [label="WOA_TEMP_K <= 297.54\nmse = 0.123\nsamples = 2\nvalue = 307.55"] ;
727 -> 728 ;
729 [label="(...)"] ;
728 -> 729 ;
730 [label="(...)"] ;
728 -> 730 ;
731 [label="mse = -0.0\nsamples = 1\nvalue = 116.492"] ;
727 -> 731 ;
732 [label="Depth_GEBCO <= -3085.0\nmse = 936.067\nsamples = 8\nvalue = 214.29"] ;
726 -> 732 ;
733 [label="Depth_GEBCO <= -3636.0\nmse = 225.372\nsamples = 5\nvalue = 199.652"] ;
732 -> 733 ;
734 [label="(...)"] ;
733 -> 734 ;
737 [label="(...)"] ;
733 -> 737 ;
742 [label="SeaWIFs_ChlrA <= 0.103\nmse = 968.312\nsamples = 3\nvalue = 247.225"] ;
732 -> 742 ;
743 [label="(...)"] ;
742 -> 743 ;
744 [label="(...)"] ;
742 -> 744 ;
745 [label="SeaWIFs_ChlrA <= 0.144\nmse = 1584.993\nsamples = 139\nvalue = 139.915"] ;
699 -> 745 ;
746 [label="Depth_GEBCO <= -2337.0\nmse = 982.41\nsamples = 18\nvalue = 111.25"] ;
745 -> 746 ;
747 [label="Depth_GEBCO <= -3869.5\nmse = 453.028\nsamples = 14\nvalue = 102.961"] ;
746 -> 747 ;
748 [label="WOA_TEMP_K <= 301.563\nmse = 240.801\nsamples = 10\nvalue = 110.684"] ;
747 -> 748 ;
749 [label="(...)"] ;
748 -> 749 ;
760 [label="(...)"] ;
748 -> 760 ;
767 [label="WOA_TEMP_K <= 298.702\nmse = 229.376\nsamples = 4\nvalue = 75.159"] ;
747 -> 767 ;
768 [label="(...)"] ;
767 -> 768 ;
771 [label="(...)"] ;
767 -> 771 ;
774 [label="Depth_GEBCO <= -1744.5\nmse = 1647.862\nsamples = 4\nvalue = 149.377"] ;
746 -> 774 ;
775 [label="mse = 0.0\nsamples = 1\nvalue = 226.584"] ;
774 -> 775 ;
776 [label="Depth_GEBCO <= -638.5\nmse = 197.017\nsamples = 3\nvalue = 130.075"] ;
774 -> 776 ;
777 [label="(...)"] ;
776 -> 777 ;
780 [label="(...)"] ;
776 -> 780 ;
781 [label="WOA_TEMP_K <= 301.685\nmse = 1534.5\nsamples = 121\nvalue = 144.161"] ;
745 -> 781 ;
782 [label="WOA_TEMP_K <= 299.343\nmse = 1334.071\nsamples = 115\nvalue = 141.556"] ;
781 -> 782 ;
783 [label="WOA_TEMP_K <= 298.052\nmse = 1214.414\nsamples = 103\nvalue = 144.896"] ;
782 -> 783 ;
784 [label="(...)"] ;
783 -> 784 ;
899 [label="(...)"] ;
783 -> 899 ;
944 [label="Depth_GEBCO <= -361.0\nmse = 1533.189\nsamples = 12\nvalue = 117.267"] ;
782 -> 944 ;
945 [label="(...)"] ;
944 -> 945 ;
966 [label="(...)"] ;
944 -> 966 ;
967 [label="SeaWIFs_ChlrA <= 0.308\nmse = 1982.242\nsamples = 6\nvalue = 211.889"] ;
781 -> 967 ;
968 [label="SeaWIFs_ChlrA <= 0.151\nmse = 212.577\nsamples = 4\nvalue = 237.093"] ;
967 -> 968 ;
969 [label="(...)"] ;
968 -> 969 ;
972 [label="(...)"] ;
968 -> 972 ;
975 [label="Depth_GEBCO <= -2127.0\nmse = 848.049\nsamples = 2\nvalue = 148.879"] ;
967 -> 975 ;
976 [label="(...)"] ;
975 -> 976 ;
977 [label="(...)"] ;
975 -> 977 ;
978 [label="SeaWIFs_ChlrA <= 0.351\nmse = 3974.232\nsamples = 38\nvalue = 190.463"] ;
636 -> 978 ;
979 [label="WOA_TEMP_K <= 297.691\nmse = 1628.16\nsamples = 16\nvalue = 217.2"] ;
978 -> 979 ;
980 [label="SeaWIFs_ChlrA <= 0.334\nmse = 367.347\nsamples = 5\nvalue = 195.714"] ;
979 -> 980 ;
981 [label="Depth_GEBCO <= -14.5\nmse = 184.0\nsamples = 4\nvalue = 186.0"] ;
980 -> 981 ;
982 [label="mse = 266.667\nsamples = 3\nvalue = 190.0"] ;
981 -> 982 ;
983 [label="mse = 0.0\nsamples = 1\nvalue = 180.0"] ;
981 -> 983 ;
984 [label="mse = 0.0\nsamples = 1\nvalue = 220.0"] ;
980 -> 984 ;
985 [label="WOA_TEMP_K <= 299.997\nmse = 1869.136\nsamples = 11\nvalue = 225.556"] ;
979 -> 985 ;
986 [label="WOA_TEMP_K <= 298.726\nmse = 1178.698\nsamples = 8\nvalue = 234.615"] ;
985 -> 986 ;
987 [label="mse = 583.673\nsamples = 4\nvalue = 221.429"] ;
986 -> 987 ;
988 [label="Depth_GEBCO <= -14.5\nmse = 1433.333\nsamples = 4\nvalue = 250.0"] ;
986 -> 988 ;
989 [label="mse = 1696.0\nsamples = 3\nvalue = 248.0"] ;
988 -> 989 ;
990 [label="mse = 0.0\nsamples = 1\nvalue = 260.0"] ;
988 -> 990 ;
991 [label="mse = 2896.0\nsamples = 3\nvalue = 202.0"] ;
985 -> 991 ;
992 [label="Depth_GEBCO <= -16.5\nmse = 4714.494\nsamples = 22\nvalue = 173.752"] ;
978 -> 992 ;
993 [label="Depth_GEBCO <= -17.5\nmse = 2114.889\nsamples = 7\nvalue = 110.333"] ;
992 -> 993 ;
994 [label="WOA_TEMP_K <= 298.457\nmse = 189.0\nsamples = 5\nvalue = 141.0"] ;
993 -> 994 ;
995 [label="mse = 0.0\nsamples = 2\nvalue = 150.0"] ;
994 -> 995 ;
996 [label="SeaWIFs_ChlrA <= 0.714\nmse = 216.0\nsamples = 3\nvalue = 132.0"] ;
994 -> 996 ;
997 [label="mse = 225.0\nsamples = 2\nvalue = 135.0"] ;
996 -> 997 ;
998 [label="mse = 0.0\nsamples = 1\nvalue = 120.0"] ;
996 -> 998 ;
999 [label="mse = 324.0\nsamples = 2\nvalue = 49.0"] ;
993 -> 999 ;
1000 [label="Depth_GEBCO <= -4.5\nmse = 2413.146\nsamples = 15\nvalue = 211.804"] ;
992 -> 1000 ;
1001 [label="SeaWIFs_ChlrA <= 2.617\nmse = 2111.377\nsamples = 11\nvalue = 198.953"] ;
1000 -> 1001 ;
1002 [label="mse = 25.0\nsamples = 2\nvalue = 245.0"] ;
1001 -> 1002 ;
1003 [label="Depth_GEBCO <= -5.5\nmse = 2078.032\nsamples = 9\nvalue = 193.535"] ;
1001 -> 1003 ;
1004 [label="Depth_GEBCO <= -9.0\nmse = 1981.152\nsamples = 8\nvalue = 197.188"] ;
1003 -> 1004 ;
1005 [label="(...)"] ;
1004 -> 1005 ;
1010 [label="(...)"] ;
1004 -> 1010 ;
1011 [label="mse = 0.0\nsamples = 1\nvalue = 135.1"] ;
1003 -> 1011 ;
1012 [label="SeaWIFs_ChlrA <= 0.409\nmse = 1189.583\nsamples = 4\nvalue = 252.5"] ;
1000 -> 1012 ;
1013 [label="mse = 0.0\nsamples = 1\nvalue = 290.0"] ;
1012 -> 1013 ;
1014 [label="SeaWIFs_ChlrA <= 2.978\nmse = 1090.0\nsamples = 3\nvalue = 245.0"] ;
1012 -> 1014 ;
1015 [label="WOA_TEMP_K <= 299.68\nmse = 1225.0\nsamples = 2\nvalue = 215.0"] ;
1014 -> 1015 ;
1016 [label="(...)"] ;
1015 -> 1016 ;
1017 [label="(...)"] ;
1015 -> 1017 ;
1018 [label="mse = 0.0\nsamples = 1\nvalue = 265.0"] ;
1014 -> 1018 ;
}