digraph Tree {
node [shape=box] ;
0 [label="WOA_TEMP_K <= 293.427\nmse = 4978.302\nsamples = 666\nvalue = 101.184"] ;
1 [label="Depth_GEBCO <= -34.0\nmse = 2406.05\nsamples = 403\nvalue = 62.699"] ;
0 -> 1 [labeldistance=2.5, labelangle=45, headlabel="True"] ;
2 [label="WOA_TEMP_K <= 287.501\nmse = 1801.455\nsamples = 353\nvalue = 54.276"] ;
1 -> 2 ;
3 [label="Depth_GEBCO <= -100.0\nmse = 1758.875\nsamples = 260\nvalue = 46.491"] ;
2 -> 3 ;
4 [label="WOA_Salinity <= 33.229\nmse = 1502.833\nsamples = 196\nvalue = 38.699"] ;
3 -> 4 ;
5 [label="SWrad <= 68.403\nmse = 8505.895\nsamples = 9\nvalue = 130.991"] ;
4 -> 5 ;
6 [label="Depth_GEBCO <= -535.0\nmse = 43.75\nsamples = 3\nvalue = 222.5"] ;
5 -> 6 ;
7 [label="mse = 75.0\nsamples = 2\nvalue = 225.0"] ;
6 -> 7 ;
8 [label="mse = 0.0\nsamples = 1\nvalue = 220.0"] ;
6 -> 8 ;
9 [label="Depth_GEBCO <= -3617.0\nmse = 220.108\nsamples = 6\nvalue = 39.481"] ;
5 -> 9 ;
10 [label="mse = 0.0\nsamples = 1\nvalue = 70.0"] ;
9 -> 10 ;
11 [label="Depth_GEBCO <= -2379.0\nmse = 99.487\nsamples = 5\nvalue = 35.121"] ;
9 -> 11 ;
12 [label="(...)"] ;
11 -> 12 ;
13 [label="(...)"] ;
11 -> 13 ;
18 [label="WOA_Salinity <= 33.879\nmse = 629.882\nsamples = 187\nvalue = 33.659"] ;
4 -> 18 ;
19 [label="WOA_TEMP_K <= 275.57\nmse = 853.481\nsamples = 51\nvalue = 48.205"] ;
18 -> 19 ;
20 [label="WOA_Salinity <= 33.739\nmse = 204.78\nsamples = 40\nvalue = 38.754"] ;
19 -> 20 ;
21 [label="(...)"] ;
20 -> 21 ;
58 [label="(...)"] ;
20 -> 58 ;
89 [label="WOA_TEMP_K <= 275.848\nmse = 1726.68\nsamples = 11\nvalue = 79.394"] ;
19 -> 89 ;
90 [label="(...)"] ;
89 -> 90 ;
91 [label="(...)"] ;
89 -> 91 ;
110 [label="Depth_GEBCO <= -139.0\nmse = 412.57\nsamples = 136\nvalue = 27.616"] ;
18 -> 110 ;
111 [label="Depth_GEBCO <= -5438.5\nmse = 324.024\nsamples = 118\nvalue = 25.041"] ;
110 -> 111 ;
112 [label="(...)"] ;
111 -> 112 ;
119 [label="(...)"] ;
111 -> 119 ;
288 [label="WOA_Salinity <= 34.805\nmse = 663.92\nsamples = 18\nvalue = 42.235"] ;
110 -> 288 ;
289 [label="(...)"] ;
288 -> 289 ;
296 [label="(...)"] ;
288 -> 296 ;
317 [label="WOA_TEMP_K <= 275.475\nmse = 1713.789\nsamples = 64\nvalue = 73.244"] ;
3 -> 317 ;
318 [label="WOA_TEMP_K <= 273.418\nmse = 1336.507\nsamples = 33\nvalue = 50.05"] ;
317 -> 318 ;
319 [label="SWrad <= 198.166\nmse = 883.786\nsamples = 25\nvalue = 44.616"] ;
318 -> 319 ;
320 [label="WOA_TEMP_K <= 272.122\nmse = 1057.941\nsamples = 18\nvalue = 50.472"] ;
319 -> 320 ;
321 [label="(...)"] ;
320 -> 321 ;
328 [label="(...)"] ;
320 -> 328 ;
331 [label="SWrad <= 277.23\nmse = 84.088\nsamples = 7\nvalue = 29.0"] ;
319 -> 331 ;
332 [label="(...)"] ;
331 -> 332 ;
335 [label="(...)"] ;
331 -> 335 ;
336 [label="mse = 2277.032\nsamples = 8\nvalue = 64.992"] ;
318 -> 336 ;
337 [label="WOA_Salinity <= 33.214\nmse = 1015.111\nsamples = 31\nvalue = 96.438"] ;
317 -> 337 ;
338 [label="mse = 0.0\nsamples = 1\nvalue = 180.0"] ;
337 -> 338 ;
339 [label="WOA_TEMP_K <= 279.514\nmse = 722.449\nsamples = 30\nvalue = 92.552"] ;
337 -> 339 ;
340 [label="SWrad <= 178.696\nmse = 0.573\nsamples = 2\nvalue = 18.757"] ;
339 -> 340 ;
341 [label="(...)"] ;
340 -> 341 ;
342 [label="(...)"] ;
340 -> 342 ;
343 [label="WOA_TEMP_K <= 284.777\nmse = 479.064\nsamples = 28\nvalue = 96.151"] ;
339 -> 343 ;
344 [label="(...)"] ;
343 -> 344 ;
381 [label="(...)"] ;
343 -> 381 ;
386 [label="SWrad <= 140.282\nmse = 1286.282\nsamples = 93\nvalue = 75.845"] ;
2 -> 386 ;
387 [label="Depth_GEBCO <= -628.5\nmse = 510.753\nsamples = 27\nvalue = 55.274"] ;
386 -> 387 ;
388 [label="Depth_GEBCO <= -1810.5\nmse = 258.482\nsamples = 22\nvalue = 48.088"] ;
387 -> 388 ;
389 [label="Depth_GEBCO <= -2512.0\nmse = 188.566\nsamples = 21\nvalue = 50.982"] ;
388 -> 389 ;
390 [label="SWrad <= 113.521\nmse = 133.539\nsamples = 18\nvalue = 48.338"] ;
389 -> 390 ;
391 [label="(...)"] ;
390 -> 391 ;
422 [label="(...)"] ;
390 -> 422 ;
425 [label="SWrad <= 65.656\nmse = 27.556\nsamples = 3\nvalue = 75.667"] ;
389 -> 425 ;
426 [label="(...)"] ;
425 -> 426 ;
427 [label="(...)"] ;
425 -> 427 ;
428 [label="mse = 0.0\nsamples = 1\nvalue = 18.182"] ;
388 -> 428 ;
429 [label="WOA_Salinity <= 34.029\nmse = 267.244\nsamples = 5\nvalue = 90.174"] ;
387 -> 429 ;
430 [label="mse = 0.0\nsamples = 1\nvalue = 114.116"] ;
429 -> 430 ;
431 [label="WOA_TEMP_K <= 287.666\nmse = 53.143\nsamples = 4\nvalue = 80.597"] ;
429 -> 431 ;
432 [label="Depth_GEBCO <= -40.0\nmse = 0.0\nsamples = 2\nvalue = 74.747"] ;
431 -> 432 ;
433 [label="(...)"] ;
432 -> 433 ;
434 [label="(...)"] ;
432 -> 434 ;
435 [label="WOA_TEMP_K <= 288.186\nmse = 4.507\nsamples = 2\nvalue = 89.373"] ;
431 -> 435 ;
436 [label="(...)"] ;
435 -> 436 ;
437 [label="(...)"] ;
435 -> 437 ;
438 [label="SWrad <= 243.906\nmse = 1359.475\nsamples = 66\nvalue = 84.034"] ;
386 -> 438 ;
439 [label="SWrad <= 237.942\nmse = 1426.939\nsamples = 42\nvalue = 95.155"] ;
438 -> 439 ;
440 [label="WOA_TEMP_K <= 290.199\nmse = 1245.845\nsamples = 39\nvalue = 90.249"] ;
439 -> 440 ;
441 [label="WOA_Salinity <= 35.199\nmse = 1386.546\nsamples = 17\nvalue = 75.16"] ;
440 -> 441 ;
442 [label="(...)"] ;
441 -> 442 ;
465 [label="(...)"] ;
441 -> 465 ;
472 [label="WOA_Salinity <= 16.205\nmse = 904.966\nsamples = 22\nvalue = 100.175"] ;
440 -> 472 ;
473 [label="(...)"] ;
472 -> 473 ;
478 [label="(...)"] ;
472 -> 478 ;
509 [label="WOA_TEMP_K <= 292.976\nmse = 422.222\nsamples = 3\nvalue = 146.667"] ;
439 -> 509 ;
510 [label="WOA_TEMP_K <= 292.853\nmse = 100.0\nsamples = 2\nvalue = 160.0"] ;
509 -> 510 ;
511 [label="(...)"] ;
510 -> 511 ;
512 [label="(...)"] ;
510 -> 512 ;
513 [label="mse = 0.0\nsamples = 1\nvalue = 120.0"] ;
509 -> 513 ;
514 [label="WOA_TEMP_K <= 289.789\nmse = 462.273\nsamples = 24\nvalue = 61.466"] ;
438 -> 514 ;
515 [label="mse = 0.0\nsamples = 2\nvalue = 15.789"] ;
514 -> 515 ;
516 [label="SWrad <= 277.087\nmse = 285.566\nsamples = 22\nvalue = 65.886"] ;
514 -> 516 ;
517 [label="Depth_GEBCO <= -5194.0\nmse = 210.973\nsamples = 15\nvalue = 71.862"] ;
516 -> 517 ;
518 [label="(...)"] ;
517 -> 518 ;
519 [label="(...)"] ;
517 -> 519 ;
538 [label="WOA_Salinity <= 38.613\nmse = 167.267\nsamples = 7\nvalue = 51.28"] ;
516 -> 538 ;
539 [label="(...)"] ;
538 -> 539 ;
546 [label="(...)"] ;
538 -> 546 ;
547 [label="WOA_TEMP_K <= 277.555\nmse = 2276.225\nsamples = 50\nvalue = 128.039"] ;
1 -> 547 ;
548 [label="WOA_TEMP_K <= 274.854\nmse = 192.494\nsamples = 4\nvalue = 35.526"] ;
547 -> 548 ;
549 [label="Depth_GEBCO <= -17.0\nmse = 27.765\nsamples = 2\nvalue = 48.453"] ;
548 -> 549 ;
550 [label="mse = 0.0\nsamples = 1\nvalue = 43.183"] ;
549 -> 550 ;
551 [label="mse = -0.0\nsamples = 1\nvalue = 53.722"] ;
549 -> 551 ;
552 [label="mse = 23.04\nsamples = 2\nvalue = 22.6"] ;
548 -> 552 ;
553 [label="Depth_GEBCO <= -22.5\nmse = 1852.368\nsamples = 46\nvalue = 133.646"] ;
547 -> 553 ;
554 [label="WOA_Salinity <= 31.846\nmse = 803.594\nsamples = 22\nvalue = 107.744"] ;
553 -> 554 ;
555 [label="Depth_GEBCO <= -30.0\nmse = 285.188\nsamples = 2\nvalue = 147.75"] ;
554 -> 555 ;
556 [label="mse = 0.0\nsamples = 1\nvalue = 177.0"] ;
555 -> 556 ;
557 [label="mse = 0.0\nsamples = 1\nvalue = 138.0"] ;
555 -> 557 ;
558 [label="WOA_TEMP_K <= 288.289\nmse = 599.245\nsamples = 20\nvalue = 101.59"] ;
554 -> 558 ;
559 [label="WOA_TEMP_K <= 287.982\nmse = 563.151\nsamples = 5\nvalue = 89.444"] ;
558 -> 559 ;
560 [label="WOA_TEMP_K <= 287.11\nmse = 293.329\nsamples = 4\nvalue = 99.227"] ;
559 -> 560 ;
561 [label="(...)"] ;
560 -> 561 ;
566 [label="(...)"] ;
560 -> 566 ;
567 [label="mse = -0.0\nsamples = 1\nvalue = 55.202"] ;
559 -> 567 ;
568 [label="SWrad <= 128.862\nmse = 498.907\nsamples = 15\nvalue = 108.02"] ;
558 -> 568 ;
569 [label="WOA_TEMP_K <= 289.182\nmse = 11.944\nsamples = 2\nvalue = 137.112"] ;
568 -> 569 ;
570 [label="(...)"] ;
569 -> 570 ;
571 [label="(...)"] ;
569 -> 571 ;
572 [label="SWrad <= 215.077\nmse = 383.026\nsamples = 13\nvalue = 101.786"] ;
568 -> 572 ;
573 [label="(...)"] ;
572 -> 573 ;
588 [label="(...)"] ;
572 -> 588 ;
589 [label="WOA_TEMP_K <= 290.122\nmse = 1701.346\nsamples = 24\nvalue = 155.231"] ;
553 -> 589 ;
590 [label="SWrad <= 43.332\nmse = 1585.773\nsamples = 12\nvalue = 176.466"] ;
589 -> 590 ;
591 [label="SWrad <= 41.132\nmse = 519.84\nsamples = 2\nvalue = 117.2"] ;
590 -> 591 ;
592 [label="mse = 0.0\nsamples = 1\nvalue = 94.4"] ;
591 -> 592 ;
593 [label="mse = 0.0\nsamples = 1\nvalue = 140.0"] ;
591 -> 593 ;
594 [label="Depth_GEBCO <= -3.5\nmse = 1270.57\nsamples = 10\nvalue = 183.051"] ;
590 -> 594 ;
595 [label="SWrad <= 207.528\nmse = 1038.09\nsamples = 8\nvalue = 188.688"] ;
594 -> 595 ;
596 [label="(...)"] ;
595 -> 596 ;
607 [label="(...)"] ;
595 -> 607 ;
608 [label="WOA_TEMP_K <= 279.557\nmse = 843.216\nsamples = 2\nvalue = 137.962"] ;
594 -> 608 ;
609 [label="(...)"] ;
608 -> 609 ;
610 [label="(...)"] ;
608 -> 610 ;
611 [label="WOA_TEMP_K <= 291.27\nmse = 577.59\nsamples = 12\nvalue = 128.688"] ;
589 -> 611 ;
612 [label="WOA_Salinity <= 33.079\nmse = 539.359\nsamples = 6\nvalue = 141.125"] ;
611 -> 612 ;
613 [label="Depth_GEBCO <= -14.5\nmse = 222.408\nsamples = 5\nvalue = 148.143"] ;
612 -> 613 ;
614 [label="(...)"] ;
613 -> 614 ;
619 [label="(...)"] ;
613 -> 619 ;
622 [label="mse = 0.0\nsamples = 1\nvalue = 92.0"] ;
612 -> 622 ;
623 [label="Depth_GEBCO <= -3.0\nmse = 306.438\nsamples = 6\nvalue = 116.25"] ;
611 -> 623 ;
624 [label="WOA_Salinity <= 36.618\nmse = 158.694\nsamples = 5\nvalue = 121.143"] ;
623 -> 624 ;
625 [label="(...)"] ;
624 -> 625 ;
632 [label="(...)"] ;
624 -> 632 ;
633 [label="mse = 0.0\nsamples = 1\nvalue = 82.0"] ;
623 -> 633 ;
634 [label="Depth_GEBCO <= -27.5\nmse = 3534.302\nsamples = 263\nvalue = 155.919"] ;
0 -> 634 [labeldistance=2.5, labelangle=-45, headlabel="False"] ;
635 [label="WOA_Salinity <= 35.587\nmse = 3066.984\nsamples = 213\nvalue = 145.051"] ;
634 -> 635 ;
636 [label="SWrad <= 307.363\nmse = 2016.644\nsamples = 133\nvalue = 132.228"] ;
635 -> 636 ;
637 [label="SWrad <= 300.869\nmse = 1839.328\nsamples = 132\nvalue = 130.496"] ;
636 -> 637 ;
638 [label="SWrad <= 230.91\nmse = 1732.553\nsamples = 131\nvalue = 131.901"] ;
637 -> 638 ;
639 [label="WOA_TEMP_K <= 301.997\nmse = 1268.824\nsamples = 86\nvalue = 138.634"] ;
638 -> 639 ;
640 [label="WOA_Salinity <= 35.023\nmse = 1157.432\nsamples = 84\nvalue = 137.27"] ;
639 -> 640 ;
641 [label="(...)"] ;
640 -> 641 ;
758 [label="(...)"] ;
640 -> 758 ;
769 [label="SWrad <= 229.283\nmse = 392.186\nsamples = 2\nvalue = 228.666"] ;
639 -> 769 ;
770 [label="(...)"] ;
769 -> 770 ;
771 [label="(...)"] ;
769 -> 771 ;
772 [label="WOA_Salinity <= 33.497\nmse = 2387.996\nsamples = 45\nvalue = 118.435"] ;
638 -> 772 ;
773 [label="mse = 0.0\nsamples = 1\nvalue = 275.0"] ;
772 -> 773 ;
774 [label="WOA_Salinity <= 34.531\nmse = 2047.147\nsamples = 44\nvalue = 116.063"] ;
772 -> 774 ;
775 [label="(...)"] ;
774 -> 775 ;
790 [label="(...)"] ;
774 -> 790 ;
857 [label="mse = 0.0\nsamples = 1\nvalue = 36.364"] ;
637 -> 857 ;
858 [label="mse = -0.0\nsamples = 1\nvalue = 250.0"] ;
636 -> 858 ;
859 [label="Depth_GEBCO <= -3676.0\nmse = 4051.87\nsamples = 80\nvalue = 165.16"] ;
635 -> 859 ;
860 [label="WOA_Salinity <= 36.063\nmse = 3152.608\nsamples = 40\nvalue = 134.04"] ;
859 -> 860 ;
861 [label="SWrad <= 281.834\nmse = 5113.2\nsamples = 12\nvalue = 177.761"] ;
860 -> 861 ;
862 [label="WOA_Salinity <= 35.758\nmse = 2245.861\nsamples = 10\nvalue = 149.164"] ;
861 -> 862 ;
863 [label="WOA_TEMP_K <= 297.04\nmse = 1848.435\nsamples = 4\nvalue = 181.534"] ;
862 -> 863 ;
864 [label="(...)"] ;
863 -> 864 ;
865 [label="(...)"] ;
863 -> 865 ;
870 [label="WOA_TEMP_K <= 297.432\nmse = 1106.087\nsamples = 6\nvalue = 123.987"] ;
862 -> 870 ;
871 [label="(...)"] ;
870 -> 871 ;
874 [label="(...)"] ;
870 -> 874 ;
881 [label="SWrad <= 286.632\nmse = 226.503\nsamples = 2\nvalue = 292.15"] ;
861 -> 881 ;
882 [label="mse = 0.0\nsamples = 1\nvalue = 277.1"] ;
881 -> 882 ;
883 [label="mse = 0.0\nsamples = 1\nvalue = 307.2"] ;
881 -> 883 ;
884 [label="SWrad <= 149.751\nmse = 938.124\nsamples = 28\nvalue = 113.705"] ;
860 -> 884 ;
885 [label="SWrad <= 115.708\nmse = 879.464\nsamples = 6\nvalue = 77.22"] ;
884 -> 885 ;
886 [label="SWrad <= 107.52\nmse = 25.92\nsamples = 2\nvalue = 112.8"] ;
885 -> 886 ;
887 [label="(...)"] ;
886 -> 887 ;
888 [label="(...)"] ;
886 -> 888 ;
889 [label="WOA_Salinity <= 36.542\nmse = 356.789\nsamples = 4\nvalue = 59.43"] ;
885 -> 889 ;
890 [label="(...)"] ;
889 -> 890 ;
891 [label="(...)"] ;
889 -> 891 ;
896 [label="SWrad <= 210.925\nmse = 508.008\nsamples = 22\nvalue = 123.363"] ;
884 -> 896 ;
897 [label="Depth_GEBCO <= -4954.0\nmse = 232.083\nsamples = 6\nvalue = 159.085"] ;
896 -> 897 ;
898 [label="(...)"] ;
897 -> 898 ;
901 [label="(...)"] ;
897 -> 901 ;
908 [label="SWrad <= 239.75\nmse = 79.456\nsamples = 16\nvalue = 112.372"] ;
896 -> 908 ;
909 [label="(...)"] ;
908 -> 909 ;
914 [label="(...)"] ;
908 -> 914 ;
937 [label="WOA_Salinity <= 36.69\nmse = 3181.35\nsamples = 40\nvalue = 193.574"] ;
859 -> 937 ;
938 [label="WOA_Salinity <= 36.044\nmse = 2495.192\nsamples = 38\nvalue = 200.674"] ;
937 -> 938 ;
939 [label="SWrad <= 298.559\nmse = 2586.082\nsamples = 7\nvalue = 242.971"] ;
938 -> 939 ;
940 [label="WOA_TEMP_K <= 294.509\nmse = 1740.67\nsamples = 5\nvalue = 209.238"] ;
939 -> 940 ;
941 [label="(...)"] ;
940 -> 941 ;
942 [label="(...)"] ;
940 -> 942 ;
947 [label="WOA_TEMP_K <= 298.267\nmse = 172.922\nsamples = 2\nvalue = 287.95"] ;
939 -> 947 ;
948 [label="(...)"] ;
947 -> 948 ;
949 [label="(...)"] ;
947 -> 949 ;
950 [label="Depth_GEBCO <= -261.5\nmse = 1844.312\nsamples = 31\nvalue = 189.063"] ;
938 -> 950 ;
951 [label="WOA_TEMP_K <= 299.277\nmse = 504.296\nsamples = 19\nvalue = 168.469"] ;
950 -> 951 ;
952 [label="(...)"] ;
951 -> 952 ;
973 [label="(...)"] ;
951 -> 973 ;
976 [label="WOA_TEMP_K <= 298.73\nmse = 2097.903\nsamples = 12\nvalue = 226.819"] ;
950 -> 976 ;
977 [label="(...)"] ;
976 -> 977 ;
982 [label="(...)"] ;
976 -> 982 ;
987 [label="Depth_GEBCO <= -3138.0\nmse = 201.353\nsamples = 2\nvalue = 78.201"] ;
937 -> 987 ;
988 [label="mse = 0.0\nsamples = 1\nvalue = 102.779"] ;
987 -> 988 ;
989 [label="mse = -0.0\nsamples = 1\nvalue = 70.009"] ;
987 -> 989 ;
990 [label="SWrad <= 127.378\nmse = 3217.461\nsamples = 50\nvalue = 195.964"] ;
634 -> 990 ;
991 [label="SWrad <= 105.684\nmse = 345.887\nsamples = 4\nvalue = 114.675"] ;
990 -> 991 ;
992 [label="mse = 0.0\nsamples = 1\nvalue = 90.0"] ;
991 -> 992 ;
993 [label="WOA_Salinity <= 32.284\nmse = 190.58\nsamples = 3\nvalue = 122.9"] ;
991 -> 993 ;
994 [label="mse = 0.0\nsamples = 1\nvalue = 103.6"] ;
993 -> 994 ;
995 [label="WOA_TEMP_K <= 293.892\nmse = 6.502\nsamples = 2\nvalue = 132.55"] ;
993 -> 995 ;
996 [label="mse = 0.0\nsamples = 1\nvalue = 130.0"] ;
995 -> 996 ;
997 [label="mse = -0.0\nsamples = 1\nvalue = 135.1"] ;
995 -> 997 ;
998 [label="Depth_GEBCO <= -13.5\nmse = 3033.975\nsamples = 46\nvalue = 199.659"] ;
990 -> 998 ;
999 [label="Depth_GEBCO <= -22.0\nmse = 3071.403\nsamples = 34\nvalue = 189.841"] ;
998 -> 999 ;
1000 [label="WOA_Salinity <= 36.394\nmse = 2854.339\nsamples = 21\nvalue = 205.385"] ;
999 -> 1000 ;
1001 [label="SWrad <= 198.829\nmse = 2142.188\nsamples = 5\nvalue = 236.25"] ;
1000 -> 1001 ;
1002 [label="mse = 0.0\nsamples = 1\nvalue = 205.0"] ;
1001 -> 1002 ;
1003 [label="mse = 2422.222\nsamples = 4\nvalue = 246.667"] ;
1001 -> 1003 ;
1004 [label="WOA_TEMP_K <= 300.216\nmse = 2728.824\nsamples = 16\nvalue = 197.419"] ;
1000 -> 1004 ;
1005 [label="WOA_TEMP_K <= 297.66\nmse = 3067.297\nsamples = 12\nvalue = 203.913"] ;
1004 -> 1005 ;
1006 [label="(...)"] ;
1005 -> 1006 ;
1009 [label="(...)"] ;
1005 -> 1009 ;
1012 [label="mse = 1285.938\nsamples = 4\nvalue = 178.75"] ;
1004 -> 1012 ;
1013 [label="Depth_GEBCO <= -16.5\nmse = 2393.576\nsamples = 13\nvalue = 164.583"] ;
999 -> 1013 ;
1014 [label="WOA_TEMP_K <= 298.457\nmse = 928.698\nsamples = 6\nvalue = 144.615"] ;
1013 -> 1014 ;
1015 [label="WOA_TEMP_K <= 297.77\nmse = 81.633\nsamples = 3\nvalue = 164.286"] ;
1014 -> 1015 ;
1016 [label="(...)"] ;
1015 -> 1016 ;
1017 [label="(...)"] ;
1015 -> 1017 ;
1018 [label="WOA_Salinity <= 34.603\nmse = 938.889\nsamples = 3\nvalue = 121.667"] ;
1014 -> 1018 ;
1019 [label="(...)"] ;
1018 -> 1019 ;
1020 [label="(...)"] ;
1018 -> 1020 ;
1021 [label="WOA_Salinity <= 34.346\nmse = 3096.694\nsamples = 7\nvalue = 188.182"] ;
1013 -> 1021 ;
1022 [label="mse = 2384.694\nsamples = 4\nvalue = 192.857"] ;
1021 -> 1022 ;
1023 [label="mse = 4237.5\nsamples = 3\nvalue = 180.0"] ;
1021 -> 1023 ;
1024 [label="WOA_TEMP_K <= 296.953\nmse = 2084.64\nsamples = 12\nvalue = 224.4"] ;
998 -> 1024 ;
1025 [label="SWrad <= 221.367\nmse = 713.889\nsamples = 4\nvalue = 178.333"] ;
1024 -> 1025 ;
1026 [label="SWrad <= 157.171\nmse = 40.0\nsamples = 3\nvalue = 190.0"] ;
1025 -> 1026 ;
1027 [label="mse = 0.0\nsamples = 1\nvalue = 180.0"] ;
1026 -> 1027 ;
1028 [label="mse = 18.75\nsamples = 2\nvalue = 192.5"] ;
1026 -> 1028 ;
1029 [label="mse = 0.0\nsamples = 1\nvalue = 120.0"] ;
1025 -> 1029 ;
1030 [label="WOA_Salinity <= 34.253\nmse = 1635.734\nsamples = 8\nvalue = 238.947"] ;
1024 -> 1030 ;
1031 [label="mse = 862.245\nsamples = 2\nvalue = 218.571"] ;
1030 -> 1031 ;
1032 [label="Depth_GEBCO <= -9.0\nmse = 1703.472\nsamples = 6\nvalue = 250.833"] ;
1030 -> 1032 ;
1033 [label="mse = 1518.75\nsamples = 2\nvalue = 227.5"] ;
1032 -> 1033 ;
1034 [label="WOA_Salinity <= 34.57\nmse = 1387.5\nsamples = 4\nvalue = 262.5"] ;
1032 -> 1034 ;
1035 [label="(...)"] ;
1034 -> 1035 ;
1036 [label="(...)"] ;
1034 -> 1036 ;
}