digraph Tree {
node [shape=box] ;
0 [label="WOA_TEMP_K <= 294.3\nmse = 4591.391\nsamples = 647\nvalue = 96.653"] ;
1 [label="WOA_Nitrate <= 7.549\nmse = 2487.08\nsamples = 413\nvalue = 64.327"] ;
0 -> 1 [labeldistance=2.5, labelangle=45, headlabel="True"] ;
2 [label="WOA_TEMP_K <= 278.641\nmse = 2768.806\nsamples = 219\nvalue = 84.802"] ;
1 -> 2 ;
3 [label="WOA_Salinity <= 21.118\nmse = 2047.491\nsamples = 10\nvalue = 177.824"] ;
2 -> 3 ;
4 [label="mse = 0.0\nsamples = 1\nvalue = 7.95"] ;
3 -> 4 ;
5 [label="WOA_TEMP_K <= 277.506\nmse = 769.248\nsamples = 9\nvalue = 185.545"] ;
3 -> 5 ;
6 [label="WOA_Salinity <= 32.949\nmse = 249.0\nsamples = 4\nvalue = 209.0"] ;
5 -> 6 ;
7 [label="mse = 0.0\nsamples = 1\nvalue = 180.0"] ;
6 -> 7 ;
8 [label="WOA_TEMP_K <= 277.403\nmse = 48.438\nsamples = 3\nvalue = 216.25"] ;
6 -> 8 ;
9 [label="mse = 64.0\nsamples = 2\nvalue = 214.0"] ;
8 -> 9 ;
10 [label="mse = 0.0\nsamples = 1\nvalue = 220.0"] ;
8 -> 10 ;
11 [label="WOA_TEMP_K <= 277.8\nmse = 362.333\nsamples = 5\nvalue = 166.0"] ;
5 -> 11 ;
12 [label="WOA_MLDpt <= 25.75\nmse = 375.0\nsamples = 3\nvalue = 160.0"] ;
11 -> 12 ;
13 [label="mse = 0.0\nsamples = 1\nvalue = 160.0"] ;
12 -> 13 ;
14 [label="mse = 600.0\nsamples = 2\nvalue = 160.0"] ;
12 -> 14 ;
15 [label="mse = 121.0\nsamples = 2\nvalue = 178.0"] ;
11 -> 15 ;
16 [label="WOA_Salinity <= 32.301\nmse = 2192.649\nsamples = 209\nvalue = 78.509"] ;
2 -> 16 ;
17 [label="WOA_Salinity <= 21.628\nmse = 2687.725\nsamples = 18\nvalue = 129.041"] ;
16 -> 17 ;
18 [label="WOA_MLDpt <= 5.45\nmse = 1096.513\nsamples = 6\nvalue = 84.3"] ;
17 -> 18 ;
19 [label="WOA_Salinity <= 15.181\nmse = 72.25\nsamples = 2\nvalue = 129.5"] ;
18 -> 19 ;
20 [label="mse = 0.0\nsamples = 1\nvalue = 121.0"] ;
19 -> 20 ;
21 [label="mse = 0.0\nsamples = 1\nvalue = 138.0"] ;
19 -> 21 ;
22 [label="WOA_MLDpt <= 5.95\nmse = 76.365\nsamples = 4\nvalue = 61.7"] ;
18 -> 22 ;
23 [label="mse = 0.0\nsamples = 1\nvalue = 69.9"] ;
22 -> 23 ;
24 [label="WOA_MLDpt <= 11.4\nmse = 18.25\nsamples = 3\nvalue = 53.5"] ;
22 -> 24 ;
25 [label="(...)"] ;
24 -> 25 ;
28 [label="(...)"] ;
24 -> 28 ;
29 [label="WOA_TEMP_K <= 291.12\nmse = 1868.214\nsamples = 12\nvalue = 153.445"] ;
17 -> 29 ;
30 [label="WOA_Nitrate <= 0.092\nmse = 1434.978\nsamples = 10\nvalue = 165.722"] ;
29 -> 30 ;
31 [label="mse = 0.0\nsamples = 1\nvalue = 91.0"] ;
30 -> 31 ;
32 [label="WOA_Nitrate <= 0.151\nmse = 829.184\nsamples = 9\nvalue = 175.062"] ;
30 -> 32 ;
33 [label="(...)"] ;
32 -> 33 ;
36 [label="(...)"] ;
32 -> 36 ;
49 [label="WOA_Nitrate <= 1.417\nmse = 87.48\nsamples = 2\nvalue = 98.2"] ;
29 -> 49 ;
50 [label="mse = 0.0\nsamples = 1\nvalue = 103.6"] ;
49 -> 50 ;
51 [label="mse = -0.0\nsamples = 1\nvalue = 82.0"] ;
49 -> 51 ;
52 [label="WOA_TEMP_K <= 287.433\nmse = 1822.4\nsamples = 191\nvalue = 72.895"] ;
16 -> 52 ;
53 [label="WOA_Salinity <= 35.26\nmse = 1227.165\nsamples = 70\nvalue = 54.42"] ;
52 -> 53 ;
54 [label="WOA_TEMP_K <= 286.407\nmse = 993.945\nsamples = 42\nvalue = 75.124"] ;
53 -> 54 ;
55 [label="WOA_MLDpt <= 30.65\nmse = 811.573\nsamples = 37\nvalue = 80.711"] ;
54 -> 55 ;
56 [label="(...)"] ;
55 -> 56 ;
81 [label="(...)"] ;
55 -> 81 ;
118 [label="WOA_Salinity <= 34.877\nmse = 371.66\nsamples = 5\nvalue = 33.22"] ;
54 -> 118 ;
119 [label="(...)"] ;
118 -> 119 ;
122 [label="(...)"] ;
118 -> 122 ;
127 [label="WOA_TEMP_K <= 286.714\nmse = 47.103\nsamples = 28\nvalue = 24.465"] ;
53 -> 127 ;
128 [label="WOA_Salinity <= 35.296\nmse = 29.535\nsamples = 20\nvalue = 22.325"] ;
127 -> 128 ;
129 [label="(...)"] ;
128 -> 129 ;
134 [label="(...)"] ;
128 -> 134 ;
143 [label="WOA_TEMP_K <= 287.028\nmse = 53.977\nsamples = 8\nvalue = 29.03"] ;
127 -> 143 ;
144 [label="(...)"] ;
143 -> 144 ;
147 [label="(...)"] ;
143 -> 147 ;
150 [label="WOA_MLDpt <= 94.5\nmse = 1851.534\nsamples = 121\nvalue = 84.019"] ;
52 -> 150 ;
151 [label="WOA_MLDpt <= 38.5\nmse = 1828.372\nsamples = 107\nvalue = 79.402"] ;
150 -> 151 ;
152 [label="WOA_Nitrate <= 5.08\nmse = 1946.817\nsamples = 57\nvalue = 93.015"] ;
151 -> 152 ;
153 [label="(...)"] ;
152 -> 153 ;
248 [label="(...)"] ;
152 -> 248 ;
251 [label="WOA_Nitrate <= 0.108\nmse = 1322.698\nsamples = 50\nvalue = 65.456"] ;
151 -> 251 ;
252 [label="(...)"] ;
251 -> 252 ;
261 [label="(...)"] ;
251 -> 261 ;
334 [label="WOA_TEMP_K <= 292.695\nmse = 923.911\nsamples = 14\nvalue = 114.676"] ;
150 -> 334 ;
335 [label="WOA_TEMP_K <= 292.56\nmse = 413.018\nsamples = 8\nvalue = 98.462"] ;
334 -> 335 ;
336 [label="(...)"] ;
335 -> 336 ;
341 [label="(...)"] ;
335 -> 341 ;
344 [label="WOA_Salinity <= 36.624\nmse = 884.009\nsamples = 6\nvalue = 132.242"] ;
334 -> 344 ;
345 [label="(...)"] ;
344 -> 345 ;
350 [label="(...)"] ;
344 -> 350 ;
353 [label="WOA_MLDpt <= 32.65\nmse = 1059.008\nsamples = 194\nvalue = 39.959"] ;
1 -> 353 ;
354 [label="WOA_Nitrate <= 12.609\nmse = 1551.885\nsamples = 48\nvalue = 71.033"] ;
353 -> 354 ;
355 [label="WOA_TEMP_K <= 286.769\nmse = 1700.472\nsamples = 27\nvalue = 90.213"] ;
354 -> 355 ;
356 [label="WOA_MLDpt <= 30.75\nmse = 1785.662\nsamples = 24\nvalue = 85.717"] ;
355 -> 356 ;
357 [label="WOA_MLDpt <= 29.5\nmse = 1650.688\nsamples = 23\nvalue = 88.075"] ;
356 -> 357 ;
358 [label="mse = 2834.346\nsamples = 11\nvalue = 82.542"] ;
357 -> 358 ;
359 [label="WOA_TEMP_K <= 282.891\nmse = 149.477\nsamples = 12\nvalue = 94.715"] ;
357 -> 359 ;
360 [label="(...)"] ;
359 -> 360 ;
361 [label="(...)"] ;
359 -> 361 ;
362 [label="mse = -0.0\nsamples = 1\nvalue = 7.895"] ;
356 -> 362 ;
363 [label="WOA_Salinity <= 34.932\nmse = 48.729\nsamples = 3\nvalue = 120.79"] ;
355 -> 363 ;
364 [label="mse = 0.0\nsamples = 1\nvalue = 134.669"] ;
363 -> 364 ;
365 [label="mse = 0.723\nsamples = 2\nvalue = 117.321"] ;
363 -> 365 ;
366 [label="WOA_Nitrate <= 25.034\nmse = 191.991\nsamples = 21\nvalue = 45.239"] ;
354 -> 366 ;
367 [label="WOA_MLDpt <= 29.3\nmse = 71.807\nsamples = 11\nvalue = 38.522"] ;
366 -> 367 ;
368 [label="WOA_Nitrate <= 19.723\nmse = 22.978\nsamples = 6\nvalue = 32.32"] ;
367 -> 368 ;
369 [label="WOA_TEMP_K <= 276.598\nmse = 26.823\nsamples = 4\nvalue = 31.196"] ;
368 -> 369 ;
370 [label="(...)"] ;
369 -> 370 ;
371 [label="(...)"] ;
369 -> 371 ;
372 [label="WOA_TEMP_K <= 272.828\nmse = 2.31\nsamples = 2\nvalue = 35.13"] ;
368 -> 372 ;
373 [label="(...)"] ;
372 -> 373 ;
374 [label="(...)"] ;
372 -> 374 ;
375 [label="WOA_Salinity <= 33.387\nmse = 43.706\nsamples = 5\nvalue = 44.724"] ;
367 -> 375 ;
376 [label="WOA_Salinity <= 33.186\nmse = 7.54\nsamples = 2\nvalue = 34.764"] ;
375 -> 376 ;
377 [label="(...)"] ;
376 -> 377 ;
378 [label="(...)"] ;
376 -> 378 ;
379 [label="WOA_Salinity <= 34.16\nmse = 2.621\nsamples = 3\nvalue = 48.708"] ;
375 -> 379 ;
380 [label="(...)"] ;
379 -> 380 ;
383 [label="(...)"] ;
379 -> 383 ;
384 [label="WOA_Salinity <= 33.522\nmse = 222.748\nsamples = 10\nvalue = 51.508"] ;
366 -> 384 ;
385 [label="WOA_TEMP_K <= 274.007\nmse = 229.318\nsamples = 8\nvalue = 54.604"] ;
384 -> 385 ;
386 [label="WOA_MLDpt <= 26.6\nmse = 218.446\nsamples = 7\nvalue = 56.23"] ;
385 -> 386 ;
387 [label="(...)"] ;
386 -> 387 ;
388 [label="(...)"] ;
386 -> 388 ;
389 [label="mse = -0.0\nsamples = 1\nvalue = 36.72"] ;
385 -> 389 ;
390 [label="WOA_MLDpt <= 31.65\nmse = 4.824\nsamples = 2\nvalue = 39.126"] ;
384 -> 390 ;
391 [label="mse = 0.0\nsamples = 1\nvalue = 40.679"] ;
390 -> 391 ;
392 [label="mse = -0.0\nsamples = 1\nvalue = 36.02"] ;
390 -> 392 ;
393 [label="WOA_Salinity <= 33.911\nmse = 561.042\nsamples = 146\nvalue = 31.043"] ;
353 -> 393 ;
394 [label="WOA_Salinity <= 32.979\nmse = 799.734\nsamples = 63\nvalue = 44.431"] ;
393 -> 394 ;
395 [label="WOA_Salinity <= 32.564\nmse = 2151.736\nsamples = 12\nvalue = 59.559"] ;
394 -> 395 ;
396 [label="mse = 2380.29\nsamples = 7\nvalue = 54.311"] ;
395 -> 396 ;
397 [label="mse = 1631.782\nsamples = 5\nvalue = 68.555"] ;
395 -> 397 ;
398 [label="WOA_Salinity <= 33.899\nmse = 353.783\nsamples = 51\nvalue = 40.325"] ;
394 -> 398 ;
399 [label="WOA_Nitrate <= 28.256\nmse = 223.979\nsamples = 48\nvalue = 38.755"] ;
398 -> 399 ;
400 [label="WOA_Salinity <= 33.895\nmse = 209.482\nsamples = 46\nvalue = 39.525"] ;
399 -> 400 ;
401 [label="(...)"] ;
400 -> 401 ;
480 [label="(...)"] ;
400 -> 480 ;
481 [label="WOA_MLDpt <= 83.0\nmse = 61.244\nsamples = 2\nvalue = 14.104"] ;
399 -> 481 ;
482 [label="(...)"] ;
481 -> 482 ;
483 [label="(...)"] ;
481 -> 483 ;
484 [label="WOA_TEMP_K <= 276.412\nmse = 1783.665\nsamples = 3\nvalue = 66.233"] ;
398 -> 484 ;
485 [label="WOA_Salinity <= 33.905\nmse = 324.445\nsamples = 2\nvalue = 43.573"] ;
484 -> 485 ;
486 [label="(...)"] ;
485 -> 486 ;
487 [label="(...)"] ;
485 -> 487 ;
488 [label="mse = 0.0\nsamples = 1\nvalue = 134.211"] ;
484 -> 488 ;
489 [label="WOA_Nitrate <= 7.642\nmse = 244.893\nsamples = 83\nvalue = 22.992"] ;
393 -> 489 ;
490 [label="WOA_TEMP_K <= 281.778\nmse = 1244.486\nsamples = 6\nvalue = 42.24"] ;
489 -> 490 ;
491 [label="WOA_TEMP_K <= 281.354\nmse = 76.327\nsamples = 4\nvalue = 80.575"] ;
490 -> 491 ;
492 [label="WOA_TEMP_K <= 281.019\nmse = 6.056\nsamples = 3\nvalue = 85.467"] ;
491 -> 492 ;
493 [label="(...)"] ;
492 -> 493 ;
494 [label="(...)"] ;
492 -> 494 ;
495 [label="mse = -0.0\nsamples = 1\nvalue = 65.9"] ;
491 -> 495 ;
496 [label="WOA_Nitrate <= 7.595\nmse = 62.83\nsamples = 2\nvalue = 11.572"] ;
490 -> 496 ;
497 [label="mse = 0.0\nsamples = 1\nvalue = 21.28"] ;
496 -> 497 ;
498 [label="mse = 0.0\nsamples = 1\nvalue = 5.1"] ;
496 -> 498 ;
499 [label="WOA_TEMP_K <= 274.348\nmse = 154.629\nsamples = 77\nvalue = 21.745"] ;
489 -> 499 ;
500 [label="WOA_Nitrate <= 28.44\nmse = 78.971\nsamples = 6\nvalue = 33.489"] ;
499 -> 500 ;
501 [label="WOA_Salinity <= 33.921\nmse = 29.407\nsamples = 5\nvalue = 30.496"] ;
500 -> 501 ;
502 [label="(...)"] ;
501 -> 502 ;
503 [label="(...)"] ;
501 -> 503 ;
510 [label="mse = -0.0\nsamples = 1\nvalue = 51.45"] ;
500 -> 510 ;
511 [label="WOA_MLDpt <= 73.5\nmse = 145.926\nsamples = 71\nvalue = 20.43"] ;
499 -> 511 ;
512 [label="WOA_MLDpt <= 50.35\nmse = 10.705\nsamples = 16\nvalue = 14.67"] ;
511 -> 512 ;
513 [label="(...)"] ;
512 -> 513 ;
522 [label="(...)"] ;
512 -> 522 ;
539 [label="WOA_Salinity <= 35.124\nmse = 175.971\nsamples = 55\nvalue = 22.33"] ;
511 -> 539 ;
540 [label="(...)"] ;
539 -> 540 ;
561 [label="(...)"] ;
539 -> 561 ;
592 [label="WOA_Salinity <= 35.694\nmse = 3175.37\nsamples = 234\nvalue = 154.082"] ;
0 -> 592 [labeldistance=2.5, labelangle=-45, headlabel="False"] ;
593 [label="WOA_Nitrate <= 0.107\nmse = 2257.291\nsamples = 149\nvalue = 140.443"] ;
592 -> 593 ;
594 [label="WOA_MLDpt <= 18.95\nmse = 1330.974\nsamples = 26\nvalue = 107.542"] ;
593 -> 594 ;
595 [label="WOA_Salinity <= 32.599\nmse = 1186.168\nsamples = 10\nvalue = 134.622"] ;
594 -> 595 ;
596 [label="mse = 0.58\nsamples = 2\nvalue = 88.44"] ;
595 -> 596 ;
597 [label="WOA_MLDpt <= 14.15\nmse = 559.708\nsamples = 8\nvalue = 151.415"] ;
595 -> 597 ;
598 [label="WOA_Nitrate <= 0.014\nmse = 115.611\nsamples = 7\nvalue = 144.673"] ;
597 -> 598 ;
599 [label="WOA_Salinity <= 35.521\nmse = 38.265\nsamples = 3\nvalue = 153.361"] ;
598 -> 599 ;
600 [label="(...)"] ;
599 -> 600 ;
603 [label="(...)"] ;
599 -> 603 ;
604 [label="WOA_TEMP_K <= 299.513\nmse = 42.011\nsamples = 4\nvalue = 135.985"] ;
598 -> 604 ;
605 [label="(...)"] ;
604 -> 605 ;
608 [label="(...)"] ;
604 -> 608 ;
609 [label="mse = 0.0\nsamples = 1\nvalue = 218.84"] ;
597 -> 609 ;
610 [label="WOA_Salinity <= 35.555\nmse = 676.708\nsamples = 16\nvalue = 90.617"] ;
594 -> 610 ;
611 [label="WOA_MLDpt <= 37.65\nmse = 486.58\nsamples = 15\nvalue = 93.642"] ;
610 -> 611 ;
612 [label="WOA_Nitrate <= 0.054\nmse = 386.267\nsamples = 7\nvalue = 104.078"] ;
611 -> 612 ;
613 [label="WOA_TEMP_K <= 302.569\nmse = 198.341\nsamples = 5\nvalue = 115.148"] ;
612 -> 613 ;
614 [label="(...)"] ;
613 -> 614 ;
621 [label="(...)"] ;
613 -> 621 ;
622 [label="WOA_TEMP_K <= 299.271\nmse = 26.828\nsamples = 2\nvalue = 81.938"] ;
612 -> 622 ;
623 [label="(...)"] ;
622 -> 623 ;
624 [label="(...)"] ;
622 -> 624 ;
625 [label="WOA_Salinity <= 35.042\nmse = 347.578\nsamples = 8\nvalue = 82.257"] ;
611 -> 625 ;
626 [label="WOA_TEMP_K <= 302.094\nmse = 71.965\nsamples = 6\nvalue = 74.758"] ;
625 -> 626 ;
627 [label="(...)"] ;
626 -> 627 ;
634 [label="(...)"] ;
626 -> 634 ;
635 [label="WOA_Nitrate <= 0.05\nmse = 195.886\nsamples = 2\nvalue = 116.004"] ;
625 -> 635 ;
636 [label="(...)"] ;
635 -> 636 ;
637 [label="(...)"] ;
635 -> 637 ;
638 [label="mse = -0.0\nsamples = 1\nvalue = 21.053"] ;
610 -> 638 ;
639 [label="WOA_Nitrate <= 0.144\nmse = 2186.244\nsamples = 123\nvalue = 146.827"] ;
593 -> 639 ;
640 [label="WOA_MLDpt <= 53.25\nmse = 3544.142\nsamples = 33\nvalue = 167.988"] ;
639 -> 640 ;
641 [label="WOA_TEMP_K <= 301.685\nmse = 860.92\nsamples = 13\nvalue = 135.528"] ;
640 -> 641 ;
642 [label="WOA_Salinity <= 33.381\nmse = 487.365\nsamples = 11\nvalue = 142.906"] ;
641 -> 642 ;
643 [label="WOA_MLDpt <= 23.35\nmse = 234.532\nsamples = 6\nvalue = 155.361"] ;
642 -> 643 ;
644 [label="(...)"] ;
643 -> 644 ;
645 [label="(...)"] ;
643 -> 645 ;
646 [label="WOA_MLDpt <= 42.1\nmse = 473.379\nsamples = 5\nvalue = 133.565"] ;
642 -> 646 ;
647 [label="(...)"] ;
646 -> 647 ;
652 [label="(...)"] ;
646 -> 652 ;
653 [label="WOA_Salinity <= 34.444\nmse = 427.106\nsamples = 2\nvalue = 83.879"] ;
641 -> 653 ;
654 [label="mse = 0.0\nsamples = 1\nvalue = 104.545"] ;
653 -> 654 ;
655 [label="mse = 0.0\nsamples = 1\nvalue = 63.212"] ;
653 -> 655 ;
656 [label="WOA_Salinity <= 34.629\nmse = 4095.483\nsamples = 20\nvalue = 184.219"] ;
640 -> 656 ;
657 [label="WOA_Salinity <= 34.028\nmse = 4738.24\nsamples = 16\nvalue = 192.6"] ;
656 -> 657 ;
658 [label="mse = 0.0\nsamples = 1\nvalue = 265.0"] ;
657 -> 658 ;
659 [label="WOA_Nitrate <= 0.124\nmse = 4708.16\nsamples = 15\nvalue = 189.583"] ;
657 -> 659 ;
660 [label="(...)"] ;
659 -> 660 ;
665 [label="(...)"] ;
659 -> 665 ;
668 [label="WOA_Salinity <= 34.828\nmse = 653.061\nsamples = 4\nvalue = 154.286"] ;
656 -> 668 ;
669 [label="WOA_MLDpt <= 63.0\nmse = 275.0\nsamples = 3\nvalue = 135.0"] ;
668 -> 669 ;
670 [label="(...)"] ;
669 -> 670 ;
671 [label="(...)"] ;
669 -> 671 ;
672 [label="mse = 0.0\nsamples = 1\nvalue = 180.0"] ;
668 -> 672 ;
673 [label="WOA_MLDpt <= 43.25\nmse = 1575.666\nsamples = 90\nvalue = 140.188"] ;
639 -> 673 ;
674 [label="WOA_TEMP_K <= 299.564\nmse = 1442.661\nsamples = 67\nvalue = 149.402"] ;
673 -> 674 ;
675 [label="WOA_TEMP_K <= 298.852\nmse = 1028.725\nsamples = 52\nvalue = 140.135"] ;
674 -> 675 ;
676 [label="WOA_TEMP_K <= 297.987\nmse = 869.44\nsamples = 49\nvalue = 142.57"] ;
675 -> 676 ;
677 [label="(...)"] ;
676 -> 677 ;
740 [label="(...)"] ;
676 -> 740 ;
755 [label="WOA_MLDpt <= 26.05\nmse = 792.123\nsamples = 3\nvalue = 73.589"] ;
675 -> 755 ;
756 [label="(...)"] ;
755 -> 756 ;
757 [label="(...)"] ;
755 -> 757 ;
760 [label="WOA_Salinity <= 34.473\nmse = 1527.373\nsamples = 15\nvalue = 182.222"] ;
674 -> 760 ;
761 [label="WOA_MLDpt <= 31.9\nmse = 1947.167\nsamples = 7\nvalue = 160.282"] ;
760 -> 761 ;
762 [label="(...)"] ;
761 -> 762 ;
767 [label="(...)"] ;
761 -> 767 ;
774 [label="WOA_MLDpt <= 33.2\nmse = 638.105\nsamples = 8\nvalue = 197.894"] ;
760 -> 774 ;
775 [label="(...)"] ;
774 -> 775 ;
788 [label="(...)"] ;
774 -> 788 ;
789 [label="WOA_TEMP_K <= 301.185\nmse = 1173.768\nsamples = 23\nvalue = 117.361"] ;
673 -> 789 ;
790 [label="WOA_Nitrate <= 0.256\nmse = 1347.834\nsamples = 18\nvalue = 125.512"] ;
789 -> 790 ;
791 [label="mse = -0.0\nsamples = 1\nvalue = 197.633"] ;
790 -> 791 ;
792 [label="WOA_Salinity <= 32.285\nmse = 893.524\nsamples = 17\nvalue = 118.051"] ;
790 -> 792 ;
793 [label="(...)"] ;
792 -> 793 ;
794 [label="(...)"] ;
792 -> 794 ;
821 [label="WOA_Salinity <= 35.455\nmse = 60.023\nsamples = 5\nvalue = 95.626"] ;
789 -> 821 ;
822 [label="WOA_MLDpt <= 99.3\nmse = 20.377\nsamples = 4\nvalue = 90.807"] ;
821 -> 822 ;
823 [label="(...)"] ;
822 -> 823 ;
828 [label="(...)"] ;
822 -> 828 ;
829 [label="mse = 0.0\nsamples = 1\nvalue = 105.263"] ;
821 -> 829 ;
830 [label="WOA_Salinity <= 36.69\nmse = 3887.943\nsamples = 85\nvalue = 178.15"] ;
592 -> 830 ;
831 [label="WOA_MLDpt <= 75.55\nmse = 3412.409\nsamples = 76\nvalue = 186.547"] ;
830 -> 831 ;
832 [label="WOA_MLDpt <= 30.9\nmse = 3312.574\nsamples = 72\nvalue = 191.149"] ;
831 -> 832 ;
833 [label="WOA_Nitrate <= 0.165\nmse = 2265.972\nsamples = 39\nvalue = 179.035"] ;
832 -> 833 ;
834 [label="WOA_MLDpt <= 21.0\nmse = 962.167\nsamples = 28\nvalue = 164.954"] ;
833 -> 834 ;
835 [label="WOA_Salinity <= 36.507\nmse = 882.108\nsamples = 4\nvalue = 126.091"] ;
834 -> 835 ;
836 [label="(...)"] ;
835 -> 836 ;
841 [label="(...)"] ;
835 -> 841 ;
842 [label="WOA_TEMP_K <= 301.522\nmse = 665.604\nsamples = 24\nvalue = 171.756"] ;
834 -> 842 ;
843 [label="(...)"] ;
842 -> 843 ;
862 [label="(...)"] ;
842 -> 862 ;
863 [label="WOA_MLDpt <= 20.65\nmse = 3769.023\nsamples = 11\nvalue = 212.125"] ;
833 -> 863 ;
864 [label="WOA_Salinity <= 36.429\nmse = 3835.453\nsamples = 7\nvalue = 240.2"] ;
863 -> 864 ;
865 [label="(...)"] ;
864 -> 865 ;
872 [label="(...)"] ;
864 -> 872 ;
873 [label="WOA_Salinity <= 36.037\nmse = 713.671\nsamples = 4\nvalue = 170.013"] ;
863 -> 873 ;
874 [label="(...)"] ;
873 -> 874 ;
875 [label="(...)"] ;
873 -> 875 ;
878 [label="WOA_Nitrate <= 0.234\nmse = 4282.756\nsamples = 33\nvalue = 208.057"] ;
832 -> 878 ;
879 [label="WOA_TEMP_K <= 295.953\nmse = 2882.216\nsamples = 23\nvalue = 225.05"] ;
878 -> 879 ;
880 [label="WOA_MLDpt <= 54.75\nmse = 494.663\nsamples = 2\nvalue = 141.754"] ;
879 -> 880 ;
881 [label="(...)"] ;
880 -> 881 ;
882 [label="(...)"] ;
880 -> 882 ;
883 [label="WOA_TEMP_K <= 298.726\nmse = 2376.849\nsamples = 21\nvalue = 233.111"] ;
879 -> 883 ;
884 [label="(...)"] ;
883 -> 884 ;
895 [label="(...)"] ;
883 -> 895 ;
900 [label="WOA_Nitrate <= 2.304\nmse = 5279.701\nsamples = 10\nvalue = 166.788"] ;
878 -> 900 ;
901 [label="WOA_MLDpt <= 63.6\nmse = 862.161\nsamples = 7\nvalue = 124.783"] ;
900 -> 901 ;
902 [label="(...)"] ;
901 -> 902 ;
911 [label="(...)"] ;
901 -> 911 ;
914 [label="WOA_MLDpt <= 59.1\nmse = 885.07\nsamples = 3\nvalue = 271.8"] ;
900 -> 914 ;
915 [label="(...)"] ;
914 -> 915 ;
918 [label="(...)"] ;
914 -> 918 ;
919 [label="WOA_Nitrate <= 0.327\nmse = 167.611\nsamples = 4\nvalue = 120.399"] ;
831 -> 919 ;
920 [label="WOA_MLDpt <= 80.35\nmse = 48.501\nsamples = 3\nvalue = 116.17"] ;
919 -> 920 ;
921 [label="WOA_Nitrate <= 0.08\nmse = 1.155\nsamples = 2\nvalue = 120.537"] ;
920 -> 921 ;
922 [label="mse = 0.0\nsamples = 1\nvalue = 122.687"] ;
921 -> 922 ;
923 [label="mse = 0.0\nsamples = 1\nvalue = 120.0"] ;
921 -> 923 ;
924 [label="mse = -0.0\nsamples = 1\nvalue = 105.253"] ;
920 -> 924 ;
925 [label="mse = 0.0\nsamples = 1\nvalue = 150.0"] ;
919 -> 925 ;
926 [label="WOA_MLDpt <= 53.9\nmse = 1408.713\nsamples = 9\nvalue = 98.706"] ;
830 -> 926 ;
927 [label="WOA_Nitrate <= 0.261\nmse = 399.952\nsamples = 5\nvalue = 74.422"] ;
926 -> 927 ;
928 [label="WOA_Nitrate <= 0.074\nmse = 8.203\nsamples = 4\nvalue = 66.932"] ;
927 -> 928 ;
929 [label="WOA_MLDpt <= 39.55\nmse = 0.255\nsamples = 2\nvalue = 69.135"] ;
928 -> 929 ;
930 [label="mse = 0.0\nsamples = 1\nvalue = 70.009"] ;
929 -> 930 ;
931 [label="mse = 0.0\nsamples = 1\nvalue = 68.844"] ;
929 -> 931 ;
932 [label="WOA_MLDpt <= 43.05\nmse = 3.699\nsamples = 2\nvalue = 63.994"] ;
928 -> 932 ;
933 [label="mse = 0.0\nsamples = 1\nvalue = 61.274"] ;
932 -> 933 ;
934 [label="mse = 0.0\nsamples = 1\nvalue = 65.354"] ;
932 -> 934 ;
935 [label="mse = 0.0\nsamples = 1\nvalue = 126.857"] ;
927 -> 935 ;
936 [label="WOA_Nitrate <= 0.216\nmse = 569.633\nsamples = 4\nvalue = 137.559"] ;
926 -> 936 ;
937 [label="WOA_Salinity <= 36.839\nmse = 193.488\nsamples = 2\nvalue = 163.89"] ;
936 -> 937 ;
938 [label="mse = 0.0\nsamples = 1\nvalue = 149.98"] ;
937 -> 938 ;
939 [label="mse = 0.0\nsamples = 1\nvalue = 177.8"] ;
937 -> 939 ;
940 [label="WOA_Nitrate <= 0.468\nmse = 50.054\nsamples = 2\nvalue = 120.005"] ;
936 -> 940 ;
941 [label="mse = 0.0\nsamples = 1\nvalue = 125.008"] ;
940 -> 941 ;
942 [label="mse = -0.0\nsamples = 1\nvalue = 110.0"] ;
940 -> 942 ;
}