digraph Tree {
node [shape=box] ;
0 [label="WOA_TEMP_K <= 294.36\nmse = 4667.988\nsamples = 656\nvalue = 95.406"] ;
1 [label="Depth_GEBCO <= -36.5\nmse = 2145.475\nsamples = 416\nvalue = 60.917"] ;
0 -> 1 [labeldistance=2.5, labelangle=45, headlabel="True"] ;
2 [label="WOA_TEMP_K <= 288.79\nmse = 1574.436\nsamples = 364\nvalue = 53.054"] ;
1 -> 2 ;
3 [label="Depth_GEBCO <= -100.0\nmse = 1133.658\nsamples = 271\nvalue = 43.201"] ;
2 -> 3 ;
4 [label="WOA_Salinity <= 33.904\nmse = 710.932\nsamples = 195\nvalue = 34.643"] ;
3 -> 4 ;
5 [label="WOA_TEMP_K <= 275.57\nmse = 1106.371\nsamples = 64\nvalue = 49.152"] ;
4 -> 5 ;
6 [label="WOA_TEMP_K <= 274.177\nmse = 254.061\nsamples = 44\nvalue = 40.399"] ;
5 -> 6 ;
7 [label="SWrad <= 131.373\nmse = 140.96\nsamples = 35\nvalue = 44.047"] ;
6 -> 7 ;
8 [label="(...)"] ;
7 -> 8 ;
17 [label="(...)"] ;
7 -> 17 ;
68 [label="WOA_Salinity <= 33.823\nmse = 406.462\nsamples = 9\nvalue = 20.833"] ;
6 -> 68 ;
69 [label="(...)"] ;
68 -> 69 ;
74 [label="(...)"] ;
68 -> 74 ;
85 [label="SWrad <= 49.941\nmse = 2499.224\nsamples = 20\nvalue = 69.575"] ;
5 -> 85 ;
86 [label="WOA_TEMP_K <= 277.403\nmse = 25.0\nsamples = 2\nvalue = 215.0"] ;
85 -> 86 ;
87 [label="(...)"] ;
86 -> 87 ;
88 [label="(...)"] ;
86 -> 88 ;
89 [label="WOA_TEMP_K <= 275.749\nmse = 1057.461\nsamples = 18\nvalue = 59.188"] ;
85 -> 89 ;
90 [label="(...)"] ;
89 -> 90 ;
91 [label="(...)"] ;
89 -> 91 ;
124 [label="Depth_GEBCO <= -5498.5\nmse = 393.647\nsamples = 131\nvalue = 28.078"] ;
4 -> 124 ;
125 [label="WOA_Salinity <= 34.11\nmse = 911.664\nsamples = 5\nvalue = 70.57"] ;
124 -> 125 ;
126 [label="Depth_GEBCO <= -5543.5\nmse = 324.0\nsamples = 2\nvalue = 92.0"] ;
125 -> 126 ;
127 [label="(...)"] ;
126 -> 127 ;
128 [label="(...)"] ;
126 -> 128 ;
129 [label="WOA_TEMP_K <= 283.651\nmse = 70.992\nsamples = 3\nvalue = 38.425"] ;
125 -> 129 ;
130 [label="(...)"] ;
129 -> 130 ;
131 [label="(...)"] ;
129 -> 131 ;
134 [label="Depth_GEBCO <= -136.0\nmse = 279.469\nsamples = 126\nvalue = 26.064"] ;
124 -> 134 ;
135 [label="WOA_TEMP_K <= 287.548\nmse = 194.69\nsamples = 109\nvalue = 23.784"] ;
134 -> 135 ;
136 [label="(...)"] ;
135 -> 136 ;
275 [label="(...)"] ;
135 -> 275 ;
288 [label="WOA_Salinity <= 34.805\nmse = 583.781\nsamples = 17\nvalue = 43.028"] ;
134 -> 288 ;
289 [label="(...)"] ;
288 -> 289 ;
296 [label="(...)"] ;
288 -> 296 ;
317 [label="WOA_TEMP_K <= 275.891\nmse = 1545.451\nsamples = 76\nvalue = 65.903"] ;
3 -> 317 ;
318 [label="SWrad <= 11.926\nmse = 643.112\nsamples = 35\nvalue = 37.117"] ;
317 -> 318 ;
319 [label="WOA_Salinity <= 33.366\nmse = 274.743\nsamples = 3\nvalue = 57.122"] ;
318 -> 319 ;
320 [label="SWrad <= 2.072\nmse = 42.504\nsamples = 2\nvalue = 66.12"] ;
319 -> 320 ;
321 [label="(...)"] ;
320 -> 321 ;
322 [label="(...)"] ;
320 -> 322 ;
323 [label="mse = -0.0\nsamples = 1\nvalue = 30.13"] ;
319 -> 323 ;
324 [label="WOA_Salinity <= 33.087\nmse = 638.293\nsamples = 32\nvalue = 35.578"] ;
318 -> 324 ;
325 [label="WOA_Salinity <= 32.415\nmse = 769.81\nsamples = 23\nvalue = 37.732"] ;
324 -> 325 ;
326 [label="(...)"] ;
325 -> 326 ;
329 [label="(...)"] ;
325 -> 329 ;
332 [label="WOA_Salinity <= 33.862\nmse = 66.357\nsamples = 9\nvalue = 27.55"] ;
324 -> 332 ;
333 [label="(...)"] ;
332 -> 333 ;
342 [label="(...)"] ;
332 -> 342 ;
343 [label="WOA_Salinity <= 33.214\nmse = 993.9\nsamples = 41\nvalue = 90.703"] ;
317 -> 343 ;
344 [label="mse = 0.0\nsamples = 1\nvalue = 180.0"] ;
343 -> 344 ;
345 [label="WOA_TEMP_K <= 279.514\nmse = 764.275\nsamples = 40\nvalue = 87.868"] ;
343 -> 345 ;
346 [label="SWrad <= 178.696\nmse = 0.51\nsamples = 2\nvalue = 19.01"] ;
345 -> 346 ;
347 [label="(...)"] ;
346 -> 347 ;
348 [label="(...)"] ;
346 -> 348 ;
349 [label="SWrad <= 27.518\nmse = 553.534\nsamples = 38\nvalue = 91.311"] ;
345 -> 349 ;
350 [label="(...)"] ;
349 -> 350 ;
351 [label="(...)"] ;
349 -> 351 ;
406 [label="WOA_TEMP_K <= 288.92\nmse = 1764.947\nsamples = 93\nvalue = 81.153"] ;
2 -> 406 ;
407 [label="WOA_TEMP_K <= 288.89\nmse = 4330.702\nsamples = 2\nvalue = 184.067"] ;
406 -> 407 ;
408 [label="mse = 0.0\nsamples = 1\nvalue = 91.0"] ;
407 -> 408 ;
409 [label="mse = -0.0\nsamples = 1\nvalue = 230.6"] ;
407 -> 409 ;
410 [label="SWrad <= 137.798\nmse = 1501.145\nsamples = 91\nvalue = 79.122"] ;
406 -> 410 ;
411 [label="Depth_GEBCO <= -3080.5\nmse = 492.969\nsamples = 16\nvalue = 52.777"] ;
410 -> 411 ;
412 [label="SWrad <= 104.426\nmse = 364.68\nsamples = 13\nvalue = 48.1"] ;
411 -> 412 ;
413 [label="WOA_Salinity <= 35.66\nmse = 69.284\nsamples = 6\nvalue = 39.435"] ;
412 -> 413 ;
414 [label="(...)"] ;
413 -> 414 ;
415 [label="(...)"] ;
413 -> 415 ;
424 [label="WOA_TEMP_K <= 293.946\nmse = 523.332\nsamples = 7\nvalue = 62.541"] ;
412 -> 424 ;
425 [label="(...)"] ;
424 -> 425 ;
436 [label="(...)"] ;
424 -> 436 ;
437 [label="WOA_TEMP_K <= 290.43\nmse = 568.648\nsamples = 3\nvalue = 71.485"] ;
411 -> 437 ;
438 [label="WOA_Salinity <= 36.957\nmse = 0.487\nsamples = 2\nvalue = 82.145"] ;
437 -> 438 ;
439 [label="(...)"] ;
438 -> 439 ;
440 [label="(...)"] ;
438 -> 440 ;
441 [label="mse = -0.0\nsamples = 1\nvalue = 18.182"] ;
437 -> 441 ;
442 [label="SWrad <= 240.529\nmse = 1536.42\nsamples = 75\nvalue = 85.6"] ;
410 -> 442 ;
443 [label="SWrad <= 234.543\nmse = 1726.334\nsamples = 49\nvalue = 96.641"] ;
442 -> 443 ;
444 [label="SWrad <= 143.632\nmse = 1171.802\nsamples = 42\nvalue = 90.605"] ;
443 -> 444 ;
445 [label="(...)"] ;
444 -> 445 ;
450 [label="(...)"] ;
444 -> 450 ;
521 [label="Depth_GEBCO <= -4619.0\nmse = 3531.439\nsamples = 7\nvalue = 145.602"] ;
443 -> 521 ;
522 [label="(...)"] ;
521 -> 522 ;
523 [label="(...)"] ;
521 -> 523 ;
532 [label="WOA_TEMP_K <= 290.247\nmse = 384.939\nsamples = 26\nvalue = 62.967"] ;
442 -> 532 ;
533 [label="WOA_Salinity <= 35.545\nmse = 262.636\nsamples = 5\nvalue = 45.138"] ;
532 -> 533 ;
534 [label="(...)"] ;
533 -> 534 ;
539 [label="(...)"] ;
533 -> 539 ;
540 [label="WOA_Salinity <= 37.001\nmse = 301.367\nsamples = 21\nvalue = 68.143"] ;
532 -> 540 ;
541 [label="(...)"] ;
540 -> 541 ;
564 [label="(...)"] ;
540 -> 564 ;
569 [label="WOA_TEMP_K <= 277.555\nmse = 2377.738\nsamples = 52\nvalue = 121.875"] ;
1 -> 569 ;
570 [label="SWrad <= 222.736\nmse = 103.442\nsamples = 4\nvalue = 28.628"] ;
569 -> 570 ;
571 [label="mse = 20.48\nsamples = 2\nvalue = 21.0"] ;
570 -> 571 ;
572 [label="mse = 9.696\nsamples = 2\nvalue = 40.07"] ;
570 -> 572 ;
573 [label="Depth_GEBCO <= -12.5\nmse = 1889.927\nsamples = 48\nvalue = 128.35"] ;
569 -> 573 ;
574 [label="WOA_Salinity <= 32.185\nmse = 732.962\nsamples = 33\nvalue = 111.608"] ;
573 -> 574 ;
575 [label="Depth_GEBCO <= -20.0\nmse = 532.25\nsamples = 4\nvalue = 145.5"] ;
574 -> 575 ;
576 [label="WOA_Salinity <= 30.96\nmse = 90.25\nsamples = 2\nvalue = 167.5"] ;
575 -> 576 ;
577 [label="mse = 0.0\nsamples = 1\nvalue = 158.0"] ;
576 -> 577 ;
578 [label="mse = 0.0\nsamples = 1\nvalue = 177.0"] ;
576 -> 578 ;
579 [label="SWrad <= 182.555\nmse = 6.25\nsamples = 2\nvalue = 123.5"] ;
575 -> 579 ;
580 [label="mse = 0.0\nsamples = 1\nvalue = 121.0"] ;
579 -> 580 ;
581 [label="mse = 0.0\nsamples = 1\nvalue = 126.0"] ;
579 -> 581 ;
582 [label="WOA_TEMP_K <= 292.675\nmse = 634.838\nsamples = 29\nvalue = 108.455"] ;
574 -> 582 ;
583 [label="SWrad <= 93.834\nmse = 485.996\nsamples = 21\nvalue = 100.437"] ;
582 -> 583 ;
584 [label="WOA_TEMP_K <= 288.146\nmse = 482.125\nsamples = 8\nvalue = 106.547"] ;
583 -> 584 ;
585 [label="(...)"] ;
584 -> 585 ;
596 [label="(...)"] ;
584 -> 596 ;
599 [label="Depth_GEBCO <= -23.0\nmse = 433.13\nsamples = 13\nvalue = 95.406"] ;
583 -> 599 ;
600 [label="(...)"] ;
599 -> 600 ;
615 [label="(...)"] ;
599 -> 615 ;
620 [label="WOA_Salinity <= 36.611\nmse = 424.306\nsamples = 8\nvalue = 129.167"] ;
582 -> 620 ;
621 [label="mse = 358.333\nsamples = 5\nvalue = 125.0"] ;
620 -> 621 ;
622 [label="mse = 455.556\nsamples = 3\nvalue = 133.333"] ;
620 -> 622 ;
623 [label="SWrad <= 182.523\nmse = 2547.309\nsamples = 15\nvalue = 159.826"] ;
573 -> 623 ;
624 [label="WOA_TEMP_K <= 291.975\nmse = 1512.852\nsamples = 13\nvalue = 149.811"] ;
623 -> 624 ;
625 [label="WOA_TEMP_K <= 278.636\nmse = 1159.831\nsamples = 11\nvalue = 164.991"] ;
624 -> 625 ;
626 [label="Depth_GEBCO <= -3.0\nmse = 91.222\nsamples = 4\nvalue = 187.667"] ;
625 -> 626 ;
627 [label="(...)"] ;
626 -> 627 ;
632 [label="(...)"] ;
626 -> 632 ;
633 [label="WOA_TEMP_K <= 284.651\nmse = 1309.262\nsamples = 7\nvalue = 152.622"] ;
625 -> 633 ;
634 [label="(...)"] ;
633 -> 634 ;
639 [label="(...)"] ;
633 -> 639 ;
644 [label="WOA_TEMP_K <= 293.352\nmse = 10.24\nsamples = 2\nvalue = 106.8"] ;
624 -> 644 ;
645 [label="mse = 0.0\nsamples = 1\nvalue = 110.0"] ;
644 -> 645 ;
646 [label="mse = 0.0\nsamples = 1\nvalue = 103.6"] ;
644 -> 646 ;
647 [label="Depth_GEBCO <= -10.0\nmse = 25.0\nsamples = 2\nvalue = 275.0"] ;
623 -> 647 ;
648 [label="mse = 0.0\nsamples = 1\nvalue = 280.0"] ;
647 -> 648 ;
649 [label="mse = 0.0\nsamples = 1\nvalue = 270.0"] ;
647 -> 649 ;
650 [label="Depth_GEBCO <= -26.0\nmse = 3149.014\nsamples = 240\nvalue = 158.233"] ;
0 -> 650 [labeldistance=2.5, labelangle=-45, headlabel="False"] ;
651 [label="WOA_Salinity <= 35.519\nmse = 2894.89\nsamples = 199\nvalue = 152.105"] ;
650 -> 651 ;
652 [label="SWrad <= 302.615\nmse = 1956.541\nsamples = 120\nvalue = 140.176"] ;
651 -> 652 ;
653 [label="WOA_TEMP_K <= 299.624\nmse = 1803.946\nsamples = 119\nvalue = 141.935"] ;
652 -> 653 ;
654 [label="Depth_GEBCO <= -198.5\nmse = 1130.372\nsamples = 80\nvalue = 134.125"] ;
653 -> 654 ;
655 [label="SWrad <= 292.637\nmse = 2228.003\nsamples = 22\nvalue = 107.189"] ;
654 -> 655 ;
656 [label="SWrad <= 251.918\nmse = 1889.256\nsamples = 20\nvalue = 102.282"] ;
655 -> 656 ;
657 [label="(...)"] ;
656 -> 657 ;
690 [label="(...)"] ;
656 -> 690 ;
695 [label="WOA_TEMP_K <= 296.776\nmse = 1097.928\nsamples = 2\nvalue = 185.705"] ;
655 -> 695 ;
696 [label="(...)"] ;
695 -> 696 ;
697 [label="(...)"] ;
695 -> 697 ;
698 [label="WOA_TEMP_K <= 297.218\nmse = 347.91\nsamples = 58\nvalue = 144.189"] ;
654 -> 698 ;
699 [label="SWrad <= 177.801\nmse = 341.407\nsamples = 27\nvalue = 136.474"] ;
698 -> 699 ;
700 [label="(...)"] ;
699 -> 700 ;
709 [label="(...)"] ;
699 -> 709 ;
738 [label="Depth_GEBCO <= -54.0\nmse = 258.735\nsamples = 31\nvalue = 150.802"] ;
698 -> 738 ;
739 [label="(...)"] ;
738 -> 739 ;
778 [label="(...)"] ;
738 -> 778 ;
791 [label="WOA_Salinity <= 34.606\nmse = 2923.94\nsamples = 39\nvalue = 160.711"] ;
653 -> 791 ;
792 [label="SWrad <= 231.661\nmse = 2454.99\nsamples = 21\nvalue = 183.666"] ;
791 -> 792 ;
793 [label="WOA_Salinity <= 33.035\nmse = 888.348\nsamples = 13\nvalue = 208.285"] ;
792 -> 793 ;
794 [label="(...)"] ;
793 -> 794 ;
795 [label="(...)"] ;
793 -> 795 ;
816 [label="SWrad <= 240.829\nmse = 2092.102\nsamples = 8\nvalue = 136.891"] ;
792 -> 816 ;
817 [label="(...)"] ;
816 -> 817 ;
824 [label="(...)"] ;
816 -> 824 ;
831 [label="WOA_TEMP_K <= 299.69\nmse = 2013.089\nsamples = 18\nvalue = 131.768"] ;
791 -> 831 ;
832 [label="mse = 0.0\nsamples = 1\nvalue = 209.97"] ;
831 -> 832 ;
833 [label="WOA_Salinity <= 35.415\nmse = 1260.106\nsamples = 17\nvalue = 120.037"] ;
831 -> 833 ;
834 [label="(...)"] ;
833 -> 834 ;
865 [label="(...)"] ;
833 -> 865 ;
866 [label="mse = -0.0\nsamples = 1\nvalue = 36.364"] ;
652 -> 866 ;
867 [label="Depth_GEBCO <= -2029.5\nmse = 3707.41\nsamples = 79\nvalue = 168.13"] ;
651 -> 867 ;
868 [label="WOA_Salinity <= 36.337\nmse = 2848.443\nsamples = 62\nvalue = 149.064"] ;
867 -> 868 ;
869 [label="SWrad <= 307.307\nmse = 2835.44\nsamples = 37\nvalue = 167.171"] ;
868 -> 869 ;
870 [label="Depth_GEBCO <= -3707.5\nmse = 2237.458\nsamples = 36\nvalue = 162.401"] ;
869 -> 870 ;
871 [label="WOA_TEMP_K <= 301.246\nmse = 2444.228\nsamples = 22\nvalue = 145.049"] ;
870 -> 871 ;
872 [label="(...)"] ;
871 -> 872 ;
911 [label="(...)"] ;
871 -> 911 ;
914 [label="Depth_GEBCO <= -3634.0\nmse = 704.968\nsamples = 14\nvalue = 189.56"] ;
870 -> 914 ;
915 [label="(...)"] ;
914 -> 915 ;
920 [label="(...)"] ;
914 -> 920 ;
933 [label="mse = 0.0\nsamples = 1\nvalue = 307.9"] ;
869 -> 933 ;
934 [label="WOA_TEMP_K <= 296.15\nmse = 1303.815\nsamples = 25\nvalue = 117.507"] ;
868 -> 934 ;
935 [label="Depth_GEBCO <= -4586.0\nmse = 624.88\nsamples = 7\nvalue = 90.112"] ;
934 -> 935 ;
936 [label="mse = 0.0\nsamples = 1\nvalue = 129.554"] ;
935 -> 936 ;
937 [label="SWrad <= 214.168\nmse = 341.212\nsamples = 6\nvalue = 81.347"] ;
935 -> 937 ;
938 [label="(...)"] ;
937 -> 938 ;
943 [label="(...)"] ;
937 -> 943 ;
948 [label="Depth_GEBCO <= -3529.0\nmse = 1113.355\nsamples = 18\nvalue = 130.063"] ;
934 -> 948 ;
949 [label="SWrad <= 189.104\nmse = 944.525\nsamples = 12\nvalue = 117.03"] ;
948 -> 949 ;
950 [label="(...)"] ;
949 -> 950 ;
959 [label="(...)"] ;
949 -> 959 ;
970 [label="Depth_GEBCO <= -3182.5\nmse = 109.061\nsamples = 6\nvalue = 161.714"] ;
948 -> 970 ;
971 [label="(...)"] ;
970 -> 971 ;
972 [label="(...)"] ;
970 -> 972 ;
977 [label="WOA_TEMP_K <= 298.73\nmse = 2639.232\nsamples = 17\nvalue = 216.295"] ;
867 -> 977 ;
978 [label="WOA_Salinity <= 36.498\nmse = 1160.549\nsamples = 7\nvalue = 171.868"] ;
977 -> 978 ;
979 [label="WOA_Salinity <= 36.071\nmse = 333.032\nsamples = 5\nvalue = 150.302"] ;
978 -> 979 ;
980 [label="mse = 0.0\nsamples = 1\nvalue = 110.3"] ;
979 -> 980 ;
981 [label="mse = 15.607\nsamples = 4\nvalue = 158.302"] ;
979 -> 981 ;
982 [label="mse = 25.0\nsamples = 2\nvalue = 215.0"] ;
978 -> 982 ;
983 [label="WOA_TEMP_K <= 300.542\nmse = 594.846\nsamples = 10\nvalue = 256.28"] ;
977 -> 983 ;
984 [label="SWrad <= 193.88\nmse = 243.787\nsamples = 6\nvalue = 271.538"] ;
983 -> 984 ;
985 [label="mse = 88.889\nsamples = 4\nvalue = 263.333"] ;
984 -> 985 ;
986 [label="WOA_Salinity <= 36.408\nmse = 100.0\nsamples = 2\nvalue = 290.0"] ;
984 -> 986 ;
987 [label="(...)"] ;
986 -> 987 ;
988 [label="(...)"] ;
986 -> 988 ;
989 [label="Depth_GEBCO <= -1081.5\nmse = 11.437\nsamples = 4\nvalue = 227.943"] ;
983 -> 989 ;
990 [label="mse = 1.162\nsamples = 2\nvalue = 229.12"] ;
989 -> 990 ;
991 [label="mse = 25.0\nsamples = 2\nvalue = 225.0"] ;
989 -> 991 ;
992 [label="SWrad <= 114.782\nmse = 3183.028\nsamples = 41\nvalue = 192.589"] ;
650 -> 992 ;
993 [label="mse = 0.0\nsamples = 1\nvalue = 90.0"] ;
992 -> 993 ;
994 [label="Depth_GEBCO <= -5.0\nmse = 2896.682\nsamples = 40\nvalue = 196.389"] ;
992 -> 994 ;
995 [label="WOA_Salinity <= 34.583\nmse = 2800.662\nsamples = 33\nvalue = 189.348"] ;
994 -> 995 ;
996 [label="Depth_GEBCO <= -16.0\nmse = 3891.716\nsamples = 11\nvalue = 164.231"] ;
995 -> 996 ;
997 [label="WOA_TEMP_K <= 298.762\nmse = 1734.694\nsamples = 6\nvalue = 137.143"] ;
996 -> 997 ;
998 [label="Depth_GEBCO <= -20.5\nmse = 216.0\nsamples = 4\nvalue = 152.0"] ;
997 -> 998 ;
999 [label="(...)"] ;
998 -> 999 ;
1000 [label="(...)"] ;
998 -> 1000 ;
1001 [label="mse = 3600.0\nsamples = 2\nvalue = 100.0"] ;
997 -> 1001 ;
1002 [label="WOA_TEMP_K <= 298.213\nmse = 4553.472\nsamples = 5\nvalue = 195.833"] ;
996 -> 1002 ;
1003 [label="Depth_GEBCO <= -10.5\nmse = 2860.0\nsamples = 4\nvalue = 175.0"] ;
1002 -> 1003 ;
1004 [label="(...)"] ;
1003 -> 1004 ;
1005 [label="(...)"] ;
1003 -> 1005 ;
1006 [label="mse = 0.0\nsamples = 1\nvalue = 300.0"] ;
1002 -> 1006 ;
1007 [label="SWrad <= 285.845\nmse = 2024.426\nsamples = 22\nvalue = 199.242"] ;
995 -> 1007 ;
1008 [label="SWrad <= 247.659\nmse = 1920.031\nsamples = 20\nvalue = 195.968"] ;
1007 -> 1008 ;
1009 [label="WOA_TEMP_K <= 297.892\nmse = 2071.172\nsamples = 14\nvalue = 201.957"] ;
1008 -> 1009 ;
1010 [label="(...)"] ;
1009 -> 1010 ;
1013 [label="(...)"] ;
1009 -> 1013 ;
1020 [label="WOA_Salinity <= 36.528\nmse = 1085.938\nsamples = 6\nvalue = 178.75"] ;
1008 -> 1020 ;
1021 [label="(...)"] ;
1020 -> 1021 ;
1022 [label="(...)"] ;
1020 -> 1022 ;
1023 [label="mse = 900.0\nsamples = 2\nvalue = 250.0"] ;
1007 -> 1023 ;
1024 [label="WOA_TEMP_K <= 299.913\nmse = 1524.609\nsamples = 7\nvalue = 236.875"] ;
994 -> 1024 ;
1025 [label="WOA_Salinity <= 35.521\nmse = 1520.408\nsamples = 6\nvalue = 242.143"] ;
1024 -> 1025 ;
1026 [label="SWrad <= 167.68\nmse = 1711.806\nsamples = 5\nvalue = 239.167"] ;
1025 -> 1026 ;
1027 [label="mse = 1056.25\nsamples = 2\nvalue = 232.5"] ;
1026 -> 1027 ;
1028 [label="mse = 2006.25\nsamples = 3\nvalue = 242.5"] ;
1026 -> 1028 ;
1029 [label="mse = 0.0\nsamples = 1\nvalue = 260.0"] ;
1025 -> 1029 ;
1030 [label="mse = 0.0\nsamples = 1\nvalue = 200.0"] ;
1024 -> 1030 ;
}