digraph Tree {
node [shape=box] ;
0 [label="WOA_TEMP_K <= 288.092\nmse = 5152.732\nsamples = 659\nvalue = 98.028"] ;
1 [label="Depth_GEBCO <= -36.5\nmse = 1567.516\nsamples = 286\nvalue = 46.066"] ;
0 -> 1 [labeldistance=2.5, labelangle=45, headlabel="True"] ;
2 [label="WOA_Nitrate <= 8.341\nmse = 1160.076\nsamples = 267\nvalue = 41.776"] ;
1 -> 2 ;
3 [label="WOA_TEMP_K <= 278.478\nmse = 1845.153\nsamples = 87\nvalue = 58.542"] ;
2 -> 3 ;
4 [label="WOA_TEMP_K <= 277.506\nmse = 456.0\nsamples = 3\nvalue = 202.0"] ;
3 -> 4 ;
5 [label="Depth_GEBCO <= -535.0\nmse = 18.75\nsamples = 2\nvalue = 212.5"] ;
4 -> 5 ;
6 [label="mse = 0.0\nsamples = 1\nvalue = 210.0"] ;
5 -> 6 ;
7 [label="mse = 0.0\nsamples = 1\nvalue = 220.0"] ;
5 -> 7 ;
8 [label="mse = 0.0\nsamples = 1\nvalue = 160.0"] ;
4 -> 8 ;
9 [label="Depth_GEBCO <= -103.0\nmse = 1037.854\nsamples = 84\nvalue = 52.757"] ;
3 -> 9 ;
10 [label="WOA_TEMP_K <= 281.33\nmse = 379.502\nsamples = 61\nvalue = 37.622"] ;
9 -> 10 ;
11 [label="WOA_TEMP_K <= 281.094\nmse = 7.942\nsamples = 3\nvalue = 81.15"] ;
10 -> 11 ;
12 [label="Depth_GEBCO <= -122.5\nmse = 0.98\nsamples = 2\nvalue = 79.6"] ;
11 -> 12 ;
13 [label="(...)"] ;
12 -> 13 ;
14 [label="(...)"] ;
12 -> 14 ;
15 [label="mse = -0.0\nsamples = 1\nvalue = 85.8"] ;
11 -> 15 ;
16 [label="WOA_Nitrate <= 8.247\nmse = 303.63\nsamples = 58\nvalue = 35.574"] ;
10 -> 16 ;
17 [label="WOA_Nitrate <= 0.319\nmse = 251.613\nsamples = 57\nvalue = 34.765"] ;
16 -> 17 ;
18 [label="(...)"] ;
17 -> 18 ;
23 [label="(...)"] ;
17 -> 23 ;
96 [label="mse = -0.0\nsamples = 1\nvalue = 103.53"] ;
16 -> 96 ;
97 [label="Depth_GEBCO <= -76.5\nmse = 648.288\nsamples = 23\nvalue = 91.243"] ;
9 -> 97 ;
98 [label="WOA_TEMP_K <= 286.216\nmse = 624.984\nsamples = 4\nvalue = 110.425"] ;
97 -> 98 ;
99 [label="Depth_GEBCO <= -86.5\nmse = 84.143\nsamples = 3\nvalue = 119.3"] ;
98 -> 99 ;
100 [label="(...)"] ;
99 -> 100 ;
103 [label="(...)"] ;
99 -> 103 ;
104 [label="mse = 0.0\nsamples = 1\nvalue = 48.3"] ;
98 -> 104 ;
105 [label="Depth_GEBCO <= -63.0\nmse = 513.87\nsamples = 19\nvalue = 85.56"] ;
97 -> 105 ;
106 [label="SWrad <= 144.095\nmse = 510.76\nsamples = 2\nvalue = 34.4"] ;
105 -> 106 ;
107 [label="(...)"] ;
106 -> 107 ;
108 [label="(...)"] ;
106 -> 108 ;
109 [label="WOA_Nitrate <= 1.356\nmse = 287.984\nsamples = 17\nvalue = 89.652"] ;
105 -> 109 ;
110 [label="(...)"] ;
109 -> 110 ;
111 [label="(...)"] ;
109 -> 111 ;
136 [label="WOA_TEMP_K <= 274.459\nmse = 649.173\nsamples = 180\nvalue = 33.969"] ;
2 -> 136 ;
137 [label="WOA_TEMP_K <= 274.225\nmse = 834.295\nsamples = 88\nvalue = 43.095"] ;
136 -> 137 ;
138 [label="WOA_Nitrate <= 28.725\nmse = 718.442\nsamples = 86\nvalue = 41.539"] ;
137 -> 138 ;
139 [label="WOA_Nitrate <= 27.968\nmse = 696.691\nsamples = 81\nvalue = 42.967"] ;
138 -> 139 ;
140 [label="Depth_GEBCO <= -1231.5\nmse = 569.176\nsamples = 80\nvalue = 41.913"] ;
139 -> 140 ;
141 [label="(...)"] ;
140 -> 141 ;
178 [label="(...)"] ;
140 -> 178 ;
235 [label="mse = 0.0\nsamples = 1\nvalue = 168.421"] ;
139 -> 235 ;
236 [label="SWrad <= 57.43\nmse = 297.47\nsamples = 5\nvalue = 12.987"] ;
138 -> 236 ;
237 [label="mse = 0.0\nsamples = 1\nvalue = 51.45"] ;
236 -> 237 ;
238 [label="SWrad <= 71.071\nmse = 1.911\nsamples = 4\nvalue = 5.295"] ;
236 -> 238 ;
239 [label="(...)"] ;
238 -> 239 ;
240 [label="(...)"] ;
238 -> 240 ;
245 [label="WOA_TEMP_K <= 274.35\nmse = 1327.173\nsamples = 2\nvalue = 108.45"] ;
137 -> 245 ;
246 [label="mse = 0.0\nsamples = 1\nvalue = 134.211"] ;
245 -> 246 ;
247 [label="mse = -0.0\nsamples = 1\nvalue = 56.93"] ;
245 -> 247 ;
248 [label="Depth_GEBCO <= -5471.0\nmse = 351.924\nsamples = 92\nvalue = 26.013"] ;
136 -> 248 ;
249 [label="WOA_Nitrate <= 12.567\nmse = 900.0\nsamples = 2\nvalue = 80.0"] ;
248 -> 249 ;
250 [label="mse = 0.0\nsamples = 1\nvalue = 50.0"] ;
249 -> 250 ;
251 [label="mse = 0.0\nsamples = 1\nvalue = 110.0"] ;
249 -> 251 ;
252 [label="Depth_GEBCO <= -3706.0\nmse = 253.491\nsamples = 90\nvalue = 24.514"] ;
248 -> 252 ;
253 [label="SWrad <= 61.19\nmse = 415.389\nsamples = 24\nvalue = 32.527"] ;
252 -> 253 ;
254 [label="mse = 0.0\nsamples = 1\nvalue = 81.15"] ;
253 -> 254 ;
255 [label="Depth_GEBCO <= -5172.0\nmse = 267.917\nsamples = 23\nvalue = 29.135"] ;
253 -> 255 ;
256 [label="(...)"] ;
255 -> 256 ;
261 [label="(...)"] ;
255 -> 261 ;
300 [label="WOA_Nitrate <= 8.869\nmse = 133.211\nsamples = 66\nvalue = 20.752"] ;
252 -> 300 ;
301 [label="WOA_TEMP_K <= 282.779\nmse = 85.477\nsamples = 25\nvalue = 15.266"] ;
300 -> 301 ;
302 [label="(...)"] ;
301 -> 302 ;
311 [label="(...)"] ;
301 -> 311 ;
318 [label="WOA_TEMP_K <= 274.763\nmse = 133.715\nsamples = 41\nvalue = 23.801"] ;
300 -> 318 ;
319 [label="(...)"] ;
318 -> 319 ;
330 [label="(...)"] ;
318 -> 330 ;
395 [label="WOA_TEMP_K <= 277.555\nmse = 3340.322\nsamples = 19\nvalue = 108.261"] ;
1 -> 395 ;
396 [label="SWrad <= 222.979\nmse = 250.293\nsamples = 3\nvalue = 23.014"] ;
395 -> 396 ;
397 [label="mse = 18.192\nsamples = 2\nvalue = 15.338"] ;
396 -> 397 ;
398 [label="mse = 0.0\nsamples = 1\nvalue = 53.722"] ;
396 -> 398 ;
399 [label="WOA_TEMP_K <= 278.928\nmse = 2088.85\nsamples = 16\nvalue = 126.793"] ;
395 -> 399 ;
400 [label="SWrad <= 43.332\nmse = 434.765\nsamples = 6\nvalue = 175.111"] ;
399 -> 400 ;
401 [label="mse = 0.0\nsamples = 1\nvalue = 140.0"] ;
400 -> 401 ;
402 [label="WOA_TEMP_K <= 278.731\nmse = 106.122\nsamples = 5\nvalue = 185.143"] ;
400 -> 402 ;
403 [label="WOA_Nitrate <= 2.901\nmse = 28.472\nsamples = 4\nvalue = 188.833"] ;
402 -> 403 ;
404 [label="mse = 0.0\nsamples = 1\nvalue = 182.0"] ;
403 -> 404 ;
405 [label="Depth_GEBCO <= -11.5\nmse = 7.688\nsamples = 3\nvalue = 192.25"] ;
403 -> 405 ;
406 [label="(...)"] ;
405 -> 406 ;
407 [label="(...)"] ;
405 -> 407 ;
410 [label="mse = 0.0\nsamples = 1\nvalue = 163.0"] ;
402 -> 410 ;
411 [label="Depth_GEBCO <= -30.5\nmse = 686.536\nsamples = 10\nvalue = 95.732"] ;
399 -> 411 ;
412 [label="Depth_GEBCO <= -31.5\nmse = 708.902\nsamples = 5\nvalue = 106.565"] ;
411 -> 412 ;
413 [label="SWrad <= 41.112\nmse = 47.409\nsamples = 4\nvalue = 96.8"] ;
412 -> 413 ;
414 [label="mse = 0.0\nsamples = 1\nvalue = 86.6"] ;
413 -> 414 ;
415 [label="Depth_GEBCO <= -35.0\nmse = 8.11\nsamples = 3\nvalue = 100.88"] ;
413 -> 415 ;
416 [label="(...)"] ;
415 -> 416 ;
417 [label="(...)"] ;
415 -> 417 ;
420 [label="mse = -0.0\nsamples = 1\nvalue = 174.916"] ;
412 -> 420 ;
421 [label="WOA_TEMP_K <= 281.378\nmse = 291.614\nsamples = 5\nvalue = 81.288"] ;
411 -> 421 ;
422 [label="Depth_GEBCO <= -6.0\nmse = 100.606\nsamples = 3\nvalue = 91.656"] ;
421 -> 422 ;
423 [label="SWrad <= 67.249\nmse = 1.62\nsamples = 2\nvalue = 85.9"] ;
422 -> 423 ;
424 [label="(...)"] ;
423 -> 424 ;
425 [label="(...)"] ;
423 -> 425 ;
426 [label="mse = 0.0\nsamples = 1\nvalue = 108.924"] ;
422 -> 426 ;
427 [label="WOA_TEMP_K <= 284.82\nmse = 28.613\nsamples = 2\nvalue = 60.551"] ;
421 -> 427 ;
428 [label="mse = 0.0\nsamples = 1\nvalue = 65.9"] ;
427 -> 428 ;
429 [label="mse = 0.0\nsamples = 1\nvalue = 55.202"] ;
427 -> 429 ;
430 [label="WOA_TEMP_K <= 294.377\nmse = 4319.347\nsamples = 373\nvalue = 136.644"] ;
0 -> 430 [labeldistance=2.5, labelangle=-45, headlabel="False"] ;
431 [label="Depth_GEBCO <= -1591.0\nmse = 4045.778\nsamples = 128\nvalue = 102.86"] ;
430 -> 431 ;
432 [label="WOA_Nitrate <= 4.946\nmse = 1009.335\nsamples = 69\nvalue = 70.963"] ;
431 -> 432 ;
433 [label="SWrad <= 124.253\nmse = 638.467\nsamples = 66\nvalue = 67.065"] ;
432 -> 433 ;
434 [label="WOA_Nitrate <= 0.796\nmse = 246.454\nsamples = 21\nvalue = 49.556"] ;
433 -> 434 ;
435 [label="WOA_TEMP_K <= 293.942\nmse = 143.192\nsamples = 19\nvalue = 45.787"] ;
434 -> 435 ;
436 [label="WOA_TEMP_K <= 292.751\nmse = 132.759\nsamples = 18\nvalue = 47.683"] ;
435 -> 436 ;
437 [label="(...)"] ;
436 -> 437 ;
466 [label="(...)"] ;
436 -> 466 ;
471 [label="mse = -0.0\nsamples = 1\nvalue = 31.882"] ;
435 -> 471 ;
472 [label="WOA_TEMP_K <= 289.042\nmse = 2.071\nsamples = 2\nvalue = 80.965"] ;
434 -> 472 ;
473 [label="mse = 0.0\nsamples = 1\nvalue = 79.947"] ;
472 -> 473 ;
474 [label="mse = 0.0\nsamples = 1\nvalue = 83.0"] ;
472 -> 474 ;
475 [label="Depth_GEBCO <= -2672.0\nmse = 624.489\nsamples = 45\nvalue = 73.97"] ;
433 -> 475 ;
476 [label="WOA_TEMP_K <= 290.705\nmse = 527.975\nsamples = 42\nvalue = 77.452"] ;
475 -> 476 ;
477 [label="WOA_Nitrate <= 1.138\nmse = 250.369\nsamples = 15\nvalue = 64.194"] ;
476 -> 477 ;
478 [label="(...)"] ;
477 -> 478 ;
479 [label="(...)"] ;
477 -> 479 ;
500 [label="SWrad <= 272.126\nmse = 527.352\nsamples = 27\nvalue = 85.213"] ;
476 -> 500 ;
501 [label="(...)"] ;
500 -> 501 ;
536 [label="(...)"] ;
500 -> 536 ;
545 [label="WOA_Nitrate <= 1.053\nmse = 115.33\nsamples = 3\nvalue = 36.242"] ;
475 -> 545 ;
546 [label="mse = 36.0\nsamples = 2\nvalue = 43.0"] ;
545 -> 546 ;
547 [label="mse = -0.0\nsamples = 1\nvalue = 22.727"] ;
545 -> 547 ;
548 [label="Depth_GEBCO <= -4587.5\nmse = 2095.342\nsamples = 3\nvalue = 148.14"] ;
432 -> 548 ;
549 [label="mse = 0.0\nsamples = 1\nvalue = 239.1"] ;
548 -> 549 ;
550 [label="Depth_GEBCO <= -4231.5\nmse = 33.64\nsamples = 2\nvalue = 125.4"] ;
548 -> 550 ;
551 [label="mse = 0.0\nsamples = 1\nvalue = 119.6"] ;
550 -> 551 ;
552 [label="mse = 0.0\nsamples = 1\nvalue = 131.2"] ;
550 -> 552 ;
553 [label="WOA_Nitrate <= 0.121\nmse = 5045.051\nsamples = 59\nvalue = 136.034"] ;
431 -> 553 ;
554 [label="WOA_Nitrate <= 0.086\nmse = 6166.762\nsamples = 14\nvalue = 179.285"] ;
553 -> 554 ;
555 [label="WOA_TEMP_K <= 291.315\nmse = 1654.992\nsamples = 8\nvalue = 133.943"] ;
554 -> 555 ;
556 [label="Depth_GEBCO <= -59.0\nmse = 558.493\nsamples = 4\nvalue = 92.252"] ;
555 -> 556 ;
557 [label="mse = 0.0\nsamples = 1\nvalue = 76.0"] ;
556 -> 557 ;
558 [label="mse = 637.347\nsamples = 3\nvalue = 103.087"] ;
556 -> 558 ;
559 [label="Depth_GEBCO <= -140.5\nmse = 575.0\nsamples = 4\nvalue = 160.0"] ;
555 -> 559 ;
560 [label="mse = 0.0\nsamples = 1\nvalue = 200.0"] ;
559 -> 560 ;
561 [label="Depth_GEBCO <= -14.5\nmse = 55.556\nsamples = 3\nvalue = 146.667"] ;
559 -> 561 ;
562 [label="(...)"] ;
561 -> 562 ;
563 [label="(...)"] ;
561 -> 563 ;
564 [label="Depth_GEBCO <= -121.5\nmse = 5424.84\nsamples = 6\nvalue = 244.778"] ;
554 -> 564 ;
565 [label="SWrad <= 175.941\nmse = 552.25\nsamples = 2\nvalue = 336.5"] ;
564 -> 565 ;
566 [label="mse = 0.0\nsamples = 1\nvalue = 360.0"] ;
565 -> 566 ;
567 [label="mse = 0.0\nsamples = 1\nvalue = 313.0"] ;
565 -> 567 ;
568 [label="Depth_GEBCO <= -59.5\nmse = 3726.531\nsamples = 4\nvalue = 218.571"] ;
564 -> 568 ;
569 [label="mse = 0.0\nsamples = 1\nvalue = 170.0"] ;
568 -> 569 ;
570 [label="SWrad <= 178.386\nmse = 1355.556\nsamples = 3\nvalue = 283.333"] ;
568 -> 570 ;
571 [label="(...)"] ;
570 -> 571 ;
572 [label="(...)"] ;
570 -> 572 ;
573 [label="SWrad <= 270.811\nmse = 4052.237\nsamples = 45\nvalue = 123.835"] ;
553 -> 573 ;
574 [label="WOA_TEMP_K <= 288.312\nmse = 3798.613\nsamples = 44\nvalue = 119.836"] ;
573 -> 574 ;
575 [label="mse = 0.0\nsamples = 1\nvalue = 220.0"] ;
574 -> 575 ;
576 [label="WOA_Nitrate <= 7.115\nmse = 3620.282\nsamples = 43\nvalue = 117.092"] ;
574 -> 576 ;
577 [label="WOA_TEMP_K <= 292.646\nmse = 2744.361\nsamples = 40\nvalue = 112.567"] ;
576 -> 577 ;
578 [label="(...)"] ;
577 -> 578 ;
623 [label="(...)"] ;
577 -> 623 ;
638 [label="Depth_GEBCO <= -51.5\nmse = 10619.919\nsamples = 3\nvalue = 167.618"] ;
576 -> 638 ;
639 [label="(...)"] ;
638 -> 639 ;
640 [label="(...)"] ;
638 -> 640 ;
643 [label="mse = 0.0\nsamples = 1\nvalue = 223.8"] ;
573 -> 643 ;
644 [label="Depth_GEBCO <= -4841.5\nmse = 3524.568\nsamples = 245\nvalue = 154.78"] ;
430 -> 644 ;
645 [label="WOA_TEMP_K <= 302.164\nmse = 2829.179\nsamples = 33\nvalue = 116.768"] ;
644 -> 645 ;
646 [label="SWrad <= 297.846\nmse = 2027.769\nsamples = 32\nvalue = 112.578"] ;
645 -> 646 ;
647 [label="SWrad <= 181.536\nmse = 1585.975\nsamples = 29\nvalue = 104.312"] ;
646 -> 647 ;
648 [label="Depth_GEBCO <= -5309.0\nmse = 1932.832\nsamples = 4\nvalue = 168.113"] ;
647 -> 648 ;
649 [label="mse = 0.0\nsamples = 1\nvalue = 240.325"] ;
648 -> 649 ;
650 [label="Depth_GEBCO <= -5013.0\nmse = 786.475\nsamples = 3\nvalue = 150.06"] ;
648 -> 650 ;
651 [label="(...)"] ;
650 -> 651 ;
652 [label="(...)"] ;
650 -> 652 ;
655 [label="WOA_Nitrate <= 0.146\nmse = 914.699\nsamples = 25\nvalue = 95.691"] ;
647 -> 655 ;
656 [label="WOA_TEMP_K <= 299.266\nmse = 466.574\nsamples = 13\nvalue = 80.707"] ;
655 -> 656 ;
657 [label="(...)"] ;
656 -> 657 ;
672 [label="(...)"] ;
656 -> 672 ;
679 [label="WOA_Nitrate <= 0.159\nmse = 867.045\nsamples = 12\nvalue = 113.318"] ;
655 -> 679 ;
680 [label="(...)"] ;
679 -> 680 ;
681 [label="(...)"] ;
679 -> 681 ;
700 [label="Depth_GEBCO <= -5145.0\nmse = 1294.742\nsamples = 3\nvalue = 170.434"] ;
646 -> 700 ;
701 [label="mse = 0.0\nsamples = 1\nvalue = 218.84"] ;
700 -> 701 ;
702 [label="Depth_GEBCO <= -5019.5\nmse = 184.779\nsamples = 2\nvalue = 146.231"] ;
700 -> 702 ;
703 [label="mse = 0.0\nsamples = 1\nvalue = 154.08"] ;
702 -> 703 ;
704 [label="mse = 0.0\nsamples = 1\nvalue = 122.687"] ;
702 -> 704 ;
705 [label="mse = 0.0\nsamples = 1\nvalue = 317.9"] ;
645 -> 705 ;
706 [label="SWrad <= 295.571\nmse = 3381.945\nsamples = 212\nvalue = 160.407"] ;
644 -> 706 ;
707 [label="Depth_GEBCO <= -4703.0\nmse = 2953.547\nsamples = 198\nvalue = 156.187"] ;
706 -> 707 ;
708 [label="Depth_GEBCO <= -4777.0\nmse = 5329.053\nsamples = 7\nvalue = 240.577"] ;
707 -> 708 ;
709 [label="WOA_Nitrate <= 0.241\nmse = 166.661\nsamples = 3\nvalue = 157.267"] ;
708 -> 709 ;
710 [label="WOA_TEMP_K <= 299.087\nmse = 26.036\nsamples = 2\nvalue = 150.264"] ;
709 -> 710 ;
711 [label="(...)"] ;
710 -> 711 ;
712 [label="(...)"] ;
710 -> 712 ;
713 [label="mse = -0.0\nsamples = 1\nvalue = 178.277"] ;
709 -> 713 ;
714 [label="WOA_Nitrate <= 0.017\nmse = 2046.793\nsamples = 4\nvalue = 288.182"] ;
708 -> 714 ;
715 [label="mse = 0.0\nsamples = 1\nvalue = 380.0"] ;
714 -> 715 ;
716 [label="Depth_GEBCO <= -4726.5\nmse = 748.644\nsamples = 3\nvalue = 272.879"] ;
714 -> 716 ;
717 [label="(...)"] ;
716 -> 717 ;
720 [label="(...)"] ;
716 -> 720 ;
721 [label="WOA_TEMP_K <= 297.971\nmse = 2600.577\nsamples = 191\nvalue = 153.133"] ;
707 -> 721 ;
722 [label="WOA_TEMP_K <= 294.585\nmse = 1978.48\nsamples = 109\nvalue = 141.375"] ;
721 -> 722 ;
723 [label="WOA_TEMP_K <= 294.415\nmse = 726.17\nsamples = 11\nvalue = 188.108"] ;
722 -> 723 ;
724 [label="(...)"] ;
723 -> 724 ;
725 [label="(...)"] ;
723 -> 725 ;
734 [label="SWrad <= 130.77\nmse = 1857.554\nsamples = 98\nvalue = 136.501"] ;
722 -> 734 ;
735 [label="(...)"] ;
734 -> 735 ;
750 [label="(...)"] ;
734 -> 750 ;
887 [label="Depth_GEBCO <= -16.5\nmse = 3011.596\nsamples = 82\nvalue = 170.202"] ;
721 -> 887 ;
888 [label="WOA_TEMP_K <= 301.676\nmse = 2596.605\nsamples = 74\nvalue = 163.876"] ;
887 -> 888 ;
889 [label="(...)"] ;
888 -> 889 ;
986 [label="(...)"] ;
888 -> 986 ;
1005 [label="WOA_Nitrate <= 0.089\nmse = 2641.24\nsamples = 8\nvalue = 235.182"] ;
887 -> 1005 ;
1006 [label="(...)"] ;
1005 -> 1006 ;
1007 [label="(...)"] ;
1005 -> 1007 ;
1016 [label="Depth_GEBCO <= -3085.0\nmse = 4561.967\nsamples = 14\nvalue = 243.494"] ;
706 -> 1016 ;
1017 [label="WOA_Nitrate <= 2.195\nmse = 4485.137\nsamples = 8\nvalue = 207.445"] ;
1016 -> 1017 ;
1018 [label="WOA_TEMP_K <= 298.863\nmse = 2953.746\nsamples = 6\nvalue = 182.686"] ;
1017 -> 1018 ;
1019 [label="SWrad <= 306.513\nmse = 1433.787\nsamples = 3\nvalue = 236.6"] ;
1018 -> 1019 ;
1020 [label="(...)"] ;
1019 -> 1020 ;
1021 [label="(...)"] ;
1019 -> 1021 ;
1024 [label="WOA_TEMP_K <= 299.046\nmse = 278.689\nsamples = 3\nvalue = 142.251"] ;
1018 -> 1024 ;
1025 [label="(...)"] ;
1024 -> 1025 ;
1026 [label="(...)"] ;
1024 -> 1026 ;
1029 [label="SWrad <= 309.27\nmse = 190.44\nsamples = 2\nvalue = 294.1"] ;
1017 -> 1029 ;
1030 [label="mse = 0.0\nsamples = 1\nvalue = 280.3"] ;
1029 -> 1030 ;
1031 [label="mse = -0.0\nsamples = 1\nvalue = 307.9"] ;
1029 -> 1031 ;
1032 [label="WOA_Nitrate <= 0.093\nmse = 841.697\nsamples = 6\nvalue = 289.843"] ;
1016 -> 1032 ;
1033 [label="mse = 0.0\nsamples = 1\nvalue = 227.8"] ;
1032 -> 1033 ;
1034 [label="Depth_GEBCO <= -140.5\nmse = 233.501\nsamples = 5\nvalue = 300.183"] ;
1032 -> 1034 ;
1035 [label="Depth_GEBCO <= -1626.5\nmse = 164.852\nsamples = 3\nvalue = 307.775"] ;
1034 -> 1035 ;
1036 [label="(...)"] ;
1035 -> 1036 ;
1037 [label="(...)"] ;
1035 -> 1037 ;
1038 [label="Depth_GEBCO <= -14.5\nmse = 25.0\nsamples = 2\nvalue = 285.0"] ;
1034 -> 1038 ;
1039 [label="(...)"] ;
1038 -> 1039 ;
1040 [label="(...)"] ;
1038 -> 1040 ;
}