digraph Tree {
node [shape=box] ;
0 [label="WOA_TEMP_K <= 294.271\nmse = 4808.294\nsamples = 666\nvalue = 97.86"] ;
1 [label="WOA_Nitrate <= 7.709\nmse = 2589.855\nsamples = 418\nvalue = 61.891"] ;
0 -> 1 [labeldistance=2.5, labelangle=45, headlabel="True"] ;
2 [label="WOA_TEMP_K <= 278.928\nmse = 2941.515\nsamples = 230\nvalue = 83.916"] ;
1 -> 2 ;
3 [label="WOA_Nitrate <= 2.901\nmse = 5840.143\nsamples = 9\nvalue = 192.387"] ;
2 -> 3 ;
4 [label="mse = 94.576\nsamples = 2\nvalue = 17.675"] ;
3 -> 4 ;
5 [label="Depth_GEBCO <= -205.0\nmse = 2502.526\nsamples = 7\nvalue = 212.941"] ;
3 -> 5 ;
6 [label="WOA_TEMP_K <= 277.497\nmse = 933.333\nsamples = 3\nvalue = 253.333"] ;
5 -> 6 ;
7 [label="mse = 100.0\nsamples = 2\nvalue = 220.0"] ;
6 -> 7 ;
8 [label="mse = 0.0\nsamples = 1\nvalue = 280.0"] ;
6 -> 8 ;
9 [label="WOA_Nitrate <= 3.622\nmse = 367.5\nsamples = 4\nvalue = 167.5"] ;
5 -> 9 ;
10 [label="Depth_GEBCO <= -6.5\nmse = 90.75\nsamples = 2\nvalue = 183.5"] ;
9 -> 10 ;
11 [label="mse = 0.0\nsamples = 1\nvalue = 189.0"] ;
10 -> 11 ;
12 [label="mse = 0.0\nsamples = 1\nvalue = 167.0"] ;
10 -> 12 ;
13 [label="Depth_GEBCO <= -10.5\nmse = 132.25\nsamples = 2\nvalue = 151.5"] ;
9 -> 13 ;
14 [label="mse = 0.0\nsamples = 1\nvalue = 140.0"] ;
13 -> 14 ;
15 [label="mse = 0.0\nsamples = 1\nvalue = 163.0"] ;
13 -> 15 ;
16 [label="Depth_GEBCO <= -111.5\nmse = 2087.895\nsamples = 221\nvalue = 77.872"] ;
2 -> 16 ;
17 [label="WOA_TEMP_K <= 290.359\nmse = 1695.286\nsamples = 137\nvalue = 59.515"] ;
16 -> 17 ;
18 [label="WOA_TEMP_K <= 287.86\nmse = 805.525\nsamples = 84\nvalue = 45.129"] ;
17 -> 18 ;
19 [label="WOA_TEMP_K <= 283.182\nmse = 549.688\nsamples = 50\nvalue = 37.535"] ;
18 -> 19 ;
20 [label="SWrad <= 40.226\nmse = 672.095\nsamples = 10\nvalue = 66.641"] ;
19 -> 20 ;
21 [label="(...)"] ;
20 -> 21 ;
24 [label="(...)"] ;
20 -> 24 ;
37 [label="WOA_Nitrate <= 0.232\nmse = 243.745\nsamples = 40\nvalue = 30.038"] ;
19 -> 37 ;
38 [label="(...)"] ;
37 -> 38 ;
39 [label="(...)"] ;
37 -> 39 ;
92 [label="WOA_Nitrate <= 4.59\nmse = 975.741\nsamples = 34\nvalue = 58.261"] ;
18 -> 92 ;
93 [label="WOA_TEMP_K <= 289.248\nmse = 365.744\nsamples = 31\nvalue = 54.733"] ;
92 -> 93 ;
94 [label="(...)"] ;
93 -> 94 ;
107 [label="(...)"] ;
93 -> 107 ;
144 [label="WOA_Nitrate <= 6.282\nmse = 7137.846\nsamples = 3\nvalue = 111.187"] ;
92 -> 144 ;
145 [label="(...)"] ;
144 -> 145 ;
146 [label="(...)"] ;
144 -> 146 ;
149 [label="Depth_GEBCO <= -600.5\nmse = 2257.336\nsamples = 53\nvalue = 84.312"] ;
17 -> 149 ;
150 [label="WOA_Nitrate <= 6.18\nmse = 1188.55\nsamples = 49\nvalue = 73.625"] ;
149 -> 150 ;
151 [label="WOA_Nitrate <= 1.712\nmse = 797.432\nsamples = 48\nvalue = 71.192"] ;
150 -> 151 ;
152 [label="(...)"] ;
151 -> 152 ;
223 [label="(...)"] ;
151 -> 223 ;
238 [label="mse = -0.0\nsamples = 1\nvalue = 239.1"] ;
150 -> 238 ;
239 [label="WOA_Nitrate <= 1.069\nmse = 569.151\nsamples = 4\nvalue = 189.657"] ;
149 -> 239 ;
240 [label="WOA_Nitrate <= 0.226\nmse = 144.0\nsamples = 3\nvalue = 176.0"] ;
239 -> 240 ;
241 [label="(...)"] ;
240 -> 241 ;
242 [label="(...)"] ;
240 -> 242 ;
243 [label="mse = 0.0\nsamples = 1\nvalue = 223.8"] ;
239 -> 243 ;
244 [label="Depth_GEBCO <= -23.0\nmse = 1369.789\nsamples = 84\nvalue = 106.228"] ;
16 -> 244 ;
245 [label="WOA_Nitrate <= 6.623\nmse = 784.649\nsamples = 68\nvalue = 98.531"] ;
244 -> 245 ;
246 [label="SWrad <= 184.974\nmse = 756.069\nsamples = 53\nvalue = 103.756"] ;
245 -> 246 ;
247 [label="WOA_Nitrate <= 0.26\nmse = 575.972\nsamples = 36\nvalue = 109.857"] ;
246 -> 247 ;
248 [label="(...)"] ;
247 -> 248 ;
253 [label="(...)"] ;
247 -> 253 ;
306 [label="Depth_GEBCO <= -47.5\nmse = 887.959\nsamples = 17\nvalue = 89.773"] ;
246 -> 306 ;
307 [label="(...)"] ;
306 -> 307 ;
316 [label="(...)"] ;
306 -> 316 ;
331 [label="Depth_GEBCO <= -50.5\nmse = 516.153\nsamples = 15\nvalue = 82.022"] ;
245 -> 331 ;
332 [label="WOA_TEMP_K <= 281.796\nmse = 147.544\nsamples = 5\nvalue = 60.778"] ;
331 -> 332 ;
333 [label="(...)"] ;
332 -> 333 ;
336 [label="(...)"] ;
332 -> 336 ;
341 [label="Depth_GEBCO <= -39.0\nmse = 326.838\nsamples = 10\nvalue = 93.972"] ;
331 -> 341 ;
342 [label="(...)"] ;
341 -> 342 ;
345 [label="(...)"] ;
341 -> 345 ;
346 [label="WOA_TEMP_K <= 289.511\nmse = 2480.929\nsamples = 16\nvalue = 132.911"] ;
244 -> 346 ;
347 [label="WOA_TEMP_K <= 287.938\nmse = 2443.119\nsamples = 6\nvalue = 179.592"] ;
346 -> 347 ;
348 [label="SWrad <= 192.097\nmse = 469.642\nsamples = 3\nvalue = 110.641"] ;
347 -> 348 ;
349 [label="(...)"] ;
348 -> 349 ;
352 [label="(...)"] ;
348 -> 352 ;
353 [label="Depth_GEBCO <= -16.5\nmse = 378.122\nsamples = 3\nvalue = 209.143"] ;
347 -> 353 ;
354 [label="(...)"] ;
353 -> 354 ;
355 [label="(...)"] ;
353 -> 355 ;
358 [label="SWrad <= 182.421\nmse = 865.457\nsamples = 10\nvalue = 109.57"] ;
346 -> 358 ;
359 [label="WOA_TEMP_K <= 290.495\nmse = 439.48\nsamples = 4\nvalue = 92.2"] ;
358 -> 359 ;
360 [label="(...)"] ;
359 -> 360 ;
361 [label="(...)"] ;
359 -> 361 ;
366 [label="WOA_Nitrate <= 1.558\nmse = 372.984\nsamples = 6\nvalue = 135.625"] ;
358 -> 366 ;
367 [label="(...)"] ;
366 -> 367 ;
372 [label="(...)"] ;
366 -> 372 ;
377 [label="Depth_GEBCO <= -67.0\nmse = 768.03\nsamples = 188\nvalue = 34.168"] ;
1 -> 377 ;
378 [label="WOA_TEMP_K <= 286.095\nmse = 412.179\nsamples = 151\nvalue = 28.626"] ;
377 -> 378 ;
379 [label="WOA_TEMP_K <= 282.083\nmse = 278.378\nsamples = 147\nvalue = 26.85"] ;
378 -> 379 ;
380 [label="SWrad <= 187.321\nmse = 305.669\nsamples = 100\nvalue = 31.687"] ;
379 -> 380 ;
381 [label="SWrad <= 180.075\nmse = 205.225\nsamples = 61\nvalue = 26.512"] ;
380 -> 381 ;
382 [label="WOA_Nitrate <= 24.252\nmse = 130.116\nsamples = 40\nvalue = 33.945"] ;
381 -> 382 ;
383 [label="(...)"] ;
382 -> 383 ;
428 [label="(...)"] ;
382 -> 428 ;
461 [label="Depth_GEBCO <= -4357.5\nmse = 95.532\nsamples = 21\nvalue = 14.618"] ;
381 -> 461 ;
462 [label="(...)"] ;
461 -> 462 ;
463 [label="(...)"] ;
461 -> 463 ;
500 [label="WOA_TEMP_K <= 279.094\nmse = 354.227\nsamples = 39\nvalue = 40.25"] ;
380 -> 500 ;
501 [label="WOA_TEMP_K <= 276.922\nmse = 353.973\nsamples = 30\nvalue = 44.483"] ;
500 -> 501 ;
502 [label="(...)"] ;
501 -> 502 ;
547 [label="(...)"] ;
501 -> 547 ;
554 [label="SWrad <= 203.754\nmse = 110.039\nsamples = 9\nvalue = 26.571"] ;
500 -> 554 ;
555 [label="(...)"] ;
554 -> 555 ;
558 [label="(...)"] ;
554 -> 558 ;
571 [label="WOA_TEMP_K <= 285.239\nmse = 83.397\nsamples = 47\nvalue = 17.175"] ;
379 -> 571 ;
572 [label="SWrad <= 207.992\nmse = 74.156\nsamples = 46\nvalue = 16.798"] ;
571 -> 572 ;
573 [label="Depth_GEBCO <= -142.0\nmse = 68.872\nsamples = 43\nvalue = 17.84"] ;
572 -> 573 ;
574 [label="(...)"] ;
573 -> 574 ;
617 [label="(...)"] ;
573 -> 617 ;
622 [label="SWrad <= 217.539\nmse = 19.444\nsamples = 3\nvalue = 7.118"] ;
572 -> 622 ;
623 [label="(...)"] ;
622 -> 623 ;
624 [label="(...)"] ;
622 -> 624 ;
627 [label="mse = 0.0\nsamples = 1\nvalue = 44.35"] ;
571 -> 627 ;
628 [label="SWrad <= 153.461\nmse = 975.436\nsamples = 4\nvalue = 93.474"] ;
378 -> 628 ;
629 [label="mse = 0.0\nsamples = 1\nvalue = 50.0"] ;
628 -> 629 ;
630 [label="WOA_TEMP_K <= 288.539\nmse = 45.633\nsamples = 3\nvalue = 115.212"] ;
628 -> 630 ;
631 [label="mse = 0.0\nsamples = 1\nvalue = 103.53"] ;
630 -> 631 ;
632 [label="mse = 0.195\nsamples = 2\nvalue = 119.106"] ;
630 -> 632 ;
633 [label="WOA_TEMP_K <= 281.738\nmse = 1549.595\nsamples = 37\nvalue = 54.606"] ;
377 -> 633 ;
634 [label="WOA_Nitrate <= 12.609\nmse = 1347.562\nsamples = 32\nvalue = 47.973"] ;
633 -> 634 ;
635 [label="mse = 2784.219\nsamples = 7\nvalue = 66.914"] ;
634 -> 635 ;
636 [label="SWrad <= 138.982\nmse = 864.801\nsamples = 25\nvalue = 43.128"] ;
634 -> 636 ;
637 [label="SWrad <= 86.518\nmse = 874.229\nsamples = 11\nvalue = 52.78"] ;
636 -> 637 ;
638 [label="SWrad <= 56.617\nmse = 138.368\nsamples = 5\nvalue = 43.506"] ;
637 -> 638 ;
639 [label="(...)"] ;
638 -> 639 ;
642 [label="(...)"] ;
638 -> 642 ;
643 [label="WOA_TEMP_K <= 276.53\nmse = 1438.064\nsamples = 6\nvalue = 62.054"] ;
637 -> 643 ;
644 [label="(...)"] ;
643 -> 644 ;
645 [label="(...)"] ;
643 -> 645 ;
646 [label="WOA_Nitrate <= 17.592\nmse = 742.651\nsamples = 14\nvalue = 36.179"] ;
636 -> 646 ;
647 [label="WOA_TEMP_K <= 272.105\nmse = 64.72\nsamples = 5\nvalue = 25.661"] ;
646 -> 647 ;
648 [label="(...)"] ;
647 -> 648 ;
649 [label="(...)"] ;
647 -> 649 ;
650 [label="WOA_TEMP_K <= 273.834\nmse = 985.121\nsamples = 9\nvalue = 41.129"] ;
646 -> 650 ;
651 [label="(...)"] ;
650 -> 651 ;
656 [label="(...)"] ;
650 -> 656 ;
657 [label="WOA_TEMP_K <= 285.722\nmse = 150.457\nsamples = 5\nvalue = 105.776"] ;
633 -> 657 ;
658 [label="mse = 13.208\nsamples = 4\nvalue = 100.96"] ;
657 -> 658 ;
659 [label="mse = -0.0\nsamples = 1\nvalue = 134.669"] ;
657 -> 659 ;
660 [label="Depth_GEBCO <= -26.0\nmse = 2900.619\nsamples = 248\nvalue = 156.242"] ;
0 -> 660 [labeldistance=2.5, labelangle=-45, headlabel="False"] ;
661 [label="WOA_Nitrate <= 0.044\nmse = 2582.192\nsamples = 204\nvalue = 148.898"] ;
660 -> 661 ;
662 [label="SWrad <= 164.154\nmse = 3515.7\nsamples = 32\nvalue = 174.111"] ;
661 -> 662 ;
663 [label="mse = 118.75\nsamples = 3\nvalue = 267.5"] ;
662 -> 663 ;
664 [label="WOA_TEMP_K <= 298.694\nmse = 2440.513\nsamples = 29\nvalue = 159.169"] ;
662 -> 664 ;
665 [label="WOA_Nitrate <= 0.032\nmse = 1595.232\nsamples = 13\nvalue = 184.386"] ;
664 -> 665 ;
666 [label="Depth_GEBCO <= -3562.0\nmse = 1018.476\nsamples = 12\nvalue = 189.832"] ;
665 -> 666 ;
667 [label="WOA_Nitrate <= 0.025\nmse = 1192.967\nsamples = 7\nvalue = 200.263"] ;
666 -> 667 ;
668 [label="(...)"] ;
667 -> 668 ;
677 [label="(...)"] ;
667 -> 677 ;
678 [label="WOA_TEMP_K <= 296.902\nmse = 270.826\nsamples = 5\nvalue = 172.882"] ;
666 -> 678 ;
679 [label="(...)"] ;
678 -> 679 ;
680 [label="(...)"] ;
678 -> 680 ;
683 [label="mse = 0.0\nsamples = 1\nvalue = 70.0"] ;
665 -> 683 ;
684 [label="Depth_GEBCO <= -823.0\nmse = 2212.503\nsamples = 16\nvalue = 139.356"] ;
664 -> 684 ;
685 [label="SWrad <= 286.623\nmse = 1193.017\nsamples = 11\nvalue = 118.606"] ;
684 -> 685 ;
686 [label="WOA_TEMP_K <= 301.732\nmse = 622.209\nsamples = 9\nvalue = 111.573"] ;
685 -> 686 ;
687 [label="(...)"] ;
686 -> 687 ;
700 [label="(...)"] ;
686 -> 700 ;
703 [label="SWrad <= 299.479\nmse = 2559.125\nsamples = 2\nvalue = 158.458"] ;
685 -> 703 ;
704 [label="(...)"] ;
703 -> 704 ;
705 [label="(...)"] ;
703 -> 705 ;
706 [label="WOA_TEMP_K <= 299.752\nmse = 993.623\nsamples = 5\nvalue = 191.232"] ;
684 -> 706 ;
707 [label="mse = 13.182\nsamples = 3\nvalue = 159.965"] ;
706 -> 707 ;
708 [label="mse = 18.75\nsamples = 2\nvalue = 222.5"] ;
706 -> 708 ;
709 [label="WOA_Nitrate <= 0.068\nmse = 2218.672\nsamples = 172\nvalue = 143.521"] ;
661 -> 709 ;
710 [label="WOA_TEMP_K <= 297.022\nmse = 1214.354\nsamples = 13\nvalue = 94.316"] ;
709 -> 710 ;
711 [label="SWrad <= 244.596\nmse = 9.578\nsamples = 3\nvalue = 62.684"] ;
710 -> 711 ;
712 [label="mse = 1.688\nsamples = 2\nvalue = 61.25"] ;
711 -> 712 ;
713 [label="mse = -0.0\nsamples = 1\nvalue = 68.421"] ;
711 -> 713 ;
714 [label="WOA_TEMP_K <= 297.47\nmse = 1180.447\nsamples = 10\nvalue = 104.201"] ;
710 -> 714 ;
715 [label="Depth_GEBCO <= -1714.5\nmse = 122.83\nsamples = 4\nvalue = 144.489"] ;
714 -> 715 ;
716 [label="mse = 0.0\nsamples = 1\nvalue = 160.0"] ;
715 -> 716 ;
717 [label="Depth_GEBCO <= -157.5\nmse = 3.801\nsamples = 3\nvalue = 136.733"] ;
715 -> 717 ;
718 [label="(...)"] ;
717 -> 718 ;
719 [label="(...)"] ;
717 -> 719 ;
720 [label="WOA_Nitrate <= 0.054\nmse = 256.852\nsamples = 6\nvalue = 80.029"] ;
714 -> 720 ;
721 [label="mse = 0.0\nsamples = 1\nvalue = 54.545"] ;
720 -> 721 ;
722 [label="Depth_GEBCO <= -4531.5\nmse = 118.127\nsamples = 5\nvalue = 86.4"] ;
720 -> 722 ;
723 [label="(...)"] ;
722 -> 723 ;
726 [label="(...)"] ;
722 -> 726 ;
731 [label="WOA_TEMP_K <= 301.997\nmse = 2083.184\nsamples = 159\nvalue = 147.638"] ;
709 -> 731 ;
732 [label="SWrad <= 275.489\nmse = 1860.333\nsamples = 152\nvalue = 144.91"] ;
731 -> 732 ;
733 [label="WOA_TEMP_K <= 300.743\nmse = 1377.4\nsamples = 137\nvalue = 141.825"] ;
732 -> 733 ;
734 [label="WOA_TEMP_K <= 300.208\nmse = 1137.132\nsamples = 119\nvalue = 145.8"] ;
733 -> 734 ;
735 [label="(...)"] ;
734 -> 735 ;
912 [label="(...)"] ;
734 -> 912 ;
927 [label="Depth_GEBCO <= -1533.5\nmse = 2168.545\nsamples = 18\nvalue = 116.056"] ;
733 -> 927 ;
928 [label="(...)"] ;
927 -> 928 ;
959 [label="(...)"] ;
927 -> 959 ;
960 [label="Depth_GEBCO <= -4231.5\nmse = 5876.184\nsamples = 15\nvalue = 178.387"] ;
732 -> 960 ;
961 [label="SWrad <= 288.003\nmse = 2734.342\nsamples = 8\nvalue = 137.078"] ;
960 -> 961 ;
962 [label="(...)"] ;
961 -> 962 ;
965 [label="(...)"] ;
961 -> 965 ;
976 [label="SWrad <= 297.789\nmse = 4189.85\nsamples = 7\nvalue = 240.35"] ;
960 -> 976 ;
977 [label="(...)"] ;
976 -> 977 ;
982 [label="(...)"] ;
976 -> 982 ;
989 [label="WOA_TEMP_K <= 302.693\nmse = 3596.569\nsamples = 7\nvalue = 193.824"] ;
731 -> 989 ;
990 [label="SWrad <= 244.168\nmse = 682.95\nsamples = 5\nvalue = 229.081"] ;
989 -> 990 ;
991 [label="SWrad <= 229.283\nmse = 436.698\nsamples = 4\nvalue = 234.757"] ;
990 -> 991 ;
992 [label="(...)"] ;
991 -> 992 ;
993 [label="(...)"] ;
991 -> 993 ;
996 [label="mse = -0.0\nsamples = 1\nvalue = 178.0"] ;
990 -> 996 ;
997 [label="Depth_GEBCO <= -4285.0\nmse = 3.874\nsamples = 2\nvalue = 105.682"] ;
989 -> 997 ;
998 [label="mse = 0.0\nsamples = 1\nvalue = 104.545"] ;
997 -> 998 ;
999 [label="mse = 0.0\nsamples = 1\nvalue = 109.091"] ;
997 -> 999 ;
1000 [label="WOA_Nitrate <= 0.181\nmse = 2913.737\nsamples = 44\nvalue = 191.885"] ;
660 -> 1000 ;
1001 [label="Depth_GEBCO <= -16.5\nmse = 2409.128\nsamples = 42\nvalue = 197.14"] ;
1000 -> 1001 ;
1002 [label="WOA_TEMP_K <= 299.444\nmse = 1871.219\nsamples = 23\nvalue = 181.944"] ;
1001 -> 1002 ;
1003 [label="Depth_GEBCO <= -17.5\nmse = 1129.252\nsamples = 13\nvalue = 165.714"] ;
1002 -> 1003 ;
1004 [label="WOA_TEMP_K <= 296.831\nmse = 377.778\nsamples = 11\nvalue = 173.333"] ;
1003 -> 1004 ;
1005 [label="SWrad <= 201.715\nmse = 158.333\nsamples = 4\nvalue = 185.0"] ;
1004 -> 1005 ;
1006 [label="(...)"] ;
1005 -> 1006 ;
1007 [label="(...)"] ;
1005 -> 1007 ;
1008 [label="WOA_TEMP_K <= 298.546\nmse = 385.417\nsamples = 7\nvalue = 167.5"] ;
1004 -> 1008 ;
1009 [label="(...)"] ;
1008 -> 1009 ;
1014 [label="(...)"] ;
1008 -> 1014 ;
1015 [label="mse = 3200.0\nsamples = 2\nvalue = 120.0"] ;
1003 -> 1015 ;
1016 [label="WOA_TEMP_K <= 300.478\nmse = 2024.889\nsamples = 10\nvalue = 204.667"] ;
1002 -> 1016 ;
1017 [label="WOA_Nitrate <= 0.099\nmse = 1765.432\nsamples = 7\nvalue = 218.889"] ;
1016 -> 1017 ;
1018 [label="mse = 1816.0\nsamples = 4\nvalue = 222.0"] ;
1017 -> 1018 ;
1019 [label="mse = 1675.0\nsamples = 3\nvalue = 215.0"] ;
1017 -> 1019 ;
1020 [label="mse = 1655.556\nsamples = 3\nvalue = 183.333"] ;
1016 -> 1020 ;
1021 [label="Depth_GEBCO <= -3.0\nmse = 2434.407\nsamples = 19\nvalue = 216.003"] ;
1001 -> 1021 ;
1022 [label="WOA_TEMP_K <= 297.12\nmse = 1754.144\nsamples = 18\nvalue = 223.707"] ;
1021 -> 1022 ;
1023 [label="WOA_TEMP_K <= 294.374\nmse = 639.021\nsamples = 6\nvalue = 196.51"] ;
1022 -> 1023 ;
1024 [label="mse = 0.0\nsamples = 1\nvalue = 135.1"] ;
1023 -> 1024 ;
1025 [label="SWrad <= 231.402\nmse = 244.444\nsamples = 5\nvalue = 203.333"] ;
1023 -> 1025 ;
1026 [label="(...)"] ;
1025 -> 1026 ;
1031 [label="(...)"] ;
1025 -> 1031 ;
1032 [label="SWrad <= 168.241\nmse = 1719.031\nsamples = 12\nvalue = 239.706"] ;
1022 -> 1032 ;
1033 [label="Depth_GEBCO <= -9.0\nmse = 364.0\nsamples = 6\nvalue = 254.0"] ;
1032 -> 1033 ;
1034 [label="(...)"] ;
1033 -> 1034 ;
1037 [label="(...)"] ;
1033 -> 1037 ;
1040 [label="WOA_Nitrate <= 0.029\nmse = 2945.918\nsamples = 6\nvalue = 219.286"] ;
1032 -> 1040 ;
1041 [label="(...)"] ;
1040 -> 1041 ;
1042 [label="(...)"] ;
1040 -> 1042 ;
1047 [label="mse = 0.0\nsamples = 1\nvalue = 112.0"] ;
1021 -> 1047 ;
1048 [label="SWrad <= 137.77\nmse = 286.402\nsamples = 2\nvalue = 78.033"] ;
1000 -> 1048 ;
1049 [label="mse = 0.0\nsamples = 1\nvalue = 90.0"] ;
1048 -> 1049 ;
1050 [label="mse = 0.0\nsamples = 1\nvalue = 54.1"] ;
1048 -> 1050 ;
}