digraph Tree {
node [shape=box] ;
0 [label="WOA_TEMP_K <= 294.36\nmse = 4524.038\nsamples = 681\nvalue = 96.403"] ;
1 [label="WOA_Nitrate <= 7.642\nmse = 2487.459\nsamples = 438\nvalue = 64.289"] ;
0 -> 1 [labeldistance=2.5, labelangle=45, headlabel="True"] ;
2 [label="WOA_Salinity <= 33.691\nmse = 2811.212\nsamples = 238\nvalue = 85.133"] ;
1 -> 2 ;
3 [label="WOA_Salinity <= 12.689\nmse = 3627.269\nsamples = 43\nvalue = 133.836"] ;
2 -> 3 ;
4 [label="WOA_Nitrate <= 1.311\nmse = 419.655\nsamples = 6\nvalue = 37.358"] ;
3 -> 4 ;
5 [label="WOA_TEMP_K <= 290.448\nmse = 4.667\nsamples = 3\nvalue = 57.0"] ;
4 -> 5 ;
6 [label="mse = 0.0\nsamples = 1\nvalue = 54.0"] ;
5 -> 6 ;
7 [label="WOA_Salinity <= 7.363\nmse = 0.25\nsamples = 2\nvalue = 58.5"] ;
5 -> 7 ;
8 [label="mse = 0.0\nsamples = 1\nvalue = 58.0"] ;
7 -> 8 ;
9 [label="mse = 0.0\nsamples = 1\nvalue = 59.0"] ;
7 -> 9 ;
10 [label="mse = 63.054\nsamples = 3\nvalue = 17.717"] ;
4 -> 10 ;
11 [label="WOA_TEMP_K <= 278.596\nmse = 2896.585\nsamples = 37\nvalue = 143.817"] ;
3 -> 11 ;
12 [label="WOA_Nitrate <= 7.0\nmse = 999.868\nsamples = 9\nvalue = 204.636"] ;
11 -> 12 ;
13 [label="WOA_TEMP_K <= 278.116\nmse = 111.188\nsamples = 4\nvalue = 182.75"] ;
12 -> 13 ;
14 [label="WOA_TEMP_K <= 277.615\nmse = 81.556\nsamples = 3\nvalue = 178.667"] ;
13 -> 14 ;
15 [label="(...)"] ;
14 -> 15 ;
16 [label="(...)"] ;
14 -> 16 ;
17 [label="mse = 0.0\nsamples = 1\nvalue = 195.0"] ;
13 -> 17 ;
18 [label="WOA_TEMP_K <= 277.403\nmse = 1077.551\nsamples = 5\nvalue = 217.143"] ;
12 -> 18 ;
19 [label="mse = 75.0\nsamples = 2\nvalue = 215.0"] ;
18 -> 19 ;
20 [label="WOA_Salinity <= 33.385\nmse = 2400.0\nsamples = 3\nvalue = 220.0"] ;
18 -> 20 ;
21 [label="(...)"] ;
20 -> 21 ;
22 [label="(...)"] ;
20 -> 22 ;
23 [label="WOA_Salinity <= 32.513\nmse = 2272.152\nsamples = 28\nvalue = 129.582"] ;
11 -> 23 ;
24 [label="WOA_Nitrate <= 0.121\nmse = 2017.118\nsamples = 16\nvalue = 154.329"] ;
23 -> 24 ;
25 [label="WOA_Salinity <= 31.838\nmse = 4162.688\nsamples = 2\nvalue = 202.75"] ;
24 -> 25 ;
26 [label="(...)"] ;
25 -> 26 ;
27 [label="(...)"] ;
25 -> 27 ;
28 [label="WOA_Nitrate <= 0.358\nmse = 1203.622\nsamples = 14\nvalue = 146.258"] ;
24 -> 28 ;
29 [label="(...)"] ;
28 -> 29 ;
38 [label="(...)"] ;
28 -> 38 ;
53 [label="WOA_TEMP_K <= 289.884\nmse = 415.629\nsamples = 12\nvalue = 93.114"] ;
23 -> 53 ;
54 [label="WOA_Salinity <= 33.634\nmse = 358.091\nsamples = 8\nvalue = 84.629"] ;
53 -> 54 ;
55 [label="(...)"] ;
54 -> 55 ;
68 [label="(...)"] ;
54 -> 68 ;
69 [label="WOA_Nitrate <= 1.83\nmse = 46.25\nsamples = 4\nvalue = 111.5"] ;
53 -> 69 ;
70 [label="(...)"] ;
69 -> 70 ;
71 [label="(...)"] ;
69 -> 71 ;
74 [label="WOA_TEMP_K <= 292.469\nmse = 2054.698\nsamples = 195\nvalue = 75.111"] ;
2 -> 74 ;
75 [label="WOA_Salinity <= 35.2\nmse = 1789.5\nsamples = 153\nvalue = 68.371"] ;
74 -> 75 ;
76 [label="WOA_Salinity <= 35.153\nmse = 2290.831\nsamples = 70\nvalue = 86.915"] ;
75 -> 76 ;
77 [label="WOA_Salinity <= 34.071\nmse = 1770.274\nsamples = 66\nvalue = 82.616"] ;
76 -> 77 ;
78 [label="WOA_Salinity <= 34.043\nmse = 2634.3\nsamples = 11\nvalue = 102.565"] ;
77 -> 78 ;
79 [label="(...)"] ;
78 -> 79 ;
96 [label="(...)"] ;
78 -> 96 ;
97 [label="WOA_Salinity <= 34.954\nmse = 1533.349\nsamples = 55\nvalue = 79.07"] ;
77 -> 97 ;
98 [label="(...)"] ;
97 -> 98 ;
177 [label="(...)"] ;
97 -> 177 ;
200 [label="WOA_Salinity <= 35.169\nmse = 5699.941\nsamples = 4\nvalue = 143.866"] ;
76 -> 200 ;
201 [label="mse = 0.0\nsamples = 1\nvalue = 270.0"] ;
200 -> 201 ;
202 [label="WOA_Nitrate <= 5.698\nmse = 528.933\nsamples = 3\nvalue = 101.822"] ;
200 -> 202 ;
203 [label="(...)"] ;
202 -> 203 ;
206 [label="(...)"] ;
202 -> 206 ;
207 [label="WOA_TEMP_K <= 289.248\nmse = 839.395\nsamples = 83\nvalue = 52.827"] ;
75 -> 207 ;
208 [label="WOA_TEMP_K <= 282.574\nmse = 561.377\nsamples = 43\nvalue = 37.932"] ;
207 -> 208 ;
209 [label="mse = 140.748\nsamples = 3\nvalue = 87.673"] ;
208 -> 209 ;
210 [label="WOA_Nitrate <= 0.074\nmse = 327.581\nsamples = 40\nvalue = 32.885"] ;
208 -> 210 ;
211 [label="(...)"] ;
210 -> 211 ;
212 [label="(...)"] ;
210 -> 212 ;
259 [label="WOA_TEMP_K <= 289.557\nmse = 554.571\nsamples = 40\nvalue = 71.694"] ;
207 -> 259 ;
260 [label="WOA_Nitrate <= 1.195\nmse = 3481.0\nsamples = 2\nvalue = 129.0"] ;
259 -> 260 ;
261 [label="(...)"] ;
260 -> 261 ;
262 [label="(...)"] ;
260 -> 262 ;
263 [label="WOA_Nitrate <= 0.407\nmse = 336.512\nsamples = 38\nvalue = 69.717"] ;
259 -> 263 ;
264 [label="(...)"] ;
263 -> 264 ;
285 [label="(...)"] ;
263 -> 285 ;
312 [label="WOA_Salinity <= 36.647\nmse = 2192.423\nsamples = 42\nvalue = 102.733"] ;
74 -> 312 ;
313 [label="WOA_Nitrate <= 5.098\nmse = 1806.069\nsamples = 35\nvalue = 115.013"] ;
312 -> 313 ;
314 [label="WOA_TEMP_K <= 293.949\nmse = 1213.029\nsamples = 34\nvalue = 109.843"] ;
313 -> 314 ;
315 [label="WOA_TEMP_K <= 293.399\nmse = 1167.27\nsamples = 31\nvalue = 113.401"] ;
314 -> 315 ;
316 [label="(...)"] ;
315 -> 316 ;
345 [label="(...)"] ;
315 -> 345 ;
350 [label="WOA_Salinity <= 35.624\nmse = 45.225\nsamples = 3\nvalue = 70.704"] ;
314 -> 350 ;
351 [label="(...)"] ;
350 -> 351 ;
354 [label="(...)"] ;
350 -> 354 ;
355 [label="mse = 0.0\nsamples = 1\nvalue = 239.1"] ;
313 -> 355 ;
356 [label="WOA_TEMP_K <= 293.942\nmse = 147.031\nsamples = 7\nvalue = 46.911"] ;
312 -> 356 ;
357 [label="WOA_TEMP_K <= 293.426\nmse = 66.886\nsamples = 4\nvalue = 57.242"] ;
356 -> 357 ;
358 [label="WOA_Nitrate <= 0.014\nmse = 6.905\nsamples = 2\nvalue = 50.858"] ;
357 -> 358 ;
359 [label="(...)"] ;
358 -> 359 ;
360 [label="(...)"] ;
358 -> 360 ;
361 [label="WOA_Nitrate <= 0.728\nmse = 4.004\nsamples = 2\nvalue = 66.819"] ;
357 -> 361 ;
362 [label="(...)"] ;
361 -> 362 ;
363 [label="(...)"] ;
361 -> 363 ;
364 [label="WOA_Salinity <= 36.738\nmse = 50.756\nsamples = 3\nvalue = 38.302"] ;
356 -> 364 ;
365 [label="mse = 0.0\nsamples = 1\nvalue = 47.811"] ;
364 -> 365 ;
366 [label="WOA_Nitrate <= 0.581\nmse = 8.322\nsamples = 2\nvalue = 33.548"] ;
364 -> 366 ;
367 [label="(...)"] ;
366 -> 367 ;
368 [label="(...)"] ;
366 -> 368 ;
369 [label="WOA_Salinity <= 33.879\nmse = 797.15\nsamples = 200\nvalue = 37.52"] ;
1 -> 369 ;
370 [label="WOA_Salinity <= 33.862\nmse = 741.529\nsamples = 90\nvalue = 47.613"] ;
369 -> 370 ;
371 [label="WOA_Salinity <= 33.458\nmse = 634.562\nsamples = 88\nvalue = 46.473"] ;
370 -> 371 ;
372 [label="WOA_Salinity <= 32.229\nmse = 887.464\nsamples = 42\nvalue = 53.541"] ;
371 -> 372 ;
373 [label="mse = 71.759\nsamples = 4\nvalue = 25.838"] ;
372 -> 373 ;
374 [label="WOA_TEMP_K <= 272.078\nmse = 886.363\nsamples = 38\nvalue = 55.775"] ;
372 -> 374 ;
375 [label="WOA_TEMP_K <= 271.612\nmse = 130.97\nsamples = 7\nvalue = 41.927"] ;
374 -> 375 ;
376 [label="(...)"] ;
375 -> 376 ;
379 [label="(...)"] ;
375 -> 379 ;
384 [label="WOA_TEMP_K <= 274.007\nmse = 987.66\nsamples = 31\nvalue = 58.438"] ;
374 -> 384 ;
385 [label="(...)"] ;
384 -> 385 ;
400 [label="(...)"] ;
384 -> 400 ;
403 [label="WOA_Nitrate <= 18.558\nmse = 275.642\nsamples = 46\nvalue = 39.299"] ;
371 -> 403 ;
404 [label="WOA_Nitrate <= 10.851\nmse = 397.684\nsamples = 3\nvalue = 77.33"] ;
403 -> 404 ;
405 [label="mse = 0.0\nsamples = 1\nvalue = 45.83"] ;
404 -> 405 ;
406 [label="WOA_TEMP_K <= 279.68\nmse = 89.245\nsamples = 2\nvalue = 87.83"] ;
404 -> 406 ;
407 [label="(...)"] ;
406 -> 407 ;
408 [label="(...)"] ;
406 -> 408 ;
409 [label="WOA_Nitrate <= 24.512\nmse = 168.433\nsamples = 43\nvalue = 36.845"] ;
403 -> 409 ;
410 [label="WOA_TEMP_K <= 277.669\nmse = 189.733\nsamples = 19\nvalue = 30.817"] ;
409 -> 410 ;
411 [label="(...)"] ;
410 -> 411 ;
440 [label="(...)"] ;
410 -> 440 ;
445 [label="WOA_TEMP_K <= 274.795\nmse = 107.857\nsamples = 24\nvalue = 41.198"] ;
409 -> 445 ;
446 [label="(...)"] ;
445 -> 446 ;
487 [label="(...)"] ;
445 -> 487 ;
490 [label="WOA_Salinity <= 33.87\nmse = 2030.0\nsamples = 2\nvalue = 123.366"] ;
370 -> 490 ;
491 [label="mse = 0.0\nsamples = 1\nvalue = 168.421"] ;
490 -> 491 ;
492 [label="mse = -0.0\nsamples = 1\nvalue = 78.31"] ;
490 -> 492 ;
493 [label="WOA_TEMP_K <= 287.683\nmse = 682.094\nsamples = 110\nvalue = 28.843"] ;
369 -> 493 ;
494 [label="WOA_Nitrate <= 7.709\nmse = 535.883\nsamples = 107\nvalue = 27.097"] ;
493 -> 494 ;
495 [label="WOA_Nitrate <= 7.679\nmse = 926.507\nsamples = 6\nvalue = 56.646"] ;
494 -> 495 ;
496 [label="WOA_Salinity <= 35.223\nmse = 7.29\nsamples = 2\nvalue = 23.7"] ;
495 -> 496 ;
497 [label="mse = 0.0\nsamples = 1\nvalue = 21.0"] ;
496 -> 497 ;
498 [label="mse = 0.0\nsamples = 1\nvalue = 26.4"] ;
496 -> 498 ;
499 [label="mse = 98.89\nsamples = 4\nvalue = 83.002"] ;
495 -> 499 ;
500 [label="WOA_Nitrate <= 9.034\nmse = 454.08\nsamples = 101\nvalue = 25.263"] ;
494 -> 500 ;
501 [label="WOA_TEMP_K <= 276.749\nmse = 107.488\nsamples = 35\nvalue = 18.592"] ;
500 -> 501 ;
502 [label="mse = 0.0\nsamples = 1\nvalue = 42.0"] ;
501 -> 502 ;
503 [label="WOA_TEMP_K <= 283.62\nmse = 89.373\nsamples = 34\nvalue = 17.674"] ;
501 -> 503 ;
504 [label="(...)"] ;
503 -> 504 ;
521 [label="(...)"] ;
503 -> 521 ;
528 [label="WOA_Nitrate <= 9.102\nmse = 613.346\nsamples = 66\nvalue = 29.106"] ;
500 -> 528 ;
529 [label="mse = 0.541\nsamples = 3\nvalue = 98.288"] ;
528 -> 529 ;
530 [label="WOA_TEMP_K <= 274.137\nmse = 357.688\nsamples = 63\nvalue = 25.13"] ;
528 -> 530 ;
531 [label="(...)"] ;
530 -> 531 ;
550 [label="(...)"] ;
530 -> 550 ;
641 [label="mse = 1.46\nsamples = 3\nvalue = 118.451"] ;
493 -> 641 ;
642 [label="WOA_Salinity <= 35.954\nmse = 3074.38\nsamples = 243\nvalue = 153.221"] ;
0 -> 642 [labeldistance=2.5, labelangle=-45, headlabel="False"] ;
643 [label="WOA_Nitrate <= 0.11\nmse = 2201.445\nsamples = 167\nvalue = 143.597"] ;
642 -> 643 ;
644 [label="WOA_Nitrate <= 0.024\nmse = 2285.609\nsamples = 36\nvalue = 124.253"] ;
643 -> 644 ;
645 [label="WOA_Salinity <= 34.934\nmse = 1687.771\nsamples = 10\nvalue = 154.573"] ;
644 -> 645 ;
646 [label="WOA_Nitrate <= 0.003\nmse = 448.205\nsamples = 4\nvalue = 123.517"] ;
645 -> 646 ;
647 [label="mse = 0.0\nsamples = 1\nvalue = 74.0"] ;
646 -> 647 ;
648 [label="WOA_Salinity <= 34.233\nmse = 46.148\nsamples = 3\nvalue = 131.769"] ;
646 -> 648 ;
649 [label="mse = 0.0\nsamples = 1\nvalue = 146.656"] ;
648 -> 649 ;
650 [label="WOA_TEMP_K <= 298.727\nmse = 2.189\nsamples = 2\nvalue = 128.792"] ;
648 -> 650 ;
651 [label="(...)"] ;
650 -> 651 ;
652 [label="(...)"] ;
650 -> 652 ;
653 [label="WOA_Salinity <= 35.518\nmse = 998.373\nsamples = 6\nvalue = 185.629"] ;
645 -> 653 ;
654 [label="WOA_Salinity <= 35.047\nmse = 405.356\nsamples = 3\nvalue = 165.142"] ;
653 -> 654 ;
655 [label="mse = 0.0\nsamples = 1\nvalue = 200.0"] ;
654 -> 655 ;
656 [label="WOA_TEMP_K <= 296.71\nmse = 0.454\nsamples = 2\nvalue = 153.523"] ;
654 -> 656 ;
657 [label="(...)"] ;
656 -> 657 ;
658 [label="(...)"] ;
656 -> 658 ;
659 [label="WOA_Nitrate <= 0.016\nmse = 483.363\nsamples = 3\nvalue = 212.944"] ;
653 -> 659 ;
660 [label="WOA_TEMP_K <= 299.832\nmse = 0.469\nsamples = 2\nvalue = 228.485"] ;
659 -> 660 ;
661 [label="(...)"] ;
660 -> 661 ;
662 [label="(...)"] ;
660 -> 662 ;
663 [label="mse = 0.0\nsamples = 1\nvalue = 181.862"] ;
659 -> 663 ;
664 [label="WOA_Nitrate <= 0.065\nmse = 2076.319\nsamples = 26\nvalue = 114.147"] ;
644 -> 664 ;
665 [label="WOA_Nitrate <= 0.028\nmse = 692.086\nsamples = 13\nvalue = 91.194"] ;
664 -> 665 ;
666 [label="WOA_TEMP_K <= 301.739\nmse = 258.264\nsamples = 2\nvalue = 56.818"] ;
665 -> 666 ;
667 [label="mse = 0.0\nsamples = 1\nvalue = 45.455"] ;
666 -> 667 ;
668 [label="mse = -0.0\nsamples = 1\nvalue = 79.545"] ;
666 -> 668 ;
669 [label="WOA_Salinity <= 35.385\nmse = 477.57\nsamples = 11\nvalue = 98.56"] ;
665 -> 669 ;
670 [label="WOA_Salinity <= 32.508\nmse = 261.948\nsamples = 8\nvalue = 109.247"] ;
669 -> 670 ;
671 [label="(...)"] ;
670 -> 671 ;
672 [label="(...)"] ;
670 -> 672 ;
683 [label="WOA_Nitrate <= 0.054\nmse = 17.244\nsamples = 3\nvalue = 71.842"] ;
669 -> 683 ;
684 [label="(...)"] ;
683 -> 684 ;
687 [label="(...)"] ;
683 -> 687 ;
688 [label="WOA_TEMP_K <= 301.483\nmse = 2415.747\nsamples = 13\nvalue = 129.754"] ;
664 -> 688 ;
689 [label="WOA_TEMP_K <= 301.011\nmse = 1496.868\nsamples = 11\nvalue = 117.516"] ;
688 -> 689 ;
690 [label="WOA_Salinity <= 35.619\nmse = 828.713\nsamples = 8\nvalue = 133.132"] ;
689 -> 690 ;
691 [label="(...)"] ;
690 -> 691 ;
700 [label="(...)"] ;
690 -> 700 ;
701 [label="WOA_TEMP_K <= 301.203\nmse = 120.171\nsamples = 3\nvalue = 64.419"] ;
689 -> 701 ;
702 [label="(...)"] ;
701 -> 702 ;
703 [label="(...)"] ;
701 -> 703 ;
706 [label="WOA_Nitrate <= 0.07\nmse = 0.489\nsamples = 2\nvalue = 219.506"] ;
688 -> 706 ;
707 [label="mse = 0.0\nsamples = 1\nvalue = 218.517"] ;
706 -> 707 ;
708 [label="mse = 0.0\nsamples = 1\nvalue = 220.0"] ;
706 -> 708 ;
709 [label="WOA_Nitrate <= 0.215\nmse = 2044.706\nsamples = 131\nvalue = 148.986"] ;
643 -> 709 ;
710 [label="WOA_TEMP_K <= 301.997\nmse = 2541.064\nsamples = 60\nvalue = 162.502"] ;
709 -> 710 ;
711 [label="WOA_TEMP_K <= 300.788\nmse = 2412.043\nsamples = 54\nvalue = 158.234"] ;
710 -> 711 ;
712 [label="WOA_Nitrate <= 0.144\nmse = 2229.629\nsamples = 51\nvalue = 161.904"] ;
711 -> 712 ;
713 [label="WOA_Nitrate <= 0.135\nmse = 2851.432\nsamples = 35\nvalue = 170.803"] ;
712 -> 713 ;
714 [label="(...)"] ;
713 -> 714 ;
725 [label="(...)"] ;
713 -> 725 ;
740 [label="WOA_TEMP_K <= 299.437\nmse = 649.692\nsamples = 16\nvalue = 145.332"] ;
712 -> 740 ;
741 [label="(...)"] ;
740 -> 741 ;
770 [label="(...)"] ;
740 -> 770 ;
771 [label="WOA_Nitrate <= 0.163\nmse = 120.375\nsamples = 3\nvalue = 82.094"] ;
711 -> 771 ;
772 [label="mse = 0.0\nsamples = 1\nvalue = 63.212"] ;
771 -> 772 ;
773 [label="WOA_Salinity <= 34.542\nmse = 2.049\nsamples = 2\nvalue = 88.388"] ;
771 -> 773 ;
774 [label="(...)"] ;
773 -> 774 ;
775 [label="(...)"] ;
773 -> 775 ;
776 [label="WOA_Salinity <= 33.554\nmse = 1591.996\nsamples = 6\nvalue = 208.914"] ;
710 -> 776 ;
777 [label="WOA_Salinity <= 33.413\nmse = 364.245\nsamples = 3\nvalue = 227.809"] ;
776 -> 777 ;
778 [label="WOA_TEMP_K <= 302.415\nmse = 266.665\nsamples = 2\nvalue = 220.41"] ;
777 -> 778 ;
779 [label="(...)"] ;
778 -> 779 ;
780 [label="(...)"] ;
778 -> 780 ;
781 [label="mse = 0.0\nsamples = 1\nvalue = 250.007"] ;
777 -> 781 ;
782 [label="WOA_Salinity <= 33.69\nmse = 2105.751\nsamples = 3\nvalue = 190.02"] ;
776 -> 782 ;
783 [label="mse = 0.0\nsamples = 1\nvalue = 119.757"] ;
782 -> 783 ;
784 [label="mse = 613.518\nsamples = 2\nvalue = 213.441"] ;
782 -> 784 ;
785 [label="WOA_Salinity <= 34.606\nmse = 1289.374\nsamples = 71\nvalue = 136.872"] ;
709 -> 785 ;
786 [label="WOA_Salinity <= 34.473\nmse = 1182.082\nsamples = 48\nvalue = 143.382"] ;
785 -> 786 ;
787 [label="WOA_Salinity <= 34.153\nmse = 759.742\nsamples = 42\nvalue = 134.963"] ;
786 -> 787 ;
788 [label="WOA_Salinity <= 32.384\nmse = 681.522\nsamples = 38\nvalue = 137.94"] ;
787 -> 788 ;
789 [label="(...)"] ;
788 -> 789 ;
794 [label="(...)"] ;
788 -> 794 ;
843 [label="WOA_TEMP_K <= 299.663\nmse = 80.837\nsamples = 4\nvalue = 94.773"] ;
787 -> 843 ;
844 [label="(...)"] ;
843 -> 844 ;
849 [label="(...)"] ;
843 -> 849 ;
850 [label="WOA_Nitrate <= 0.375\nmse = 503.091\nsamples = 6\nvalue = 197.64"] ;
786 -> 850 ;
851 [label="WOA_Salinity <= 34.543\nmse = 98.771\nsamples = 5\nvalue = 204.845"] ;
850 -> 851 ;
852 [label="(...)"] ;
851 -> 852 ;
857 [label="(...)"] ;
851 -> 857 ;
858 [label="mse = 0.0\nsamples = 1\nvalue = 140.0"] ;
850 -> 858 ;
859 [label="WOA_TEMP_K <= 297.833\nmse = 1275.804\nsamples = 23\nvalue = 125.688"] ;
785 -> 859 ;
860 [label="WOA_Salinity <= 35.733\nmse = 665.105\nsamples = 10\nvalue = 150.779"] ;
859 -> 860 ;
861 [label="WOA_Salinity <= 35.586\nmse = 507.955\nsamples = 9\nvalue = 154.081"] ;
860 -> 861 ;
862 [label="(...)"] ;
861 -> 862 ;
873 [label="(...)"] ;
861 -> 873 ;
874 [label="mse = 0.0\nsamples = 1\nvalue = 94.643"] ;
860 -> 874 ;
875 [label="WOA_TEMP_K <= 299.505\nmse = 797.07\nsamples = 13\nvalue = 104.181"] ;
859 -> 875 ;
876 [label="WOA_TEMP_K <= 298.554\nmse = 944.694\nsamples = 3\nvalue = 65.37"] ;
875 -> 876 ;
877 [label="(...)"] ;
876 -> 877 ;
878 [label="(...)"] ;
876 -> 878 ;
881 [label="WOA_Salinity <= 35.217\nmse = 324.518\nsamples = 10\nvalue = 113.313"] ;
875 -> 881 ;
882 [label="(...)"] ;
881 -> 882 ;
893 [label="(...)"] ;
881 -> 893 ;
898 [label="WOA_Salinity <= 36.69\nmse = 4320.72\nsamples = 76\nvalue = 173.832"] ;
642 -> 898 ;
899 [label="WOA_Salinity <= 36.45\nmse = 3309.678\nsamples = 65\nvalue = 191.362"] ;
898 -> 899 ;
900 [label="WOA_Salinity <= 36.442\nmse = 3190.696\nsamples = 44\nvalue = 203.253"] ;
899 -> 900 ;
901 [label="WOA_Salinity <= 36.043\nmse = 3043.01\nsamples = 39\nvalue = 191.481"] ;
900 -> 901 ;
902 [label="WOA_Nitrate <= 1.305\nmse = 4273.402\nsamples = 4\nvalue = 253.929"] ;
901 -> 902 ;
903 [label="WOA_Nitrate <= 0.599\nmse = 3721.0\nsamples = 2\nvalue = 213.8"] ;
902 -> 903 ;
904 [label="(...)"] ;
903 -> 904 ;
905 [label="(...)"] ;
903 -> 905 ;
906 [label="WOA_TEMP_K <= 297.54\nmse = 0.109\nsamples = 2\nvalue = 307.433"] ;
902 -> 906 ;
907 [label="(...)"] ;
906 -> 907 ;
908 [label="(...)"] ;
906 -> 908 ;
909 [label="WOA_Nitrate <= 0.025\nmse = 2248.367\nsamples = 35\nvalue = 182.739"] ;
901 -> 909 ;
910 [label="WOA_Salinity <= 36.379\nmse = 1371.429\nsamples = 4\nvalue = 240.0"] ;
909 -> 910 ;
911 [label="(...)"] ;
910 -> 911 ;
912 [label="(...)"] ;
910 -> 912 ;
913 [label="WOA_Nitrate <= 0.545\nmse = 1770.463\nsamples = 31\nvalue = 173.417"] ;
909 -> 913 ;
914 [label="(...)"] ;
913 -> 914 ;
941 [label="(...)"] ;
913 -> 941 ;
946 [label="mse = 107.639\nsamples = 5\nvalue = 259.167"] ;
900 -> 946 ;
947 [label="WOA_Salinity <= 36.647\nmse = 2395.877\nsamples = 21\nvalue = 162.06"] ;
899 -> 947 ;
948 [label="WOA_TEMP_K <= 298.609\nmse = 1865.873\nsamples = 18\nvalue = 146.259"] ;
947 -> 948 ;
949 [label="WOA_TEMP_K <= 295.197\nmse = 1809.949\nsamples = 14\nvalue = 157.757"] ;
948 -> 949 ;
950 [label="WOA_Nitrate <= 0.161\nmse = 2451.148\nsamples = 5\nvalue = 137.462"] ;
949 -> 950 ;
951 [label="(...)"] ;
950 -> 951 ;
952 [label="(...)"] ;
950 -> 952 ;
955 [label="WOA_TEMP_K <= 295.347\nmse = 1112.989\nsamples = 9\nvalue = 168.827"] ;
949 -> 955 ;
956 [label="(...)"] ;
955 -> 956 ;
957 [label="(...)"] ;
955 -> 957 ;
970 [label="WOA_TEMP_K <= 300.573\nmse = 78.029\nsamples = 4\nvalue = 107.163"] ;
948 -> 970 ;
971 [label="WOA_TEMP_K <= 299.502\nmse = 60.728\nsamples = 3\nvalue = 104.45"] ;
970 -> 971 ;
972 [label="(...)"] ;
971 -> 972 ;
973 [label="(...)"] ;
971 -> 973 ;
974 [label="mse = -0.0\nsamples = 1\nvalue = 118.016"] ;
970 -> 974 ;
975 [label="mse = 66.667\nsamples = 3\nvalue = 220.0"] ;
947 -> 975 ;
976 [label="WOA_TEMP_K <= 296.65\nmse = 1822.851\nsamples = 11\nvalue = 99.901"] ;
898 -> 976 ;
977 [label="WOA_TEMP_K <= 295.502\nmse = 34.317\nsamples = 4\nvalue = 62.04"] ;
976 -> 977 ;
978 [label="WOA_Nitrate <= 0.222\nmse = 10.15\nsamples = 3\nvalue = 58.625"] ;
977 -> 978 ;
979 [label="mse = 1.688\nsamples = 2\nvalue = 61.25"] ;
978 -> 979 ;
980 [label="mse = 0.0\nsamples = 1\nvalue = 55.126"] ;
978 -> 980 ;
981 [label="mse = 0.0\nsamples = 1\nvalue = 70.009"] ;
977 -> 981 ;
982 [label="WOA_Salinity <= 36.991\nmse = 1247.84\nsamples = 7\nvalue = 129.024"] ;
976 -> 982 ;
983 [label="WOA_TEMP_K <= 297.341\nmse = 624.879\nsamples = 5\nvalue = 142.486"] ;
982 -> 983 ;
984 [label="WOA_Nitrate <= 0.05\nmse = 24.771\nsamples = 4\nvalue = 150.669"] ;
983 -> 984 ;
985 [label="WOA_Salinity <= 36.851\nmse = 28.783\nsamples = 2\nvalue = 154.245"] ;
984 -> 985 ;
986 [label="(...)"] ;
985 -> 986 ;
987 [label="(...)"] ;
985 -> 987 ;
988 [label="WOA_Salinity <= 36.831\nmse = 3.145\nsamples = 2\nvalue = 147.808"] ;
984 -> 988 ;
989 [label="(...)"] ;
988 -> 989 ;
990 [label="(...)"] ;
988 -> 990 ;
991 [label="mse = 0.0\nsamples = 1\nvalue = 68.844"] ;
983 -> 991 ;
992 [label="WOA_Nitrate <= 0.205\nmse = 706.658\nsamples = 2\nvalue = 84.151"] ;
982 -> 992 ;
993 [label="mse = 0.0\nsamples = 1\nvalue = 65.354"] ;
992 -> 993 ;
994 [label="mse = 0.0\nsamples = 1\nvalue = 121.745"] ;
992 -> 994 ;
}