digraph Tree {
node [shape=box] ;
0 [label="WOA_TEMP_K <= 294.306\nmse = 4741.37\nsamples = 655\nvalue = 97.893"] ;
1 [label="WOA_Nitrate <= 7.569\nmse = 2437.658\nsamples = 400\nvalue = 62.314"] ;
0 -> 1 [labeldistance=2.5, labelangle=45, headlabel="True"] ;
2 [label="WOA_Nitrate <= 7.518\nmse = 2727.26\nsamples = 211\nvalue = 84.34"] ;
1 -> 2 ;
3 [label="WOA_Salinity <= 35.213\nmse = 2185.469\nsamples = 206\nvalue = 80.122"] ;
2 -> 3 ;
4 [label="WOA_MLDpt <= 30.65\nmse = 2387.049\nsamples = 96\nvalue = 100.521"] ;
3 -> 4 ;
5 [label="WOA_Salinity <= 34.943\nmse = 2478.81\nsamples = 60\nvalue = 116.331"] ;
4 -> 5 ;
6 [label="SWrad <= 184.744\nmse = 1582.592\nsamples = 49\nvalue = 108.069"] ;
5 -> 6 ;
7 [label="WOA_Salinity <= 32.779\nmse = 1157.452\nsamples = 27\nvalue = 126.663"] ;
6 -> 7 ;
8 [label="(...)"] ;
7 -> 8 ;
31 [label="(...)"] ;
7 -> 31 ;
56 [label="WOA_Salinity <= 34.919\nmse = 1113.157\nsamples = 22\nvalue = 84.162"] ;
6 -> 56 ;
57 [label="(...)"] ;
56 -> 57 ;
92 [label="(...)"] ;
56 -> 92 ;
95 [label="SWrad <= 162.049\nmse = 4953.011\nsamples = 11\nvalue = 160.394"] ;
5 -> 95 ;
96 [label="SWrad <= 32.563\nmse = 512.154\nsamples = 6\nvalue = 115.059"] ;
95 -> 96 ;
97 [label="(...)"] ;
96 -> 97 ;
98 [label="(...)"] ;
96 -> 98 ;
103 [label="WOA_TEMP_K <= 287.192\nmse = 5466.782\nsamples = 5\nvalue = 200.063"] ;
95 -> 103 ;
104 [label="(...)"] ;
103 -> 104 ;
105 [label="(...)"] ;
103 -> 105 ;
112 [label="WOA_Salinity <= 21.294\nmse = 1276.664\nsamples = 36\nvalue = 76.297"] ;
4 -> 112 ;
113 [label="mse = 94.576\nsamples = 2\nvalue = 17.675"] ;
112 -> 113 ;
114 [label="WOA_Salinity <= 32.254\nmse = 1104.84\nsamples = 34\nvalue = 80.34"] ;
112 -> 114 ;
115 [label="mse = 0.0\nsamples = 2\nvalue = 163.0"] ;
114 -> 115 ;
116 [label="SWrad <= 118.103\nmse = 772.083\nsamples = 32\nvalue = 75.831"] ;
114 -> 116 ;
117 [label="(...)"] ;
116 -> 117 ;
148 [label="(...)"] ;
116 -> 148 ;
171 [label="WOA_TEMP_K <= 289.248\nmse = 1237.003\nsamples = 110\nvalue = 60.945"] ;
3 -> 171 ;
172 [label="WOA_Salinity <= 35.234\nmse = 422.493\nsamples = 40\nvalue = 32.658"] ;
171 -> 172 ;
173 [label="WOA_MLDpt <= 50.35\nmse = 1154.872\nsamples = 4\nvalue = 68.841"] ;
172 -> 173 ;
174 [label="SWrad <= 70.308\nmse = 181.884\nsamples = 3\nvalue = 84.726"] ;
173 -> 174 ;
175 [label="(...)"] ;
174 -> 175 ;
176 [label="(...)"] ;
174 -> 176 ;
177 [label="mse = -0.0\nsamples = 1\nvalue = 5.3"] ;
173 -> 177 ;
178 [label="WOA_Nitrate <= 0.074\nmse = 209.753\nsamples = 36\nvalue = 29.111"] ;
172 -> 178 ;
179 [label="mse = 1.0\nsamples = 2\nvalue = 72.0"] ;
178 -> 179 ;
180 [label="WOA_TEMP_K <= 286.714\nmse = 140.127\nsamples = 34\nvalue = 27.36"] ;
178 -> 180 ;
181 [label="(...)"] ;
180 -> 181 ;
200 [label="(...)"] ;
180 -> 200 ;
219 [label="WOA_MLDpt <= 55.15\nmse = 1040.572\nsamples = 70\nvalue = 75.216"] ;
171 -> 219 ;
220 [label="WOA_TEMP_K <= 289.552\nmse = 637.916\nsamples = 47\nvalue = 62.665"] ;
219 -> 220 ;
221 [label="mse = 0.0\nsamples = 1\nvalue = 188.0"] ;
220 -> 221 ;
222 [label="WOA_Salinity <= 35.888\nmse = 442.118\nsamples = 46\nvalue = 61.059"] ;
220 -> 222 ;
223 [label="(...)"] ;
222 -> 223 ;
264 [label="(...)"] ;
222 -> 264 ;
301 [label="WOA_TEMP_K <= 292.82\nmse = 685.678\nsamples = 23\nvalue = 106.201"] ;
219 -> 301 ;
302 [label="WOA_TEMP_K <= 292.469\nmse = 373.671\nsamples = 17\nvalue = 97.828"] ;
301 -> 302 ;
303 [label="(...)"] ;
302 -> 303 ;
310 [label="(...)"] ;
302 -> 310 ;
321 [label="SWrad <= 175.024\nmse = 845.938\nsamples = 6\nvalue = 127.6"] ;
301 -> 321 ;
322 [label="(...)"] ;
321 -> 322 ;
327 [label="(...)"] ;
321 -> 327 ;
328 [label="SWrad <= 43.332\nmse = 1029.0\nsamples = 5\nvalue = 221.0"] ;
2 -> 328 ;
329 [label="WOA_TEMP_K <= 277.506\nmse = 881.633\nsamples = 4\nvalue = 234.286"] ;
328 -> 329 ;
330 [label="WOA_TEMP_K <= 277.403\nmse = 64.0\nsamples = 3\nvalue = 216.0"] ;
329 -> 330 ;
331 [label="mse = 75.0\nsamples = 2\nvalue = 215.0"] ;
330 -> 331 ;
332 [label="mse = 0.0\nsamples = 1\nvalue = 220.0"] ;
330 -> 332 ;
333 [label="mse = 0.0\nsamples = 1\nvalue = 280.0"] ;
329 -> 333 ;
334 [label="mse = 0.0\nsamples = 1\nvalue = 190.0"] ;
328 -> 334 ;
335 [label="WOA_MLDpt <= 30.3\nmse = 1020.56\nsamples = 189\nvalue = 38.352"] ;
1 -> 335 ;
336 [label="WOA_Nitrate <= 9.248\nmse = 1675.03\nsamples = 39\nvalue = 67.679"] ;
335 -> 336 ;
337 [label="WOA_Salinity <= 34.48\nmse = 286.913\nsamples = 10\nvalue = 105.966"] ;
336 -> 337 ;
338 [label="mse = -0.0\nsamples = 1\nvalue = 134.669"] ;
337 -> 338 ;
339 [label="WOA_Salinity <= 34.961\nmse = 119.138\nsamples = 9\nvalue = 99.343"] ;
337 -> 339 ;
340 [label="mse = 7.107\nsamples = 4\nvalue = 100.44"] ;
339 -> 340 ;
341 [label="mse = 246.799\nsamples = 5\nvalue = 98.062"] ;
339 -> 341 ;
342 [label="WOA_MLDpt <= 28.8\nmse = 1409.357\nsamples = 29\nvalue = 52.364"] ;
336 -> 342 ;
343 [label="WOA_TEMP_K <= 273.961\nmse = 271.772\nsamples = 16\nvalue = 40.72"] ;
342 -> 343 ;
344 [label="WOA_MLDpt <= 13.75\nmse = 83.652\nsamples = 6\nvalue = 28.43"] ;
343 -> 344 ;
345 [label="mse = 0.0\nsamples = 1\nvalue = 36.65"] ;
344 -> 345 ;
346 [label="WOA_Salinity <= 32.898\nmse = 84.455\nsamples = 5\nvalue = 27.06"] ;
344 -> 346 ;
347 [label="(...)"] ;
346 -> 347 ;
348 [label="(...)"] ;
346 -> 348 ;
349 [label="WOA_TEMP_K <= 274.007\nmse = 256.181\nsamples = 10\nvalue = 46.455"] ;
343 -> 349 ;
350 [label="mse = 292.451\nsamples = 4\nvalue = 61.198"] ;
349 -> 350 ;
351 [label="WOA_MLDpt <= 25.4\nmse = 75.036\nsamples = 6\nvalue = 39.084"] ;
349 -> 351 ;
352 [label="(...)"] ;
351 -> 352 ;
359 [label="(...)"] ;
351 -> 359 ;
360 [label="SWrad <= 172.786\nmse = 2431.498\nsamples = 13\nvalue = 66.595"] ;
342 -> 360 ;
361 [label="mse = 0.0\nsamples = 1\nvalue = 50.0"] ;
360 -> 361 ;
362 [label="mse = 2557.374\nsamples = 12\nvalue = 67.571"] ;
360 -> 362 ;
363 [label="WOA_Salinity <= 33.902\nmse = 639.838\nsamples = 150\nvalue = 31.808"] ;
335 -> 363 ;
364 [label="WOA_Salinity <= 33.899\nmse = 802.555\nsamples = 64\nvalue = 42.095"] ;
363 -> 364 ;
365 [label="WOA_Nitrate <= 28.731\nmse = 653.138\nsamples = 63\nvalue = 40.34"] ;
364 -> 365 ;
366 [label="WOA_TEMP_K <= 275.57\nmse = 624.196\nsamples = 60\nvalue = 42.307"] ;
365 -> 366 ;
367 [label="WOA_Salinity <= 32.979\nmse = 470.038\nsamples = 50\nvalue = 39.67"] ;
366 -> 367 ;
368 [label="(...)"] ;
367 -> 368 ;
371 [label="(...)"] ;
367 -> 371 ;
446 [label="WOA_TEMP_K <= 275.848\nmse = 1293.711\nsamples = 10\nvalue = 59.751"] ;
366 -> 446 ;
447 [label="(...)"] ;
446 -> 447 ;
448 [label="(...)"] ;
446 -> 448 ;
465 [label="WOA_Salinity <= 33.873\nmse = 13.827\nsamples = 3\nvalue = 7.889"] ;
365 -> 465 ;
466 [label="mse = 0.0\nsamples = 1\nvalue = 16.202"] ;
465 -> 466 ;
467 [label="mse = 0.011\nsamples = 2\nvalue = 6.227"] ;
465 -> 467 ;
468 [label="mse = -0.0\nsamples = 1\nvalue = 134.211"] ;
364 -> 468 ;
469 [label="WOA_TEMP_K <= 286.095\nmse = 381.89\nsamples = 86\nvalue = 24.165"] ;
363 -> 469 ;
470 [label="WOA_Nitrate <= 8.189\nmse = 278.35\nsamples = 84\nvalue = 22.94"] ;
469 -> 470 ;
471 [label="WOA_TEMP_K <= 281.954\nmse = 788.051\nsamples = 9\nvalue = 40.28"] ;
470 -> 471 ;
472 [label="WOA_Nitrate <= 7.642\nmse = 358.93\nsamples = 4\nvalue = 66.186"] ;
471 -> 472 ;
473 [label="(...)"] ;
472 -> 473 ;
476 [label="(...)"] ;
472 -> 476 ;
479 [label="WOA_Nitrate <= 7.633\nmse = 62.499\nsamples = 5\nvalue = 17.612"] ;
471 -> 479 ;
480 [label="(...)"] ;
479 -> 480 ;
481 [label="(...)"] ;
479 -> 481 ;
486 [label="WOA_Nitrate <= 25.28\nmse = 178.441\nsamples = 75\nvalue = 20.892"] ;
470 -> 486 ;
487 [label="SWrad <= 164.969\nmse = 156.766\nsamples = 71\nvalue = 19.904"] ;
486 -> 487 ;
488 [label="(...)"] ;
487 -> 488 ;
527 [label="(...)"] ;
487 -> 527 ;
580 [label="WOA_TEMP_K <= 273.324\nmse = 102.087\nsamples = 4\nvalue = 45.004"] ;
486 -> 580 ;
581 [label="(...)"] ;
580 -> 581 ;
584 [label="(...)"] ;
580 -> 584 ;
587 [label="WOA_Nitrate <= 9.402\nmse = 58.242\nsamples = 2\nvalue = 111.162"] ;
469 -> 587 ;
588 [label="mse = 0.0\nsamples = 1\nvalue = 103.53"] ;
587 -> 588 ;
589 [label="mse = 0.0\nsamples = 1\nvalue = 118.793"] ;
587 -> 589 ;
590 [label="WOA_Salinity <= 35.694\nmse = 3189.759\nsamples = 255\nvalue = 154.483"] ;
0 -> 590 [labeldistance=2.5, labelangle=-45, headlabel="False"] ;
591 [label="SWrad <= 307.363\nmse = 2592.466\nsamples = 165\nvalue = 144.28"] ;
590 -> 591 ;
592 [label="SWrad <= 209.116\nmse = 2450.551\nsamples = 163\nvalue = 142.201"] ;
591 -> 592 ;
593 [label="WOA_Nitrate <= 0.137\nmse = 2154.277\nsamples = 98\nvalue = 153.721"] ;
592 -> 593 ;
594 [label="WOA_TEMP_K <= 298.913\nmse = 3017.297\nsamples = 24\nvalue = 198.74"] ;
593 -> 594 ;
595 [label="WOA_TEMP_K <= 297.016\nmse = 1803.377\nsamples = 17\nvalue = 173.995"] ;
594 -> 595 ;
596 [label="WOA_MLDpt <= 35.3\nmse = 1284.0\nsamples = 4\nvalue = 229.0"] ;
595 -> 596 ;
597 [label="(...)"] ;
596 -> 597 ;
598 [label="(...)"] ;
596 -> 598 ;
599 [label="WOA_Salinity <= 34.249\nmse = 934.341\nsamples = 13\nvalue = 159.52"] ;
595 -> 599 ;
600 [label="(...)"] ;
599 -> 600 ;
605 [label="(...)"] ;
599 -> 605 ;
612 [label="mse = 1415.289\nsamples = 7\nvalue = 252.727"] ;
594 -> 612 ;
613 [label="WOA_TEMP_K <= 299.182\nmse = 1158.458\nsamples = 74\nvalue = 140.806"] ;
593 -> 613 ;
614 [label="WOA_MLDpt <= 50.3\nmse = 954.643\nsamples = 69\nvalue = 136.481"] ;
613 -> 614 ;
615 [label="WOA_Salinity <= 35.056\nmse = 632.372\nsamples = 58\nvalue = 142.727"] ;
614 -> 615 ;
616 [label="(...)"] ;
615 -> 616 ;
693 [label="(...)"] ;
615 -> 693 ;
694 [label="WOA_Salinity <= 34.603\nmse = 1401.086\nsamples = 11\nvalue = 105.579"] ;
614 -> 694 ;
695 [label="(...)"] ;
694 -> 695 ;
706 [label="(...)"] ;
694 -> 706 ;
707 [label="WOA_Nitrate <= 0.426\nmse = 534.352\nsamples = 5\nvalue = 195.104"] ;
613 -> 707 ;
708 [label="WOA_TEMP_K <= 299.391\nmse = 174.149\nsamples = 4\nvalue = 201.992"] ;
707 -> 708 ;
709 [label="(...)"] ;
708 -> 709 ;
710 [label="(...)"] ;
708 -> 710 ;
715 [label="mse = 0.0\nsamples = 1\nvalue = 140.0"] ;
707 -> 715 ;
716 [label="SWrad <= 299.964\nmse = 2380.259\nsamples = 65\nvalue = 124.115"] ;
592 -> 716 ;
717 [label="WOA_MLDpt <= 36.15\nmse = 2163.933\nsamples = 62\nvalue = 127.597"] ;
716 -> 717 ;
718 [label="WOA_TEMP_K <= 301.987\nmse = 2176.849\nsamples = 34\nvalue = 146.03"] ;
717 -> 718 ;
719 [label="WOA_TEMP_K <= 300.628\nmse = 1691.038\nsamples = 28\nvalue = 136.347"] ;
718 -> 719 ;
720 [label="(...)"] ;
719 -> 720 ;
757 [label="(...)"] ;
719 -> 757 ;
774 [label="SWrad <= 232.459\nmse = 1575.411\nsamples = 6\nvalue = 198.075"] ;
718 -> 774 ;
775 [label="(...)"] ;
774 -> 775 ;
778 [label="(...)"] ;
774 -> 778 ;
783 [label="WOA_Nitrate <= 0.025\nmse = 1327.807\nsamples = 28\nvalue = 106.707"] ;
717 -> 783 ;
784 [label="WOA_Nitrate <= 0.013\nmse = 2002.943\nsamples = 4\nvalue = 153.164"] ;
783 -> 784 ;
785 [label="(...)"] ;
784 -> 785 ;
788 [label="(...)"] ;
784 -> 788 ;
791 [label="WOA_Salinity <= 34.028\nmse = 939.91\nsamples = 24\nvalue = 100.899"] ;
783 -> 791 ;
792 [label="(...)"] ;
791 -> 792 ;
793 [label="(...)"] ;
791 -> 793 ;
836 [label="WOA_MLDpt <= 24.65\nmse = 297.999\nsamples = 3\nvalue = 40.55"] ;
716 -> 836 ;
837 [label="mse = 0.0\nsamples = 1\nvalue = 68.421"] ;
836 -> 837 ;
838 [label="WOA_MLDpt <= 25.25\nmse = 52.095\nsamples = 2\nvalue = 31.26"] ;
836 -> 838 ;
839 [label="mse = 0.0\nsamples = 1\nvalue = 21.053"] ;
838 -> 839 ;
840 [label="mse = 0.0\nsamples = 1\nvalue = 36.364"] ;
838 -> 840 ;
841 [label="mse = 555.556\nsamples = 2\nvalue = 233.333"] ;
591 -> 841 ;
842 [label="WOA_Salinity <= 36.527\nmse = 3748.892\nsamples = 90\nvalue = 173.65"] ;
590 -> 842 ;
843 [label="WOA_MLDpt <= 30.9\nmse = 3482.514\nsamples = 61\nvalue = 188.024"] ;
842 -> 843 ;
844 [label="WOA_Salinity <= 35.919\nmse = 2772.222\nsamples = 31\nvalue = 168.874"] ;
843 -> 844 ;
845 [label="WOA_TEMP_K <= 297.62\nmse = 97.164\nsamples = 2\nvalue = 74.929"] ;
844 -> 845 ;
846 [label="mse = 0.0\nsamples = 1\nvalue = 70.0"] ;
845 -> 846 ;
847 [label="mse = -0.0\nsamples = 1\nvalue = 94.643"] ;
845 -> 847 ;
848 [label="WOA_Nitrate <= 0.165\nmse = 2035.76\nsamples = 29\nvalue = 178.66"] ;
844 -> 848 ;
849 [label="SWrad <= 273.519\nmse = 1292.339\nsamples = 21\nvalue = 168.528"] ;
848 -> 849 ;
850 [label="WOA_TEMP_K <= 300.736\nmse = 1129.514\nsamples = 16\nvalue = 176.596"] ;
849 -> 850 ;
851 [label="(...)"] ;
850 -> 851 ;
860 [label="(...)"] ;
850 -> 860 ;
861 [label="WOA_Nitrate <= 0.029\nmse = 641.88\nsamples = 5\nvalue = 136.257"] ;
849 -> 861 ;
862 [label="(...)"] ;
861 -> 862 ;
863 [label="(...)"] ;
861 -> 863 ;
868 [label="WOA_Nitrate <= 0.194\nmse = 3016.778\nsamples = 8\nvalue = 205.938"] ;
848 -> 868 ;
869 [label="WOA_Salinity <= 36.427\nmse = 66.667\nsamples = 3\nvalue = 290.0"] ;
868 -> 869 ;
870 [label="(...)"] ;
869 -> 870 ;
871 [label="(...)"] ;
869 -> 871 ;
872 [label="WOA_Salinity <= 35.975\nmse = 1145.938\nsamples = 5\nvalue = 180.72"] ;
868 -> 872 ;
873 [label="(...)"] ;
872 -> 873 ;
874 [label="(...)"] ;
872 -> 874 ;
879 [label="WOA_MLDpt <= 58.4\nmse = 3434.67\nsamples = 30\nvalue = 208.322"] ;
843 -> 879 ;
880 [label="WOA_Nitrate <= 2.304\nmse = 2700.392\nsamples = 20\nvalue = 233.325"] ;
879 -> 880 ;
881 [label="SWrad <= 242.408\nmse = 2611.79\nsamples = 18\nvalue = 227.09"] ;
880 -> 881 ;
882 [label="WOA_TEMP_K <= 298.726\nmse = 1620.079\nsamples = 16\nvalue = 236.732"] ;
881 -> 882 ;
883 [label="(...)"] ;
882 -> 883 ;
886 [label="(...)"] ;
882 -> 886 ;
891 [label="WOA_TEMP_K <= 299.389\nmse = 6.885\nsamples = 2\nvalue = 111.376"] ;
881 -> 891 ;
892 [label="(...)"] ;
891 -> 892 ;
893 [label="(...)"] ;
891 -> 893 ;
894 [label="WOA_Salinity <= 35.827\nmse = 210.809\nsamples = 2\nvalue = 287.367"] ;
880 -> 894 ;
895 [label="mse = 0.0\nsamples = 1\nvalue = 277.1"] ;
894 -> 895 ;
896 [label="mse = 0.0\nsamples = 1\nvalue = 307.9"] ;
894 -> 896 ;
897 [label="SWrad <= 294.146\nmse = 2393.244\nsamples = 10\nvalue = 173.795"] ;
879 -> 897 ;
898 [label="WOA_Nitrate <= 1.449\nmse = 1532.268\nsamples = 8\nvalue = 193.32"] ;
897 -> 898 ;
899 [label="WOA_Salinity <= 36.496\nmse = 405.846\nsamples = 6\nvalue = 175.885"] ;
898 -> 899 ;
900 [label="(...)"] ;
899 -> 900 ;
907 [label="(...)"] ;
899 -> 907 ;
908 [label="WOA_Salinity <= 35.859\nmse = 1263.827\nsamples = 2\nvalue = 245.625"] ;
898 -> 908 ;
909 [label="(...)"] ;
908 -> 909 ;
910 [label="(...)"] ;
908 -> 910 ;
911 [label="WOA_Nitrate <= 0.223\nmse = 24.487\nsamples = 2\nvalue = 111.314"] ;
897 -> 911 ;
912 [label="mse = 0.0\nsamples = 1\nvalue = 105.253"] ;
911 -> 912 ;
913 [label="mse = -0.0\nsamples = 1\nvalue = 115.354"] ;
911 -> 913 ;
914 [label="WOA_MLDpt <= 28.6\nmse = 2314.187\nsamples = 29\nvalue = 133.636"] ;
842 -> 914 ;
915 [label="WOA_TEMP_K <= 294.452\nmse = 1477.858\nsamples = 11\nvalue = 165.007"] ;
914 -> 915 ;
916 [label="WOA_Salinity <= 36.647\nmse = 800.0\nsamples = 7\nvalue = 190.0"] ;
915 -> 916 ;
917 [label="mse = 376.0\nsamples = 4\nvalue = 172.0"] ;
916 -> 917 ;
918 [label="mse = 66.667\nsamples = 3\nvalue = 220.0"] ;
916 -> 918 ;
919 [label="WOA_Salinity <= 36.552\nmse = 438.335\nsamples = 4\nvalue = 131.683"] ;
915 -> 919 ;
920 [label="WOA_Salinity <= 36.532\nmse = 75.0\nsamples = 2\nvalue = 145.0"] ;
919 -> 920 ;
921 [label="mse = 0.0\nsamples = 1\nvalue = 140.0"] ;
920 -> 921 ;
922 [label="mse = 0.0\nsamples = 1\nvalue = 160.0"] ;
920 -> 922 ;
923 [label="WOA_MLDpt <= 17.1\nmse = 101.002\nsamples = 2\nvalue = 105.05"] ;
919 -> 923 ;
924 [label="mse = 0.0\nsamples = 1\nvalue = 115.1"] ;
923 -> 924 ;
925 [label="mse = 0.0\nsamples = 1\nvalue = 95.0"] ;
923 -> 925 ;
926 [label="WOA_MLDpt <= 56.3\nmse = 1859.587\nsamples = 18\nvalue = 114.541"] ;
914 -> 926 ;
927 [label="WOA_MLDpt <= 54.3\nmse = 156.872\nsamples = 5\nvalue = 68.454"] ;
926 -> 927 ;
928 [label="WOA_Salinity <= 36.802\nmse = 22.006\nsamples = 4\nvalue = 63.19"] ;
927 -> 928 ;
929 [label="WOA_TEMP_K <= 295.01\nmse = 9.45\nsamples = 2\nvalue = 58.2"] ;
928 -> 929 ;
930 [label="(...)"] ;
929 -> 930 ;
931 [label="(...)"] ;
929 -> 931 ;
932 [label="SWrad <= 207.796\nmse = 2.706\nsamples = 2\nvalue = 66.517"] ;
928 -> 932 ;
933 [label="(...)"] ;
932 -> 933 ;
934 [label="(...)"] ;
932 -> 934 ;
935 [label="mse = 0.0\nsamples = 1\nvalue = 94.772"] ;
927 -> 935 ;
936 [label="WOA_Nitrate <= 0.258\nmse = 1446.308\nsamples = 13\nvalue = 130.807"] ;
926 -> 936 ;
937 [label="WOA_Salinity <= 36.559\nmse = 2121.899\nsamples = 7\nvalue = 141.99"] ;
936 -> 937 ;
938 [label="WOA_Nitrate <= 0.157\nmse = 2544.734\nsamples = 3\nvalue = 120.94"] ;
937 -> 938 ;
939 [label="(...)"] ;
938 -> 939 ;
940 [label="(...)"] ;
938 -> 940 ;
941 [label="WOA_TEMP_K <= 296.068\nmse = 812.859\nsamples = 4\nvalue = 163.04"] ;
937 -> 941 ;
942 [label="(...)"] ;
941 -> 942 ;
943 [label="(...)"] ;
941 -> 943 ;
948 [label="WOA_Nitrate <= 0.378\nmse = 47.292\nsamples = 6\nvalue = 114.831"] ;
936 -> 948 ;
949 [label="SWrad <= 291.836\nmse = 9.508\nsamples = 3\nvalue = 121.41"] ;
948 -> 949 ;
950 [label="(...)"] ;
949 -> 950 ;
953 [label="(...)"] ;
949 -> 953 ;
954 [label="WOA_MLDpt <= 83.6\nmse = 18.819\nsamples = 3\nvalue = 109.897"] ;
948 -> 954 ;
955 [label="(...)"] ;
954 -> 955 ;
958 [label="(...)"] ;
954 -> 958 ;
}