digraph Tree {
node [shape=box] ;
0 [label="WOA_TEMP_K <= 294.271\nmse = 4789.431\nsamples = 666\nvalue = 97.088"] ;
1 [label="WOA_TEMP_K <= 288.092\nmse = 2556.581\nsamples = 416\nvalue = 64.346"] ;
0 -> 1 [labeldistance=2.5, labelangle=45, headlabel="True"] ;
2 [label="Depth_GEBCO <= -81.5\nmse = 1950.35\nsamples = 286\nvalue = 49.517"] ;
1 -> 2 ;
3 [label="WOA_Salinity <= 33.637\nmse = 1475.737\nsamples = 204\nvalue = 37.881"] ;
2 -> 3 ;
4 [label="SWrad <= 68.403\nmse = 5080.584\nsamples = 24\nvalue = 70.678"] ;
3 -> 4 ;
5 [label="WOA_TEMP_K <= 277.497\nmse = 1088.889\nsamples = 2\nvalue = 256.667"] ;
4 -> 5 ;
6 [label="mse = 0.0\nsamples = 1\nvalue = 210.0"] ;
5 -> 6 ;
7 [label="mse = 0.0\nsamples = 1\nvalue = 280.0"] ;
5 -> 7 ;
8 [label="WOA_Salinity <= 33.547\nmse = 137.328\nsamples = 22\nvalue = 44.727"] ;
4 -> 8 ;
9 [label="WOA_Salinity <= 32.697\nmse = 134.473\nsamples = 17\nvalue = 47.764"] ;
8 -> 9 ;
10 [label="WOA_TEMP_K <= 281.765\nmse = 85.0\nsamples = 3\nvalue = 36.0"] ;
9 -> 10 ;
11 [label="(...)"] ;
10 -> 11 ;
14 [label="(...)"] ;
10 -> 14 ;
15 [label="WOA_Salinity <= 32.821\nmse = 107.877\nsamples = 14\nvalue = 50.379"] ;
9 -> 15 ;
16 [label="(...)"] ;
15 -> 16 ;
17 [label="(...)"] ;
15 -> 17 ;
36 [label="Depth_GEBCO <= -3221.0\nmse = 15.803\nsamples = 5\nvalue = 34.702"] ;
8 -> 36 ;
37 [label="mse = 0.0\nsamples = 1\nvalue = 27.51"] ;
36 -> 37 ;
38 [label="WOA_Salinity <= 33.617\nmse = 3.589\nsamples = 4\nvalue = 36.5"] ;
36 -> 38 ;
39 [label="(...)"] ;
38 -> 39 ;
44 [label="(...)"] ;
38 -> 44 ;
45 [label="WOA_Salinity <= 35.128\nmse = 642.254\nsamples = 180\nvalue = 32.262"] ;
3 -> 45 ;
46 [label="WOA_Salinity <= 34.388\nmse = 916.395\nsamples = 105\nvalue = 38.393"] ;
45 -> 46 ;
47 [label="WOA_Salinity <= 33.879\nmse = 848.558\nsamples = 81\nvalue = 33.044"] ;
46 -> 47 ;
48 [label="WOA_Salinity <= 33.862\nmse = 1323.388\nsamples = 30\nvalue = 45.403"] ;
47 -> 48 ;
49 [label="(...)"] ;
48 -> 49 ;
102 [label="(...)"] ;
48 -> 102 ;
107 [label="SWrad <= 166.975\nmse = 365.752\nsamples = 51\nvalue = 24.857"] ;
47 -> 107 ;
108 [label="(...)"] ;
107 -> 108 ;
135 [label="(...)"] ;
107 -> 135 ;
204 [label="WOA_Salinity <= 34.768\nmse = 652.28\nsamples = 24\nvalue = 58.72"] ;
46 -> 204 ;
205 [label="WOA_Salinity <= 34.714\nmse = 574.1\nsamples = 12\nvalue = 71.546"] ;
204 -> 205 ;
206 [label="(...)"] ;
205 -> 206 ;
223 [label="(...)"] ;
205 -> 223 ;
226 [label="WOA_TEMP_K <= 282.673\nmse = 376.468\nsamples = 12\nvalue = 45.14"] ;
204 -> 226 ;
227 [label="(...)"] ;
226 -> 227 ;
236 [label="(...)"] ;
226 -> 236 ;
249 [label="WOA_TEMP_K <= 287.483\nmse = 122.211\nsamples = 75\nvalue = 23.532"] ;
45 -> 249 ;
250 [label="Depth_GEBCO <= -131.5\nmse = 85.184\nsamples = 71\nvalue = 22.019"] ;
249 -> 250 ;
251 [label="WOA_TEMP_K <= 283.696\nmse = 60.797\nsamples = 63\nvalue = 20.316"] ;
250 -> 251 ;
252 [label="(...)"] ;
251 -> 252 ;
291 [label="(...)"] ;
251 -> 291 ;
310 [label="Depth_GEBCO <= -127.5\nmse = 96.244\nsamples = 8\nvalue = 33.693"] ;
250 -> 310 ;
311 [label="(...)"] ;
310 -> 311 ;
314 [label="(...)"] ;
310 -> 314 ;
321 [label="WOA_Salinity <= 35.642\nmse = 166.919\nsamples = 4\nvalue = 44.339"] ;
249 -> 321 ;
322 [label="Depth_GEBCO <= -4546.5\nmse = 6.967\nsamples = 2\nvalue = 35.698"] ;
321 -> 322 ;
323 [label="(...)"] ;
322 -> 323 ;
324 [label="(...)"] ;
322 -> 324 ;
325 [label="WOA_Salinity <= 36.834\nmse = 101.672\nsamples = 2\nvalue = 58.74"] ;
321 -> 325 ;
326 [label="(...)"] ;
325 -> 326 ;
327 [label="(...)"] ;
325 -> 327 ;
328 [label="WOA_TEMP_K <= 277.555\nmse = 1932.457\nsamples = 82\nvalue = 79.272"] ;
2 -> 328 ;
329 [label="Depth_GEBCO <= -76.0\nmse = 1763.497\nsamples = 38\nvalue = 50.018"] ;
328 -> 329 ;
330 [label="mse = 0.0\nsamples = 1\nvalue = 180.0"] ;
329 -> 330 ;
331 [label="WOA_TEMP_K <= 274.062\nmse = 1201.521\nsamples = 37\nvalue = 45.375"] ;
329 -> 331 ;
332 [label="SWrad <= 198.166\nmse = 1204.575\nsamples = 33\nvalue = 48.489"] ;
331 -> 332 ;
333 [label="WOA_TEMP_K <= 272.122\nmse = 1615.408\nsamples = 14\nvalue = 59.047"] ;
332 -> 333 ;
334 [label="(...)"] ;
333 -> 334 ;
341 [label="(...)"] ;
333 -> 341 ;
344 [label="WOA_Salinity <= 32.407\nmse = 652.224\nsamples = 19\nvalue = 39.104"] ;
332 -> 344 ;
345 [label="(...)"] ;
344 -> 345 ;
346 [label="(...)"] ;
344 -> 346 ;
355 [label="WOA_Salinity <= 23.166\nmse = 63.097\nsamples = 4\nvalue = 13.62"] ;
331 -> 355 ;
356 [label="mse = 65.176\nsamples = 3\nvalue = 15.275"] ;
355 -> 356 ;
357 [label="mse = 0.0\nsamples = 1\nvalue = 7.0"] ;
355 -> 357 ;
358 [label="WOA_Salinity <= 32.627\nmse = 846.508\nsamples = 44\nvalue = 102.515"] ;
328 -> 358 ;
359 [label="Depth_GEBCO <= -11.0\nmse = 202.667\nsamples = 4\nvalue = 175.0"] ;
358 -> 359 ;
360 [label="mse = 0.0\nsamples = 1\nvalue = 195.0"] ;
359 -> 360 ;
361 [label="WOA_TEMP_K <= 278.408\nmse = 4.0\nsamples = 3\nvalue = 165.0"] ;
359 -> 361 ;
362 [label="mse = 0.0\nsamples = 1\nvalue = 167.0"] ;
361 -> 362 ;
363 [label="mse = 0.0\nsamples = 2\nvalue = 163.0"] ;
361 -> 363 ;
364 [label="WOA_TEMP_K <= 287.982\nmse = 391.513\nsamples = 40\nvalue = 96.024"] ;
358 -> 364 ;
365 [label="WOA_Salinity <= 33.881\nmse = 328.09\nsamples = 39\nvalue = 97.937"] ;
364 -> 365 ;
366 [label="WOA_Salinity <= 33.76\nmse = 80.872\nsamples = 4\nvalue = 120.092"] ;
365 -> 366 ;
367 [label="(...)"] ;
366 -> 367 ;
372 [label="(...)"] ;
366 -> 372 ;
373 [label="SWrad <= 27.518\nmse = 283.268\nsamples = 35\nvalue = 94.772"] ;
365 -> 373 ;
374 [label="(...)"] ;
373 -> 374 ;
375 [label="(...)"] ;
373 -> 375 ;
422 [label="mse = -0.0\nsamples = 1\nvalue = 55.202"] ;
364 -> 422 ;
423 [label="Depth_GEBCO <= -1591.0\nmse = 2337.032\nsamples = 130\nvalue = 97.099"] ;
1 -> 423 ;
424 [label="WOA_TEMP_K <= 292.051\nmse = 1311.151\nsamples = 70\nvalue = 73.745"] ;
423 -> 424 ;
425 [label="WOA_Salinity <= 35.291\nmse = 563.891\nsamples = 38\nvalue = 62.391"] ;
424 -> 425 ;
426 [label="WOA_Salinity <= 34.754\nmse = 497.187\nsamples = 6\nvalue = 33.314"] ;
425 -> 426 ;
427 [label="SWrad <= 180.159\nmse = 24.875\nsamples = 2\nvalue = 66.947"] ;
426 -> 427 ;
428 [label="mse = 0.0\nsamples = 1\nvalue = 74.0"] ;
427 -> 428 ;
429 [label="mse = 0.0\nsamples = 1\nvalue = 63.42"] ;
427 -> 429 ;
430 [label="WOA_TEMP_K <= 292.007\nmse = 7.048\nsamples = 4\nvalue = 18.9"] ;
426 -> 430 ;
431 [label="WOA_Salinity <= 35.052\nmse = 1.662\nsamples = 3\nvalue = 17.368"] ;
430 -> 431 ;
432 [label="(...)"] ;
431 -> 432 ;
433 [label="(...)"] ;
431 -> 433 ;
434 [label="mse = 0.0\nsamples = 1\nvalue = 22.727"] ;
430 -> 434 ;
435 [label="SWrad <= 137.594\nmse = 386.853\nsamples = 32\nvalue = 67.877"] ;
425 -> 435 ;
436 [label="WOA_TEMP_K <= 288.362\nmse = 260.263\nsamples = 7\nvalue = 50.745"] ;
435 -> 436 ;
437 [label="mse = 0.0\nsamples = 1\nvalue = 79.947"] ;
436 -> 437 ;
438 [label="WOA_Salinity <= 35.65\nmse = 86.486\nsamples = 6\nvalue = 44.256"] ;
436 -> 438 ;
439 [label="(...)"] ;
438 -> 439 ;
440 [label="(...)"] ;
438 -> 440 ;
449 [label="Depth_GEBCO <= -2579.5\nmse = 323.006\nsamples = 25\nvalue = 72.364"] ;
435 -> 449 ;
450 [label="Depth_GEBCO <= -5197.0\nmse = 277.024\nsamples = 24\nvalue = 71.232"] ;
449 -> 450 ;
451 [label="(...)"] ;
450 -> 451 ;
452 [label="(...)"] ;
450 -> 452 ;
485 [label="mse = -0.0\nsamples = 1\nvalue = 118.793"] ;
449 -> 485 ;
486 [label="WOA_Salinity <= 36.685\nmse = 1857.08\nsamples = 32\nvalue = 86.992"] ;
424 -> 486 ;
487 [label="Depth_GEBCO <= -4619.0\nmse = 1925.314\nsamples = 23\nvalue = 102.226"] ;
486 -> 487 ;
488 [label="Depth_GEBCO <= -4860.0\nmse = 5738.715\nsamples = 4\nvalue = 147.586"] ;
487 -> 488 ;
489 [label="WOA_Salinity <= 35.792\nmse = 259.147\nsamples = 3\nvalue = 86.576"] ;
488 -> 489 ;
490 [label="(...)"] ;
489 -> 490 ;
493 [label="(...)"] ;
489 -> 493 ;
494 [label="mse = 0.0\nsamples = 1\nvalue = 239.1"] ;
488 -> 494 ;
495 [label="WOA_Salinity <= 36.515\nmse = 957.759\nsamples = 19\nvalue = 95.139"] ;
487 -> 495 ;
496 [label="WOA_Salinity <= 34.812\nmse = 728.467\nsamples = 13\nvalue = 85.976"] ;
495 -> 496 ;
497 [label="(...)"] ;
496 -> 497 ;
502 [label="(...)"] ;
496 -> 502 ;
519 [label="WOA_Salinity <= 36.624\nmse = 780.831\nsamples = 6\nvalue = 118.556"] ;
495 -> 519 ;
520 [label="(...)"] ;
519 -> 520 ;
525 [label="(...)"] ;
519 -> 525 ;
530 [label="WOA_TEMP_K <= 292.644\nmse = 103.918\nsamples = 9\nvalue = 53.833"] ;
486 -> 530 ;
531 [label="mse = 92.806\nsamples = 3\nvalue = 60.567"] ;
530 -> 531 ;
532 [label="Depth_GEBCO <= -4422.5\nmse = 71.757\nsamples = 6\nvalue = 50.16"] ;
530 -> 532 ;
533 [label="WOA_Salinity <= 36.784\nmse = 26.235\nsamples = 2\nvalue = 59.696"] ;
532 -> 533 ;
534 [label="(...)"] ;
533 -> 534 ;
535 [label="(...)"] ;
533 -> 535 ;
536 [label="WOA_Salinity <= 36.738\nmse = 16.113\nsamples = 4\nvalue = 44.711"] ;
532 -> 536 ;
537 [label="(...)"] ;
536 -> 537 ;
538 [label="(...)"] ;
536 -> 538 ;
541 [label="WOA_Salinity <= 32.513\nmse = 2090.126\nsamples = 60\nvalue = 126.167"] ;
423 -> 541 ;
542 [label="WOA_TEMP_K <= 289.338\nmse = 2545.91\nsamples = 17\nvalue = 152.15"] ;
541 -> 542 ;
543 [label="SWrad <= 178.386\nmse = 355.556\nsamples = 2\nvalue = 253.333"] ;
542 -> 543 ;
544 [label="mse = 0.0\nsamples = 1\nvalue = 240.0"] ;
543 -> 544 ;
545 [label="mse = 0.0\nsamples = 1\nvalue = 280.0"] ;
543 -> 545 ;
546 [label="SWrad <= 184.69\nmse = 1432.757\nsamples = 15\nvalue = 140.008"] ;
542 -> 546 ;
547 [label="Depth_GEBCO <= -4.5\nmse = 929.387\nsamples = 13\nvalue = 147.096"] ;
546 -> 547 ;
548 [label="WOA_TEMP_K <= 290.688\nmse = 349.197\nsamples = 11\nvalue = 158.526"] ;
547 -> 548 ;
549 [label="(...)"] ;
548 -> 549 ;
556 [label="(...)"] ;
548 -> 556 ;
567 [label="WOA_Salinity <= 30.853\nmse = 116.64\nsamples = 2\nvalue = 92.8"] ;
547 -> 567 ;
568 [label="(...)"] ;
567 -> 568 ;
569 [label="(...)"] ;
567 -> 569 ;
570 [label="Depth_GEBCO <= -70.5\nmse = 0.25\nsamples = 2\nvalue = 58.5"] ;
546 -> 570 ;
571 [label="mse = 0.0\nsamples = 1\nvalue = 59.0"] ;
570 -> 571 ;
572 [label="mse = 0.0\nsamples = 1\nvalue = 58.0"] ;
570 -> 572 ;
573 [label="WOA_TEMP_K <= 288.169\nmse = 1488.835\nsamples = 43\nvalue = 115.144"] ;
541 -> 573 ;
574 [label="mse = 0.0\nsamples = 1\nvalue = 220.0"] ;
573 -> 574 ;
575 [label="Depth_GEBCO <= -931.5\nmse = 1181.035\nsamples = 42\nvalue = 111.867"] ;
573 -> 575 ;
576 [label="mse = 0.0\nsamples = 1\nvalue = 230.6"] ;
575 -> 576 ;
577 [label="SWrad <= 256.456\nmse = 972.459\nsamples = 41\nvalue = 109.982"] ;
575 -> 577 ;
578 [label="SWrad <= 113.095\nmse = 775.831\nsamples = 40\nvalue = 108.146"] ;
577 -> 578 ;
579 [label="(...)"] ;
578 -> 579 ;
588 [label="(...)"] ;
578 -> 588 ;
639 [label="mse = -0.0\nsamples = 1\nvalue = 223.8"] ;
577 -> 639 ;
640 [label="Depth_GEBCO <= -26.0\nmse = 3282.809\nsamples = 250\nvalue = 157.487"] ;
0 -> 640 [labeldistance=2.5, labelangle=-45, headlabel="False"] ;
641 [label="Depth_GEBCO <= -5584.0\nmse = 2843.662\nsamples = 202\nvalue = 147.14"] ;
640 -> 641 ;
642 [label="SWrad <= 253.804\nmse = 1200.043\nsamples = 10\nvalue = 86.561"] ;
641 -> 642 ;
643 [label="WOA_TEMP_K <= 296.392\nmse = 1031.583\nsamples = 6\nvalue = 104.691"] ;
642 -> 643 ;
644 [label="WOA_TEMP_K <= 295.375\nmse = 267.997\nsamples = 3\nvalue = 90.711"] ;
643 -> 644 ;
645 [label="mse = 0.0\nsamples = 1\nvalue = 126.98"] ;
644 -> 645 ;
646 [label="SWrad <= 187.462\nmse = 56.889\nsamples = 2\nvalue = 84.667"] ;
644 -> 646 ;
647 [label="mse = 0.0\nsamples = 1\nvalue = 90.0"] ;
646 -> 647 ;
648 [label="mse = 0.0\nsamples = 1\nvalue = 74.0"] ;
646 -> 648 ;
649 [label="SWrad <= 236.602\nmse = 1293.385\nsamples = 3\nvalue = 137.308"] ;
643 -> 649 ;
650 [label="mse = 0.0\nsamples = 1\nvalue = 187.38"] ;
649 -> 650 ;
651 [label="WOA_Salinity <= 34.74\nmse = 59.711\nsamples = 2\nvalue = 112.273"] ;
649 -> 651 ;
652 [label="mse = 0.0\nsamples = 1\nvalue = 104.545"] ;
651 -> 652 ;
653 [label="mse = 0.0\nsamples = 1\nvalue = 120.0"] ;
651 -> 653 ;
654 [label="SWrad <= 296.702\nmse = 300.381\nsamples = 4\nvalue = 60.662"] ;
642 -> 654 ;
655 [label="WOA_TEMP_K <= 299.298\nmse = 45.385\nsamples = 3\nvalue = 67.263"] ;
654 -> 655 ;
656 [label="mse = 0.0\nsamples = 1\nvalue = 60.526"] ;
655 -> 656 ;
657 [label="mse = 0.0\nsamples = 2\nvalue = 74.0"] ;
655 -> 657 ;
658 [label="mse = 0.0\nsamples = 1\nvalue = 21.053"] ;
654 -> 658 ;
659 [label="SWrad <= 308.631\nmse = 2702.693\nsamples = 192\nvalue = 150.926"] ;
641 -> 659 ;
660 [label="WOA_Salinity <= 36.847\nmse = 2573.535\nsamples = 190\nvalue = 149.886"] ;
659 -> 660 ;
661 [label="WOA_Salinity <= 35.614\nmse = 2504.356\nsamples = 183\nvalue = 152.347"] ;
660 -> 661 ;
662 [label="WOA_TEMP_K <= 300.641\nmse = 1780.525\nsamples = 120\nvalue = 144.848"] ;
661 -> 662 ;
663 [label="Depth_GEBCO <= -4543.5\nmse = 1331.396\nsamples = 93\nvalue = 148.54"] ;
662 -> 663 ;
664 [label="(...)"] ;
663 -> 664 ;
685 [label="(...)"] ;
663 -> 685 ;
816 [label="WOA_Salinity <= 33.797\nmse = 3178.957\nsamples = 27\nvalue = 131.477"] ;
662 -> 816 ;
817 [label="(...)"] ;
816 -> 817 ;
826 [label="(...)"] ;
816 -> 826 ;
869 [label="Depth_GEBCO <= -261.5\nmse = 3599.32\nsamples = 63\nvalue = 167.085"] ;
661 -> 869 ;
870 [label="WOA_Salinity <= 35.749\nmse = 2778.89\nsamples = 51\nvalue = 152.019"] ;
869 -> 870 ;
871 [label="(...)"] ;
870 -> 871 ;
878 [label="(...)"] ;
870 -> 878 ;
957 [label="WOA_TEMP_K <= 298.73\nmse = 2194.475\nsamples = 12\nvalue = 229.121"] ;
869 -> 957 ;
958 [label="(...)"] ;
957 -> 958 ;
967 [label="(...)"] ;
957 -> 967 ;
974 [label="SWrad <= 186.985\nmse = 1130.546\nsamples = 7\nvalue = 96.97"] ;
660 -> 974 ;
975 [label="Depth_GEBCO <= -4603.0\nmse = 107.779\nsamples = 2\nvalue = 141.539"] ;
974 -> 975 ;
976 [label="mse = 0.0\nsamples = 1\nvalue = 148.88"] ;
975 -> 976 ;
977 [label="mse = 0.0\nsamples = 1\nvalue = 126.857"] ;
975 -> 977 ;
978 [label="SWrad <= 243.11\nmse = 588.605\nsamples = 5\nvalue = 82.113"] ;
974 -> 978 ;
979 [label="Depth_GEBCO <= -3481.0\nmse = 10.777\nsamples = 3\nvalue = 65.458"] ;
978 -> 979 ;
980 [label="(...)"] ;
979 -> 980 ;
983 [label="(...)"] ;
979 -> 983 ;
984 [label="Depth_GEBCO <= -3882.5\nmse = 79.935\nsamples = 2\nvalue = 115.423"] ;
978 -> 984 ;
985 [label="(...)"] ;
984 -> 985 ;
986 [label="(...)"] ;
984 -> 986 ;
987 [label="WOA_Salinity <= 35.961\nmse = 273.902\nsamples = 2\nvalue = 291.35"] ;
659 -> 987 ;
988 [label="mse = 0.0\nsamples = 1\nvalue = 307.9"] ;
987 -> 988 ;
989 [label="mse = -0.0\nsamples = 1\nvalue = 274.8"] ;
987 -> 989 ;
990 [label="WOA_Salinity <= 33.374\nmse = 3043.449\nsamples = 48\nvalue = 195.824"] ;
640 -> 990 ;
991 [label="WOA_TEMP_K <= 299.882\nmse = 82.442\nsamples = 4\nvalue = 125.478"] ;
990 -> 991 ;
992 [label="WOA_Salinity <= 22.87\nmse = 39.268\nsamples = 3\nvalue = 129.329"] ;
991 -> 992 ;
993 [label="mse = 0.0\nsamples = 1\nvalue = 120.0"] ;
992 -> 993 ;
994 [label="WOA_Salinity <= 28.016\nmse = 6.242\nsamples = 2\nvalue = 133.06"] ;
992 -> 994 ;
995 [label="mse = 0.0\nsamples = 1\nvalue = 130.0"] ;
994 -> 995 ;
996 [label="mse = 0.0\nsamples = 1\nvalue = 135.1"] ;
994 -> 996 ;
997 [label="mse = 0.0\nsamples = 1\nvalue = 112.0"] ;
991 -> 997 ;
998 [label="Depth_GEBCO <= -13.5\nmse = 2700.0\nsamples = 44\nvalue = 205.0"] ;
990 -> 998 ;
999 [label="SWrad <= 162.731\nmse = 2457.191\nsamples = 32\nvalue = 192.453"] ;
998 -> 999 ;
1000 [label="WOA_TEMP_K <= 298.762\nmse = 874.691\nsamples = 8\nvalue = 134.444"] ;
999 -> 1000 ;
1001 [label="WOA_TEMP_K <= 295.872\nmse = 640.234\nsamples = 7\nvalue = 140.625"] ;
1000 -> 1001 ;
1002 [label="mse = 0.0\nsamples = 1\nvalue = 90.0"] ;
1001 -> 1002 ;
1003 [label="Depth_GEBCO <= -24.0\nmse = 313.265\nsamples = 6\nvalue = 147.857"] ;
1001 -> 1003 ;
1004 [label="(...)"] ;
1003 -> 1004 ;
1005 [label="(...)"] ;
1003 -> 1005 ;
1010 [label="mse = 0.0\nsamples = 1\nvalue = 85.0"] ;
1000 -> 1010 ;
1011 [label="WOA_TEMP_K <= 300.478\nmse = 1951.808\nsamples = 24\nvalue = 204.318"] ;
999 -> 1011 ;
1012 [label="WOA_TEMP_K <= 297.926\nmse = 1859.172\nsamples = 20\nvalue = 208.462"] ;
1011 -> 1012 ;
1013 [label="mse = 0.0\nsamples = 2\nvalue = 170.0"] ;
1012 -> 1013 ;
1014 [label="Depth_GEBCO <= -19.5\nmse = 1880.556\nsamples = 18\nvalue = 211.667"] ;
1012 -> 1014 ;
1015 [label="(...)"] ;
1014 -> 1015 ;
1022 [label="(...)"] ;
1014 -> 1022 ;
1023 [label="mse = 1496.0\nsamples = 4\nvalue = 172.0"] ;
1011 -> 1023 ;
1024 [label="WOA_TEMP_K <= 300.303\nmse = 1255.371\nsamples = 12\nvalue = 246.562"] ;
998 -> 1024 ;
1025 [label="WOA_TEMP_K <= 299.102\nmse = 1184.889\nsamples = 11\nvalue = 249.667"] ;
1024 -> 1025 ;
1026 [label="SWrad <= 168.241\nmse = 1168.595\nsamples = 8\nvalue = 241.364"] ;
1025 -> 1026 ;
1027 [label="WOA_Salinity <= 35.203\nmse = 929.688\nsamples = 4\nvalue = 251.25"] ;
1026 -> 1027 ;
1028 [label="(...)"] ;
1027 -> 1028 ;
1029 [label="(...)"] ;
1027 -> 1029 ;
1030 [label="WOA_Salinity <= 35.624\nmse = 1217.347\nsamples = 4\nvalue = 235.714"] ;
1026 -> 1030 ;
1031 [label="(...)"] ;
1030 -> 1031 ;
1032 [label="(...)"] ;
1030 -> 1032 ;
1033 [label="Depth_GEBCO <= -9.0\nmse = 518.75\nsamples = 3\nvalue = 272.5"] ;
1025 -> 1033 ;
1034 [label="mse = 0.0\nsamples = 1\nvalue = 250.0"] ;
1033 -> 1034 ;
1035 [label="Depth_GEBCO <= -5.0\nmse = 25.0\nsamples = 2\nvalue = 295.0"] ;
1033 -> 1035 ;
1036 [label="(...)"] ;
1035 -> 1036 ;
1037 [label="(...)"] ;
1035 -> 1037 ;
1038 [label="mse = 0.0\nsamples = 1\nvalue = 200.0"] ;
1024 -> 1038 ;
}