digraph Tree {
node [shape=box] ;
0 [label="WOA_TEMP_K <= 294.36\nmse = 4442.804\nsamples = 648\nvalue = 93.787"] ;
1 [label="WOA_Nitrate <= 7.549\nmse = 2391.755\nsamples = 418\nvalue = 63.245"] ;
0 -> 1 [labeldistance=2.5, labelangle=45, headlabel="True"] ;
2 [label="WOA_Nitrate <= 7.518\nmse = 2590.186\nsamples = 219\nvalue = 85.99"] ;
1 -> 2 ;
3 [label="WOA_Salinity <= 35.267\nmse = 2235.971\nsamples = 214\nvalue = 82.984"] ;
2 -> 3 ;
4 [label="WOA_Salinity <= 20.994\nmse = 2412.188\nsamples = 103\nvalue = 96.421"] ;
3 -> 4 ;
5 [label="WOA_Nitrate <= 0.197\nmse = 777.498\nsamples = 8\nvalue = 52.906"] ;
4 -> 5 ;
6 [label="mse = 0.0\nsamples = 1\nvalue = 138.0"] ;
5 -> 6 ;
7 [label="WOA_TEMP_K <= 279.627\nmse = 314.42\nsamples = 7\nvalue = 47.233"] ;
5 -> 7 ;
8 [label="mse = 17.28\nsamples = 2\nvalue = 20.2"] ;
7 -> 8 ;
9 [label="WOA_TEMP_K <= 290.448\nmse = 60.09\nsamples = 5\nvalue = 57.064"] ;
7 -> 9 ;
10 [label="(...)"] ;
9 -> 10 ;
13 [label="(...)"] ;
9 -> 13 ;
16 [label="WOA_Salinity <= 31.449\nmse = 2367.372\nsamples = 95\nvalue = 100.772"] ;
4 -> 16 ;
17 [label="WOA_Salinity <= 29.732\nmse = 142.472\nsamples = 6\nvalue = 159.833"] ;
16 -> 17 ;
18 [label="WOA_Nitrate <= 1.525\nmse = 22.222\nsamples = 2\nvalue = 141.333"] ;
17 -> 18 ;
19 [label="(...)"] ;
18 -> 19 ;
20 [label="(...)"] ;
18 -> 20 ;
21 [label="WOA_Salinity <= 31.09\nmse = 30.444\nsamples = 4\nvalue = 166.0"] ;
17 -> 21 ;
22 [label="(...)"] ;
21 -> 22 ;
27 [label="(...)"] ;
21 -> 27 ;
28 [label="WOA_Salinity <= 35.258\nmse = 2242.007\nsamples = 89\nvalue = 95.983"] ;
16 -> 28 ;
29 [label="WOA_TEMP_K <= 278.33\nmse = 2116.975\nsamples = 88\nvalue = 95.01"] ;
28 -> 29 ;
30 [label="(...)"] ;
29 -> 30 ;
31 [label="(...)"] ;
29 -> 31 ;
184 [label="mse = -0.0\nsamples = 1\nvalue = 239.1"] ;
28 -> 184 ;
185 [label="WOA_TEMP_K <= 289.253\nmse = 1722.139\nsamples = 111\nvalue = 69.99"] ;
3 -> 185 ;
186 [label="WOA_Nitrate <= 0.074\nmse = 206.206\nsamples = 34\nvalue = 32.319"] ;
185 -> 186 ;
187 [label="mse = 0.75\nsamples = 2\nvalue = 71.5"] ;
186 -> 187 ;
188 [label="WOA_TEMP_K <= 287.596\nmse = 94.841\nsamples = 32\nvalue = 29.306"] ;
186 -> 188 ;
189 [label="WOA_Salinity <= 35.315\nmse = 55.602\nsamples = 25\nvalue = 25.963"] ;
188 -> 189 ;
190 [label="(...)"] ;
189 -> 190 ;
201 [label="(...)"] ;
189 -> 201 ;
214 [label="WOA_Salinity <= 35.622\nmse = 64.205\nsamples = 7\nvalue = 40.449"] ;
188 -> 214 ;
215 [label="(...)"] ;
214 -> 215 ;
216 [label="(...)"] ;
214 -> 216 ;
227 [label="WOA_TEMP_K <= 292.333\nmse = 1484.861\nsamples = 77\nvalue = 86.733"] ;
185 -> 227 ;
228 [label="WOA_TEMP_K <= 289.499\nmse = 603.963\nsamples = 35\nvalue = 68.736"] ;
227 -> 228 ;
229 [label="mse = 0.0\nsamples = 1\nvalue = 188.0"] ;
228 -> 229 ;
230 [label="WOA_Nitrate <= 3.388\nmse = 346.867\nsamples = 34\nvalue = 66.528"] ;
228 -> 230 ;
231 [label="(...)"] ;
230 -> 231 ;
270 [label="(...)"] ;
230 -> 270 ;
275 [label="WOA_Salinity <= 36.647\nmse = 1722.009\nsamples = 42\nvalue = 100.674"] ;
227 -> 275 ;
276 [label="WOA_Nitrate <= 3.334\nmse = 1362.498\nsamples = 35\nvalue = 110.664"] ;
275 -> 276 ;
277 [label="(...)"] ;
276 -> 277 ;
322 [label="(...)"] ;
276 -> 322 ;
329 [label="WOA_Salinity <= 36.689\nmse = 169.521\nsamples = 7\nvalue = 46.184"] ;
275 -> 329 ;
330 [label="(...)"] ;
329 -> 330 ;
331 [label="(...)"] ;
329 -> 331 ;
340 [label="WOA_TEMP_K <= 277.637\nmse = 2024.691\nsamples = 5\nvalue = 205.556"] ;
2 -> 340 ;
341 [label="WOA_TEMP_K <= 277.497\nmse = 2136.0\nsamples = 3\nvalue = 228.0"] ;
340 -> 341 ;
342 [label="mse = 0.0\nsamples = 1\nvalue = 210.0"] ;
341 -> 342 ;
343 [label="mse = 3200.0\nsamples = 2\nvalue = 240.0"] ;
341 -> 343 ;
344 [label="mse = 468.75\nsamples = 2\nvalue = 177.5"] ;
340 -> 344 ;
345 [label="WOA_TEMP_K <= 287.9\nmse = 923.839\nsamples = 199\nvalue = 37.561"] ;
1 -> 345 ;
346 [label="WOA_Salinity <= 35.23\nmse = 816.118\nsamples = 195\nvalue = 36.196"] ;
345 -> 346 ;
347 [label="WOA_Nitrate <= 18.593\nmse = 901.693\nsamples = 146\nvalue = 42.665"] ;
346 -> 347 ;
348 [label="WOA_Nitrate <= 18.134\nmse = 1463.786\nsamples = 59\nvalue = 54.047"] ;
347 -> 348 ;
349 [label="WOA_Nitrate <= 12.268\nmse = 1249.09\nsamples = 53\nvalue = 49.726"] ;
348 -> 349 ;
350 [label="WOA_Nitrate <= 11.586\nmse = 1574.284\nsamples = 34\nvalue = 58.465"] ;
349 -> 350 ;
351 [label="(...)"] ;
350 -> 351 ;
390 [label="(...)"] ;
350 -> 390 ;
391 [label="WOA_Salinity <= 32.644\nmse = 360.557\nsamples = 19\nvalue = 35.065"] ;
349 -> 391 ;
392 [label="(...)"] ;
391 -> 392 ;
393 [label="(...)"] ;
391 -> 393 ;
416 [label="WOA_TEMP_K <= 276.489\nmse = 1926.041\nsamples = 6\nvalue = 83.939"] ;
348 -> 416 ;
417 [label="mse = 2239.83\nsamples = 5\nvalue = 80.489"] ;
416 -> 417 ;
418 [label="mse = 0.0\nsamples = 1\nvalue = 101.19"] ;
416 -> 418 ;
419 [label="WOA_Salinity <= 33.864\nmse = 385.028\nsamples = 87\nvalue = 35.103"] ;
347 -> 419 ;
420 [label="WOA_Salinity <= 33.857\nmse = 365.181\nsamples = 57\nvalue = 42.487"] ;
419 -> 420 ;
421 [label="WOA_Salinity <= 33.498\nmse = 191.064\nsamples = 56\nvalue = 41.087"] ;
420 -> 421 ;
422 [label="(...)"] ;
421 -> 422 ;
439 [label="(...)"] ;
421 -> 439 ;
506 [label="mse = -0.0\nsamples = 1\nvalue = 168.421"] ;
420 -> 506 ;
507 [label="WOA_TEMP_K <= 274.097\nmse = 157.429\nsamples = 30\nvalue = 22.183"] ;
419 -> 507 ;
508 [label="WOA_Nitrate <= 29.486\nmse = 94.653\nsamples = 11\nvalue = 31.06"] ;
507 -> 508 ;
509 [label="(...)"] ;
508 -> 509 ;
528 [label="(...)"] ;
508 -> 528 ;
529 [label="WOA_TEMP_K <= 275.332\nmse = 103.298\nsamples = 19\nvalue = 15.673"] ;
507 -> 529 ;
530 [label="(...)"] ;
529 -> 530 ;
549 [label="(...)"] ;
529 -> 549 ;
562 [label="WOA_Nitrate <= 9.258\nmse = 93.722\nsamples = 49\nvalue = 17.42"] ;
346 -> 562 ;
563 [label="WOA_Salinity <= 35.339\nmse = 77.958\nsamples = 46\nvalue = 16.274"] ;
562 -> 563 ;
564 [label="WOA_Nitrate <= 8.013\nmse = 59.832\nsamples = 27\nvalue = 18.628"] ;
563 -> 564 ;
565 [label="mse = 0.0\nsamples = 1\nvalue = 26.4"] ;
564 -> 565 ;
566 [label="WOA_Nitrate <= 8.59\nmse = 59.498\nsamples = 26\nvalue = 18.086"] ;
564 -> 566 ;
567 [label="(...)"] ;
566 -> 567 ;
576 [label="(...)"] ;
566 -> 576 ;
577 [label="WOA_Nitrate <= 8.869\nmse = 84.425\nsamples = 19\nvalue = 12.781"] ;
563 -> 577 ;
578 [label="WOA_Nitrate <= 8.648\nmse = 38.391\nsamples = 4\nvalue = 3.578"] ;
577 -> 578 ;
579 [label="(...)"] ;
578 -> 579 ;
580 [label="(...)"] ;
578 -> 580 ;
583 [label="WOA_TEMP_K <= 283.748\nmse = 54.437\nsamples = 15\nvalue = 16.545"] ;
577 -> 583 ;
584 [label="(...)"] ;
583 -> 584 ;
593 [label="(...)"] ;
583 -> 593 ;
596 [label="WOA_TEMP_K <= 283.232\nmse = 5.102\nsamples = 3\nvalue = 35.06"] ;
562 -> 596 ;
597 [label="WOA_Salinity <= 35.269\nmse = 0.642\nsamples = 2\nvalue = 36.833"] ;
596 -> 597 ;
598 [label="mse = 0.0\nsamples = 1\nvalue = 37.4"] ;
597 -> 598 ;
599 [label="mse = 0.0\nsamples = 1\nvalue = 35.7"] ;
597 -> 599 ;
600 [label="mse = 0.0\nsamples = 1\nvalue = 32.4"] ;
596 -> 600 ;
601 [label="WOA_Nitrate <= 9.569\nmse = 63.998\nsamples = 4\nvalue = 124.938"] ;
345 -> 601 ;
602 [label="mse = 0.0\nsamples = 1\nvalue = 134.669"] ;
601 -> 602 ;
603 [label="mse = 1.46\nsamples = 3\nvalue = 118.451"] ;
601 -> 603 ;
604 [label="WOA_Nitrate <= 0.044\nmse = 3035.939\nsamples = 230\nvalue = 153.831"] ;
0 -> 604 [labeldistance=2.5, labelangle=-45, headlabel="False"] ;
605 [label="WOA_Salinity <= 34.934\nmse = 4065.998\nsamples = 48\nvalue = 180.847"] ;
604 -> 605 ;
606 [label="WOA_Nitrate <= 0.003\nmse = 633.921\nsamples = 7\nvalue = 112.728"] ;
605 -> 606 ;
607 [label="mse = 0.0\nsamples = 2\nvalue = 74.0"] ;
606 -> 607 ;
608 [label="WOA_TEMP_K <= 302.569\nmse = 400.739\nsamples = 5\nvalue = 120.474"] ;
606 -> 608 ;
609 [label="WOA_TEMP_K <= 301.794\nmse = 260.792\nsamples = 4\nvalue = 124.769"] ;
608 -> 609 ;
610 [label="WOA_Salinity <= 34.87\nmse = 9.099\nsamples = 2\nvalue = 130.674"] ;
609 -> 610 ;
611 [label="mse = 0.0\nsamples = 1\nvalue = 133.137"] ;
610 -> 611 ;
612 [label="mse = 0.0\nsamples = 1\nvalue = 126.98"] ;
610 -> 612 ;
613 [label="WOA_TEMP_K <= 302.128\nmse = 477.311\nsamples = 2\nvalue = 117.386"] ;
609 -> 613 ;
614 [label="mse = 0.0\nsamples = 1\nvalue = 79.545"] ;
613 -> 614 ;
615 [label="mse = 0.0\nsamples = 1\nvalue = 130.0"] ;
613 -> 615 ;
616 [label="mse = -0.0\nsamples = 1\nvalue = 81.818"] ;
608 -> 616 ;
617 [label="WOA_Salinity <= 36.467\nmse = 3676.345\nsamples = 41\nvalue = 193.619"] ;
605 -> 617 ;
618 [label="WOA_Salinity <= 36.358\nmse = 3437.867\nsamples = 38\nvalue = 201.001"] ;
617 -> 618 ;
619 [label="WOA_TEMP_K <= 297.492\nmse = 3246.502\nsamples = 18\nvalue = 172.234"] ;
618 -> 619 ;
620 [label="WOA_Nitrate <= 0.014\nmse = 925.072\nsamples = 2\nvalue = 259.585"] ;
619 -> 620 ;
621 [label="mse = 0.0\nsamples = 1\nvalue = 229.17"] ;
620 -> 621 ;
622 [label="mse = 0.0\nsamples = 1\nvalue = 290.0"] ;
620 -> 622 ;
623 [label="WOA_TEMP_K <= 301.91\nmse = 2029.016\nsamples = 16\nvalue = 156.351"] ;
619 -> 623 ;
624 [label="WOA_TEMP_K <= 298.811\nmse = 1652.834\nsamples = 14\nvalue = 149.097"] ;
623 -> 624 ;
625 [label="(...)"] ;
624 -> 625 ;
634 [label="(...)"] ;
624 -> 634 ;
643 [label="mse = 1.21\nsamples = 2\nvalue = 228.9"] ;
623 -> 643 ;
644 [label="WOA_TEMP_K <= 300.503\nmse = 2374.609\nsamples = 20\nvalue = 224.375"] ;
618 -> 644 ;
645 [label="WOA_Salinity <= 36.379\nmse = 1663.039\nsamples = 13\nvalue = 241.905"] ;
644 -> 645 ;
646 [label="mse = 1543.21\nsamples = 5\nvalue = 221.111"] ;
645 -> 646 ;
647 [label="WOA_TEMP_K <= 298.726\nmse = 1185.417\nsamples = 8\nvalue = 257.5"] ;
645 -> 647 ;
648 [label="(...)"] ;
647 -> 648 ;
649 [label="(...)"] ;
647 -> 649 ;
652 [label="WOA_Salinity <= 36.416\nmse = 2026.446\nsamples = 7\nvalue = 190.909"] ;
644 -> 652 ;
653 [label="mse = 184.0\nsamples = 3\nvalue = 216.0"] ;
652 -> 653 ;
654 [label="WOA_Salinity <= 36.427\nmse = 2600.0\nsamples = 4\nvalue = 170.0"] ;
652 -> 654 ;
655 [label="(...)"] ;
654 -> 655 ;
656 [label="(...)"] ;
654 -> 656 ;
657 [label="WOA_Salinity <= 36.711\nmse = 362.717\nsamples = 3\nvalue = 122.26"] ;
617 -> 657 ;
658 [label="WOA_Nitrate <= 0.031\nmse = 12.607\nsamples = 2\nvalue = 108.95"] ;
657 -> 658 ;
659 [label="mse = -0.0\nsamples = 1\nvalue = 106.9"] ;
658 -> 659 ;
660 [label="mse = -0.0\nsamples = 1\nvalue = 115.1"] ;
658 -> 660 ;
661 [label="mse = 0.0\nsamples = 1\nvalue = 148.88"] ;
657 -> 661 ;
662 [label="WOA_Nitrate <= 0.069\nmse = 2495.973\nsamples = 182\nvalue = 146.391"] ;
604 -> 662 ;
663 [label="WOA_Salinity <= 36.693\nmse = 916.415\nsamples = 18\nvalue = 102.503"] ;
662 -> 663 ;
664 [label="WOA_Salinity <= 36.491\nmse = 767.684\nsamples = 16\nvalue = 109.213"] ;
663 -> 664 ;
665 [label="WOA_Salinity <= 33.708\nmse = 627.523\nsamples = 14\nvalue = 103.595"] ;
664 -> 665 ;
666 [label="WOA_TEMP_K <= 297.47\nmse = 282.649\nsamples = 4\nvalue = 120.763"] ;
665 -> 666 ;
667 [label="mse = 0.275\nsamples = 2\nvalue = 135.745"] ;
666 -> 667 ;
668 [label="WOA_Salinity <= 32.508\nmse = 116.061\nsamples = 2\nvalue = 105.78"] ;
666 -> 668 ;
669 [label="(...)"] ;
668 -> 669 ;
670 [label="(...)"] ;
668 -> 670 ;
671 [label="WOA_Salinity <= 35.14\nmse = 529.953\nsamples = 10\nvalue = 92.15"] ;
665 -> 671 ;
672 [label="WOA_TEMP_K <= 300.842\nmse = 84.107\nsamples = 3\nvalue = 67.515"] ;
671 -> 672 ;
673 [label="(...)"] ;
672 -> 673 ;
674 [label="(...)"] ;
672 -> 674 ;
675 [label="WOA_Nitrate <= 0.046\nmse = 408.856\nsamples = 7\nvalue = 100.361"] ;
671 -> 675 ;
676 [label="(...)"] ;
675 -> 676 ;
677 [label="(...)"] ;
675 -> 677 ;
688 [label="WOA_Salinity <= 36.532\nmse = 88.889\nsamples = 2\nvalue = 146.667"] ;
664 -> 688 ;
689 [label="mse = 0.0\nsamples = 1\nvalue = 140.0"] ;
688 -> 689 ;
690 [label="mse = 0.0\nsamples = 1\nvalue = 160.0"] ;
688 -> 690 ;
691 [label="WOA_Salinity <= 37.523\nmse = 24.224\nsamples = 2\nvalue = 63.922"] ;
663 -> 691 ;
692 [label="mse = 0.0\nsamples = 1\nvalue = 68.844"] ;
691 -> 692 ;
693 [label="mse = 0.0\nsamples = 1\nvalue = 59.0"] ;
691 -> 693 ;
694 [label="WOA_Nitrate <= 0.255\nmse = 2435.741\nsamples = 164\nvalue = 151.15"] ;
662 -> 694 ;
695 [label="WOA_Salinity <= 35.699\nmse = 2672.327\nsamples = 95\nvalue = 163.302"] ;
694 -> 695 ;
696 [label="WOA_Salinity <= 34.611\nmse = 2148.833\nsamples = 64\nvalue = 155.165"] ;
695 -> 696 ;
697 [label="WOA_Nitrate <= 0.137\nmse = 2430.742\nsamples = 48\nvalue = 161.945"] ;
696 -> 697 ;
698 [label="WOA_TEMP_K <= 297.47\nmse = 2919.229\nsamples = 15\nvalue = 183.315"] ;
697 -> 698 ;
699 [label="(...)"] ;
698 -> 699 ;
702 [label="(...)"] ;
698 -> 702 ;
717 [label="WOA_TEMP_K <= 299.106\nmse = 1858.252\nsamples = 33\nvalue = 151.478"] ;
697 -> 717 ;
718 [label="(...)"] ;
717 -> 718 ;
751 [label="(...)"] ;
717 -> 751 ;
762 [label="WOA_TEMP_K <= 300.757\nmse = 726.276\nsamples = 16\nvalue = 134.543"] ;
696 -> 762 ;
763 [label="WOA_TEMP_K <= 296.211\nmse = 420.707\nsamples = 13\nvalue = 141.331"] ;
762 -> 763 ;
764 [label="(...)"] ;
763 -> 764 ;
769 [label="(...)"] ;
763 -> 769 ;
786 [label="WOA_Nitrate <= 0.178\nmse = 285.296\nsamples = 3\nvalue = 87.03"] ;
762 -> 786 ;
787 [label="(...)"] ;
786 -> 787 ;
788 [label="(...)"] ;
786 -> 788 ;
791 [label="WOA_Nitrate <= 0.215\nmse = 3350.371\nsamples = 31\nvalue = 180.842"] ;
695 -> 791 ;
792 [label="WOA_TEMP_K <= 299.783\nmse = 2627.411\nsamples = 29\nvalue = 172.879"] ;
791 -> 792 ;
793 [label="WOA_Salinity <= 36.672\nmse = 1594.603\nsamples = 26\nvalue = 163.708"] ;
792 -> 793 ;
794 [label="(...)"] ;
793 -> 794 ;
823 [label="(...)"] ;
793 -> 823 ;
828 [label="WOA_Salinity <= 36.429\nmse = 4050.0\nsamples = 3\nvalue = 260.0"] ;
792 -> 828 ;
829 [label="(...)"] ;
828 -> 829 ;
830 [label="(...)"] ;
828 -> 830 ;
831 [label="WOA_Salinity <= 35.994\nmse = 153.709\nsamples = 2\nvalue = 292.333"] ;
791 -> 831 ;
832 [label="mse = 0.0\nsamples = 1\nvalue = 274.8"] ;
831 -> 832 ;
833 [label="mse = 0.0\nsamples = 1\nvalue = 301.1"] ;
831 -> 833 ;
834 [label="WOA_TEMP_K <= 301.554\nmse = 1665.702\nsamples = 69\nvalue = 135.023"] ;
694 -> 834 ;
835 [label="WOA_Salinity <= 34.611\nmse = 1489.187\nsamples = 68\nvalue = 133.683"] ;
834 -> 835 ;
836 [label="WOA_Salinity <= 34.434\nmse = 1349.177\nsamples = 33\nvalue = 144.696"] ;
835 -> 836 ;
837 [label="WOA_Salinity <= 34.061\nmse = 918.366\nsamples = 30\nvalue = 136.728"] ;
836 -> 837 ;
838 [label="(...)"] ;
837 -> 838 ;
881 [label="(...)"] ;
837 -> 881 ;
886 [label="WOA_Salinity <= 34.488\nmse = 1.996\nsamples = 3\nvalue = 211.09"] ;
836 -> 886 ;
887 [label="(...)"] ;
886 -> 887 ;
888 [label="(...)"] ;
886 -> 888 ;
889 [label="WOA_TEMP_K <= 298.858\nmse = 1358.026\nsamples = 35\nvalue = 121.348"] ;
835 -> 889 ;
890 [label="WOA_Nitrate <= 3.259\nmse = 1371.781\nsamples = 20\nvalue = 133.217"] ;
889 -> 890 ;
891 [label="(...)"] ;
890 -> 891 ;
924 [label="(...)"] ;
890 -> 924 ;
927 [label="WOA_TEMP_K <= 299.505\nmse = 875.899\nsamples = 15\nvalue = 104.959"] ;
889 -> 927 ;
928 [label="(...)"] ;
927 -> 928 ;
933 [label="(...)"] ;
927 -> 933 ;
956 [label="mse = -0.0\nsamples = 1\nvalue = 277.1"] ;
834 -> 956 ;
}