digraph Tree {
node [shape=box] ;
0 [label="WOA_TEMP_K <= 290.774\nmse = 5796.88\nsamples = 648\nvalue = 99.708"] ;
1 [label="WOA_TEMP_K <= 287.487\nmse = 2306.857\nsamples = 324\nvalue = 51.71"] ;
0 -> 1 [labeldistance=2.5, labelangle=45, headlabel="True"] ;
2 [label="WOA_Nitrate <= 7.549\nmse = 1547.093\nsamples = 257\nvalue = 42.069"] ;
1 -> 2 ;
3 [label="WOA_TEMP_K <= 281.39\nmse = 2657.052\nsamples = 80\nvalue = 60.656"] ;
2 -> 3 ;
4 [label="WOA_TEMP_K <= 277.518\nmse = 2603.025\nsamples = 23\nvalue = 116.118"] ;
3 -> 4 ;
5 [label="WOA_TEMP_K <= 277.415\nmse = 6236.727\nsamples = 3\nvalue = 52.3"] ;
4 -> 5 ;
6 [label="mse = 0.0\nsamples = 1\nvalue = 210.0"] ;
5 -> 6 ;
7 [label="mse = 24.256\nsamples = 2\nvalue = 12.875"] ;
5 -> 7 ;
8 [label="WOA_TEMP_K <= 278.928\nmse = 1341.876\nsamples = 20\nvalue = 125.788"] ;
4 -> 8 ;
9 [label="WOA_TEMP_K <= 278.731\nmse = 155.062\nsamples = 6\nvalue = 175.778"] ;
8 -> 9 ;
10 [label="WOA_TEMP_K <= 277.637\nmse = 110.139\nsamples = 5\nvalue = 182.167"] ;
9 -> 10 ;
11 [label="(...)"] ;
10 -> 11 ;
12 [label="(...)"] ;
10 -> 12 ;
17 [label="mse = 0.0\nsamples = 1\nvalue = 163.0"] ;
9 -> 17 ;
18 [label="WOA_TEMP_K <= 280.043\nmse = 498.389\nsamples = 14\nvalue = 107.042"] ;
8 -> 18 ;
19 [label="WOA_TEMP_K <= 279.409\nmse = 1352.0\nsamples = 2\nvalue = 137.0"] ;
18 -> 19 ;
20 [label="(...)"] ;
19 -> 20 ;
21 [label="(...)"] ;
19 -> 21 ;
22 [label="WOA_TEMP_K <= 280.815\nmse = 229.914\nsamples = 12\nvalue = 102.762"] ;
18 -> 22 ;
23 [label="(...)"] ;
22 -> 23 ;
38 [label="(...)"] ;
22 -> 38 ;
43 [label="WOA_Nitrate <= 7.244\nmse = 858.719\nsamples = 57\nvalue = 37.496"] ;
3 -> 43 ;
44 [label="WOA_Nitrate <= 1.387\nmse = 721.765\nsamples = 53\nvalue = 34.772"] ;
43 -> 44 ;
45 [label="WOA_TEMP_K <= 285.95\nmse = 1458.051\nsamples = 16\nvalue = 56.12"] ;
44 -> 45 ;
46 [label="WOA_TEMP_K <= 284.903\nmse = 662.987\nsamples = 6\nvalue = 99.356"] ;
45 -> 46 ;
47 [label="(...)"] ;
46 -> 47 ;
50 [label="(...)"] ;
46 -> 50 ;
57 [label="WOA_Nitrate <= 0.889\nmse = 549.609\nsamples = 10\nvalue = 35.943"] ;
45 -> 57 ;
58 [label="(...)"] ;
57 -> 58 ;
67 [label="(...)"] ;
57 -> 67 ;
70 [label="WOA_Nitrate <= 3.633\nmse = 266.103\nsamples = 37\nvalue = 27.546"] ;
44 -> 70 ;
71 [label="WOA_TEMP_K <= 283.261\nmse = 313.933\nsamples = 17\nvalue = 36.744"] ;
70 -> 71 ;
72 [label="(...)"] ;
71 -> 72 ;
73 [label="(...)"] ;
71 -> 73 ;
92 [label="WOA_Nitrate <= 6.51\nmse = 129.287\nsamples = 20\nvalue = 21.011"] ;
70 -> 92 ;
93 [label="(...)"] ;
92 -> 93 ;
108 [label="(...)"] ;
92 -> 108 ;
111 [label="mse = 164.422\nsamples = 4\nvalue = 96.755"] ;
43 -> 111 ;
112 [label="WOA_TEMP_K <= 274.339\nmse = 772.862\nsamples = 177\nvalue = 33.189"] ;
2 -> 112 ;
113 [label="WOA_Nitrate <= 18.449\nmse = 1135.962\nsamples = 79\nvalue = 47.219"] ;
112 -> 113 ;
114 [label="WOA_Nitrate <= 17.381\nmse = 2251.544\nsamples = 23\nvalue = 57.136"] ;
113 -> 114 ;
115 [label="WOA_TEMP_K <= 273.258\nmse = 2047.847\nsamples = 19\nvalue = 48.7"] ;
114 -> 115 ;
116 [label="WOA_TEMP_K <= 272.144\nmse = 262.028\nsamples = 9\nvalue = 33.705"] ;
115 -> 116 ;
117 [label="(...)"] ;
116 -> 117 ;
120 [label="(...)"] ;
116 -> 120 ;
123 [label="WOA_Nitrate <= 10.457\nmse = 2772.136\nsamples = 10\nvalue = 56.197"] ;
115 -> 123 ;
124 [label="(...)"] ;
123 -> 124 ;
125 [label="(...)"] ;
123 -> 125 ;
126 [label="mse = 1587.284\nsamples = 4\nvalue = 91.934"] ;
114 -> 126 ;
127 [label="WOA_Nitrate <= 24.201\nmse = 479.47\nsamples = 56\nvalue = 42.073"] ;
113 -> 127 ;
128 [label="WOA_TEMP_K <= 273.036\nmse = 105.885\nsamples = 18\nvalue = 32.809"] ;
127 -> 128 ;
129 [label="WOA_Nitrate <= 21.405\nmse = 77.095\nsamples = 10\nvalue = 37.832"] ;
128 -> 129 ;
130 [label="(...)"] ;
129 -> 130 ;
135 [label="(...)"] ;
129 -> 135 ;
144 [label="WOA_TEMP_K <= 273.814\nmse = 47.008\nsamples = 8\nvalue = 24.773"] ;
128 -> 144 ;
145 [label="(...)"] ;
144 -> 145 ;
150 [label="(...)"] ;
144 -> 150 ;
153 [label="WOA_Nitrate <= 28.825\nmse = 599.987\nsamples = 38\nvalue = 46.618"] ;
127 -> 153 ;
154 [label="WOA_Nitrate <= 27.812\nmse = 570.439\nsamples = 32\nvalue = 49.515"] ;
153 -> 154 ;
155 [label="(...)"] ;
154 -> 155 ;
198 [label="(...)"] ;
154 -> 198 ;
201 [label="WOA_Nitrate <= 29.573\nmse = 250.716\nsamples = 6\nvalue = 23.924"] ;
153 -> 201 ;
202 [label="(...)"] ;
201 -> 202 ;
209 [label="(...)"] ;
201 -> 209 ;
212 [label="WOA_Nitrate <= 25.313\nmse = 198.916\nsamples = 98\nvalue = 21.965"] ;
112 -> 212 ;
213 [label="WOA_Nitrate <= 8.333\nmse = 177.193\nsamples = 95\nvalue = 21.136"] ;
212 -> 213 ;
214 [label="WOA_TEMP_K <= 282.235\nmse = 490.015\nsamples = 6\nvalue = 37.999"] ;
213 -> 214 ;
215 [label="WOA_Nitrate <= 7.818\nmse = 392.301\nsamples = 3\nvalue = 57.877"] ;
214 -> 215 ;
216 [label="(...)"] ;
215 -> 216 ;
217 [label="(...)"] ;
215 -> 217 ;
220 [label="WOA_Nitrate <= 7.613\nmse = 44.681\nsamples = 3\nvalue = 23.09"] ;
214 -> 220 ;
221 [label="(...)"] ;
220 -> 221 ;
222 [label="(...)"] ;
220 -> 222 ;
223 [label="WOA_TEMP_K <= 280.859\nmse = 146.398\nsamples = 89\nvalue = 20.287"] ;
213 -> 223 ;
224 [label="WOA_TEMP_K <= 274.893\nmse = 160.57\nsamples = 42\nvalue = 23.476"] ;
223 -> 224 ;
225 [label="(...)"] ;
224 -> 225 ;
244 [label="(...)"] ;
224 -> 244 ;
301 [label="WOA_TEMP_K <= 285.551\nmse = 109.886\nsamples = 47\nvalue = 16.956"] ;
223 -> 301 ;
302 [label="(...)"] ;
301 -> 302 ;
343 [label="(...)"] ;
301 -> 343 ;
344 [label="WOA_TEMP_K <= 275.079\nmse = 51.194\nsamples = 3\nvalue = 52.222"] ;
212 -> 344 ;
345 [label="mse = 0.0\nsamples = 1\nvalue = 39.83"] ;
344 -> 345 ;
346 [label="WOA_Nitrate <= 25.363\nmse = 0.004\nsamples = 2\nvalue = 56.353"] ;
344 -> 346 ;
347 [label="mse = 0.0\nsamples = 1\nvalue = 56.44"] ;
346 -> 347 ;
348 [label="mse = 0.0\nsamples = 1\nvalue = 56.31"] ;
346 -> 348 ;
349 [label="WOA_Nitrate <= 0.118\nmse = 3487.703\nsamples = 67\nvalue = 90.178"] ;
1 -> 349 ;
350 [label="WOA_Nitrate <= 0.092\nmse = 10557.87\nsamples = 8\nvalue = 149.194"] ;
349 -> 350 ;
351 [label="WOA_TEMP_K <= 289.413\nmse = 416.851\nsamples = 6\nvalue = 87.641"] ;
350 -> 351 ;
352 [label="WOA_TEMP_K <= 288.299\nmse = 46.569\nsamples = 4\nvalue = 78.133"] ;
351 -> 352 ;
353 [label="mse = 0.889\nsamples = 2\nvalue = 72.333"] ;
352 -> 353 ;
354 [label="WOA_Nitrate <= 0.062\nmse = 24.969\nsamples = 2\nvalue = 83.933"] ;
352 -> 354 ;
355 [label="mse = 0.0\nsamples = 1\nvalue = 80.4"] ;
354 -> 355 ;
356 [label="mse = -0.0\nsamples = 1\nvalue = 91.0"] ;
354 -> 356 ;
357 [label="mse = 442.892\nsamples = 2\nvalue = 116.165"] ;
351 -> 357 ;
358 [label="mse = 555.556\nsamples = 2\nvalue = 313.333"] ;
350 -> 358 ;
359 [label="WOA_TEMP_K <= 288.943\nmse = 2130.193\nsamples = 59\nvalue = 82.884"] ;
349 -> 359 ;
360 [label="WOA_TEMP_K <= 288.803\nmse = 3578.101\nsamples = 15\nvalue = 106.89"] ;
359 -> 360 ;
361 [label="WOA_Nitrate <= 0.766\nmse = 2252.464\nsamples = 14\nvalue = 94.519"] ;
360 -> 361 ;
362 [label="mse = 0.0\nsamples = 1\nvalue = 220.0"] ;
361 -> 362 ;
363 [label="WOA_TEMP_K <= 287.636\nmse = 1498.694\nsamples = 13\nvalue = 87.915"] ;
361 -> 363 ;
364 [label="WOA_TEMP_K <= 287.551\nmse = 2042.41\nsamples = 2\nvalue = 129.723"] ;
363 -> 364 ;
365 [label="(...)"] ;
364 -> 365 ;
366 [label="(...)"] ;
364 -> 366 ;
367 [label="WOA_TEMP_K <= 288.482\nmse = 763.303\nsamples = 11\nvalue = 76.766"] ;
363 -> 367 ;
368 [label="(...)"] ;
367 -> 368 ;
383 [label="(...)"] ;
367 -> 383 ;
388 [label="mse = -0.0\nsamples = 1\nvalue = 230.6"] ;
360 -> 388 ;
389 [label="WOA_TEMP_K <= 289.128\nmse = 1403.384\nsamples = 44\nvalue = 75.001"] ;
359 -> 389 ;
390 [label="WOA_TEMP_K <= 289.022\nmse = 69.776\nsamples = 3\nvalue = 24.652"] ;
389 -> 390 ;
391 [label="mse = 0.0\nsamples = 1\nvalue = 39.098"] ;
390 -> 391 ;
392 [label="WOA_TEMP_K <= 289.077\nmse = 0.291\nsamples = 2\nvalue = 19.837"] ;
390 -> 392 ;
393 [label="mse = 0.0\nsamples = 1\nvalue = 20.6"] ;
392 -> 393 ;
394 [label="mse = 0.0\nsamples = 1\nvalue = 19.456"] ;
392 -> 394 ;
395 [label="WOA_Nitrate <= 3.663\nmse = 1316.887\nsamples = 41\nvalue = 78.198"] ;
389 -> 395 ;
396 [label="WOA_TEMP_K <= 290.568\nmse = 1263.027\nsamples = 38\nvalue = 81.45"] ;
395 -> 396 ;
397 [label="WOA_Nitrate <= 3.302\nmse = 986.851\nsamples = 36\nvalue = 77.556"] ;
396 -> 397 ;
398 [label="(...)"] ;
397 -> 398 ;
453 [label="(...)"] ;
397 -> 453 ;
454 [label="WOA_Nitrate <= 1.887\nmse = 2023.648\nsamples = 2\nvalue = 134.015"] ;
396 -> 454 ;
455 [label="(...)"] ;
454 -> 455 ;
456 [label="(...)"] ;
454 -> 456 ;
457 [label="WOA_Nitrate <= 3.814\nmse = 395.79\nsamples = 3\nvalue = 40.473"] ;
395 -> 457 ;
458 [label="mse = 0.0\nsamples = 1\nvalue = 18.182"] ;
457 -> 458 ;
459 [label="WOA_Nitrate <= 5.232\nmse = 107.556\nsamples = 2\nvalue = 55.333"] ;
457 -> 459 ;
460 [label="(...)"] ;
459 -> 460 ;
461 [label="(...)"] ;
459 -> 461 ;
462 [label="WOA_Nitrate <= 6.011\nmse = 4807.847\nsamples = 324\nvalue = 145.855"] ;
0 -> 462 [labeldistance=2.5, labelangle=-45, headlabel="False"] ;
463 [label="WOA_TEMP_K <= 296.144\nmse = 4117.687\nsamples = 317\nvalue = 142.638"] ;
462 -> 463 ;
464 [label="WOA_TEMP_K <= 294.306\nmse = 3516.281\nsamples = 115\nvalue = 112.158"] ;
463 -> 464 ;
465 [label="WOA_TEMP_K <= 293.631\nmse = 3851.576\nsamples = 70\nvalue = 99.778"] ;
464 -> 465 ;
466 [label="WOA_TEMP_K <= 292.469\nmse = 4153.502\nsamples = 62\nvalue = 107.123"] ;
465 -> 466 ;
467 [label="WOA_Nitrate <= 1.712\nmse = 2143.979\nsamples = 31\nvalue = 86.754"] ;
466 -> 467 ;
468 [label="WOA_TEMP_K <= 292.333\nmse = 408.518\nsamples = 22\nvalue = 63.363"] ;
467 -> 468 ;
469 [label="(...)"] ;
468 -> 469 ;
500 [label="(...)"] ;
468 -> 500 ;
503 [label="WOA_TEMP_K <= 291.271\nmse = 1802.699\nsamples = 9\nvalue = 143.562"] ;
467 -> 503 ;
504 [label="(...)"] ;
503 -> 504 ;
513 [label="(...)"] ;
503 -> 513 ;
520 [label="WOA_TEMP_K <= 292.56\nmse = 5382.425\nsamples = 31\nvalue = 128.849"] ;
466 -> 520 ;
521 [label="mse = 10755.556\nsamples = 2\nvalue = 266.667"] ;
520 -> 521 ;
522 [label="WOA_TEMP_K <= 292.902\nmse = 3545.029\nsamples = 29\nvalue = 119.005"] ;
520 -> 522 ;
523 [label="(...)"] ;
522 -> 523 ;
536 [label="(...)"] ;
522 -> 536 ;
559 [label="WOA_TEMP_K <= 294.076\nmse = 572.756\nsamples = 8\nvalue = 61.829"] ;
465 -> 559 ;
560 [label="WOA_TEMP_K <= 293.99\nmse = 232.717\nsamples = 6\nvalue = 77.989"] ;
559 -> 560 ;
561 [label="WOA_Nitrate <= 2.185\nmse = 117.606\nsamples = 4\nvalue = 71.831"] ;
560 -> 561 ;
562 [label="(...)"] ;
561 -> 562 ;
567 [label="(...)"] ;
561 -> 567 ;
568 [label="WOA_Nitrate <= 1.62\nmse = 168.88\nsamples = 2\nvalue = 94.411"] ;
560 -> 568 ;
569 [label="(...)"] ;
568 -> 569 ;
570 [label="(...)"] ;
568 -> 570 ;
571 [label="WOA_Nitrate <= 0.549\nmse = 51.78\nsamples = 2\nvalue = 36.433"] ;
559 -> 571 ;
572 [label="mse = 0.0\nsamples = 1\nvalue = 47.811"] ;
571 -> 572 ;
573 [label="mse = -0.0\nsamples = 1\nvalue = 31.882"] ;
571 -> 573 ;
574 [label="WOA_TEMP_K <= 295.445\nmse = 2475.721\nsamples = 45\nvalue = 130.241"] ;
464 -> 574 ;
575 [label="WOA_Nitrate <= 0.349\nmse = 2738.165\nsamples = 26\nvalue = 149.988"] ;
574 -> 575 ;
576 [label="WOA_Nitrate <= 0.095\nmse = 2511.187\nsamples = 22\nvalue = 158.05"] ;
575 -> 576 ;
577 [label="WOA_TEMP_K <= 294.74\nmse = 1340.659\nsamples = 5\nvalue = 118.621"] ;
576 -> 577 ;
578 [label="(...)"] ;
577 -> 578 ;
579 [label="(...)"] ;
577 -> 579 ;
586 [label="WOA_TEMP_K <= 295.252\nmse = 2227.098\nsamples = 17\nvalue = 170.724"] ;
576 -> 586 ;
587 [label="(...)"] ;
586 -> 587 ;
604 [label="(...)"] ;
586 -> 604 ;
607 [label="WOA_Nitrate <= 0.772\nmse = 1265.195\nsamples = 4\nvalue = 100.27"] ;
575 -> 607 ;
608 [label="WOA_Nitrate <= 0.378\nmse = 349.303\nsamples = 2\nvalue = 68.341"] ;
607 -> 608 ;
609 [label="(...)"] ;
608 -> 609 ;
610 [label="(...)"] ;
608 -> 610 ;
611 [label="WOA_Nitrate <= 2.124\nmse = 142.14\nsamples = 2\nvalue = 132.2"] ;
607 -> 611 ;
612 [label="(...)"] ;
611 -> 612 ;
613 [label="(...)"] ;
611 -> 613 ;
614 [label="WOA_Nitrate <= 0.129\nmse = 963.555\nsamples = 19\nvalue = 104.51"] ;
574 -> 614 ;
615 [label="WOA_Nitrate <= 0.021\nmse = 353.969\nsamples = 6\nvalue = 86.231"] ;
614 -> 615 ;
616 [label="WOA_Nitrate <= 0.003\nmse = 11.032\nsamples = 2\nvalue = 105.932"] ;
615 -> 616 ;
617 [label="(...)"] ;
616 -> 617 ;
618 [label="(...)"] ;
616 -> 618 ;
619 [label="WOA_Nitrate <= 0.111\nmse = 209.08\nsamples = 4\nvalue = 75.287"] ;
615 -> 619 ;
620 [label="(...)"] ;
619 -> 620 ;
623 [label="(...)"] ;
619 -> 623 ;
624 [label="WOA_Nitrate <= 0.474\nmse = 985.142\nsamples = 13\nvalue = 117.978"] ;
614 -> 624 ;
625 [label="WOA_TEMP_K <= 295.917\nmse = 307.356\nsamples = 9\nvalue = 144.633"] ;
624 -> 625 ;
626 [label="(...)"] ;
625 -> 626 ;
629 [label="(...)"] ;
625 -> 629 ;
630 [label="WOA_Nitrate <= 1.172\nmse = 71.688\nsamples = 4\nvalue = 88.362"] ;
624 -> 630 ;
631 [label="(...)"] ;
630 -> 631 ;
636 [label="(...)"] ;
630 -> 636 ;
637 [label="WOA_Nitrate <= 0.024\nmse = 3609.008\nsamples = 202\nvalue = 160.449"] ;
463 -> 637 ;
638 [label="WOA_TEMP_K <= 300.47\nmse = 4490.456\nsamples = 17\nvalue = 196.188"] ;
637 -> 638 ;
639 [label="WOA_TEMP_K <= 300.284\nmse = 3829.505\nsamples = 14\nvalue = 208.88"] ;
638 -> 639 ;
640 [label="WOA_TEMP_K <= 297.361\nmse = 3181.381\nsamples = 13\nvalue = 203.453"] ;
639 -> 640 ;
641 [label="WOA_TEMP_K <= 297.195\nmse = 1120.285\nsamples = 5\nvalue = 163.569"] ;
640 -> 641 ;
642 [label="(...)"] ;
641 -> 642 ;
649 [label="(...)"] ;
641 -> 649 ;
650 [label="WOA_Nitrate <= 0.01\nmse = 3138.778\nsamples = 8\nvalue = 218.147"] ;
640 -> 650 ;
651 [label="(...)"] ;
650 -> 651 ;
656 [label="(...)"] ;
650 -> 656 ;
661 [label="mse = -0.0\nsamples = 1\nvalue = 350.0"] ;
639 -> 661 ;
662 [label="WOA_Nitrate <= 0.003\nmse = 524.674\nsamples = 3\nvalue = 110.515"] ;
638 -> 662 ;
663 [label="mse = 0.0\nsamples = 1\nvalue = 74.0"] ;
662 -> 663 ;
664 [label="WOA_TEMP_K <= 301.817\nmse = 106.958\nsamples = 2\nvalue = 122.687"] ;
662 -> 664 ;
665 [label="mse = 0.0\nsamples = 1\nvalue = 108.061"] ;
664 -> 665 ;
666 [label="mse = 0.0\nsamples = 1\nvalue = 130.0"] ;
664 -> 666 ;
667 [label="WOA_Nitrate <= 2.47\nmse = 3362.754\nsamples = 185\nvalue = 156.616"] ;
637 -> 667 ;
668 [label="WOA_TEMP_K <= 300.811\nmse = 3178.751\nsamples = 181\nvalue = 154.857"] ;
667 -> 668 ;
669 [label="WOA_Nitrate <= 0.259\nmse = 2928.978\nsamples = 155\nvalue = 159.195"] ;
668 -> 669 ;
670 [label="WOA_TEMP_K <= 297.774\nmse = 3474.973\nsamples = 110\nvalue = 168.765"] ;
669 -> 670 ;
671 [label="(...)"] ;
670 -> 671 ;
740 [label="(...)"] ;
670 -> 740 ;
813 [label="WOA_TEMP_K <= 300.655\nmse = 1157.229\nsamples = 45\nvalue = 138.827"] ;
669 -> 813 ;
814 [label="(...)"] ;
813 -> 814 ;
887 [label="(...)"] ;
813 -> 887 ;
888 [label="WOA_TEMP_K <= 302.239\nmse = 3887.089\nsamples = 26\nvalue = 127.716"] ;
668 -> 888 ;
889 [label="WOA_TEMP_K <= 302.046\nmse = 2986.232\nsamples = 24\nvalue = 117.972"] ;
888 -> 889 ;
890 [label="(...)"] ;
889 -> 890 ;
929 [label="(...)"] ;
889 -> 929 ;
936 [label="WOA_TEMP_K <= 302.295\nmse = 3669.752\nsamples = 2\nvalue = 212.975"] ;
888 -> 936 ;
937 [label="(...)"] ;
936 -> 937 ;
938 [label="(...)"] ;
936 -> 938 ;
939 [label="WOA_Nitrate <= 4.929\nmse = 5012.975\nsamples = 4\nvalue = 239.577"] ;
667 -> 939 ;
940 [label="WOA_TEMP_K <= 301.327\nmse = 1849.808\nsamples = 3\nvalue = 283.05"] ;
939 -> 940 ;
941 [label="WOA_TEMP_K <= 300.361\nmse = 973.876\nsamples = 2\nvalue = 302.367"] ;
940 -> 941 ;
942 [label="(...)"] ;
941 -> 942 ;
943 [label="(...)"] ;
941 -> 943 ;
944 [label="mse = 0.0\nsamples = 1\nvalue = 225.1"] ;
940 -> 944 ;
945 [label="mse = 0.0\nsamples = 1\nvalue = 152.632"] ;
939 -> 945 ;
946 [label="WOA_TEMP_K <= 292.475\nmse = 15049.721\nsamples = 7\nvalue = 281.797"] ;
462 -> 946 ;
947 [label="WOA_TEMP_K <= 291.785\nmse = 107.904\nsamples = 4\nvalue = 381.266"] ;
946 -> 947 ;
948 [label="WOA_Nitrate <= 6.924\nmse = 0.453\nsamples = 2\nvalue = 396.527"] ;
947 -> 948 ;
949 [label="mse = 0.0\nsamples = 1\nvalue = 397.2"] ;
948 -> 949 ;
950 [label="mse = 0.0\nsamples = 1\nvalue = 395.854"] ;
948 -> 950 ;
951 [label="WOA_Nitrate <= 7.188\nmse = 20.454\nsamples = 2\nvalue = 375.161"] ;
947 -> 951 ;
952 [label="mse = 0.0\nsamples = 1\nvalue = 380.7"] ;
951 -> 952 ;
953 [label="mse = 0.0\nsamples = 1\nvalue = 371.468"] ;
951 -> 953 ;
954 [label="WOA_TEMP_K <= 293.182\nmse = 2724.174\nsamples = 3\nvalue = 142.54"] ;
946 -> 954 ;
955 [label="mse = 0.0\nsamples = 1\nvalue = 239.1"] ;
954 -> 955 ;
956 [label="WOA_Nitrate <= 7.99\nmse = 491.52\nsamples = 2\nvalue = 118.4"] ;
954 -> 956 ;
957 [label="mse = 0.0\nsamples = 1\nvalue = 80.0"] ;
956 -> 957 ;
958 [label="mse = 0.0\nsamples = 1\nvalue = 131.2"] ;
956 -> 958 ;
}