digraph Tree {
node [shape=box] ;
0 [label="WOA_TEMP_K <= 294.271\nmse = 5387.396\nsamples = 655\nvalue = 97.809"] ;
1 [label="WOA_TEMP_K <= 287.433\nmse = 2982.823\nsamples = 412\nvalue = 61.577"] ;
0 -> 1 [labeldistance=2.5, labelangle=45, headlabel="True"] ;
2 [label="WOA_Nitrate <= 7.681\nmse = 1577.36\nsamples = 263\nvalue = 43.183"] ;
1 -> 2 ;
3 [label="WOA_Salinity <= 34.765\nmse = 2533.783\nsamples = 89\nvalue = 64.552"] ;
2 -> 3 ;
4 [label="WOA_Salinity <= 34.071\nmse = 2200.678\nsamples = 37\nvalue = 103.066"] ;
3 -> 4 ;
5 [label="WOA_Nitrate <= 6.414\nmse = 5384.384\nsamples = 13\nvalue = 137.758"] ;
4 -> 5 ;
6 [label="WOA_Salinity <= 20.618\nmse = 2585.024\nsamples = 8\nvalue = 95.413"] ;
5 -> 6 ;
7 [label="WOA_TEMP_K <= 279.627\nmse = 381.226\nsamples = 2\nvalue = 27.475"] ;
6 -> 7 ;
8 [label="(...)"] ;
7 -> 8 ;
9 [label="(...)"] ;
7 -> 9 ;
10 [label="WOA_TEMP_K <= 280.214\nmse = 1693.623\nsamples = 6\nvalue = 112.397"] ;
6 -> 10 ;
11 [label="(...)"] ;
10 -> 11 ;
14 [label="(...)"] ;
10 -> 14 ;
21 [label="WOA_TEMP_K <= 281.128\nmse = 2080.556\nsamples = 5\nvalue = 208.333"] ;
5 -> 21 ;
22 [label="WOA_Salinity <= 33.424\nmse = 1118.75\nsamples = 4\nvalue = 182.5"] ;
21 -> 22 ;
23 [label="(...)"] ;
22 -> 23 ;
26 [label="(...)"] ;
22 -> 26 ;
29 [label="mse = 0.0\nsamples = 1\nvalue = 260.0"] ;
21 -> 29 ;
30 [label="WOA_Salinity <= 34.113\nmse = 354.707\nsamples = 24\nvalue = 89.851"] ;
4 -> 30 ;
31 [label="WOA_TEMP_K <= 284.744\nmse = 113.953\nsamples = 2\nvalue = 60.926"] ;
30 -> 31 ;
32 [label="mse = 0.0\nsamples = 1\nvalue = 74.0"] ;
31 -> 32 ;
33 [label="mse = 0.0\nsamples = 1\nvalue = 52.21"] ;
31 -> 33 ;
34 [label="WOA_TEMP_K <= 284.71\nmse = 258.903\nsamples = 22\nvalue = 93.759"] ;
30 -> 34 ;
35 [label="WOA_Salinity <= 34.517\nmse = 208.628\nsamples = 19\nvalue = 90.303"] ;
34 -> 35 ;
36 [label="(...)"] ;
35 -> 36 ;
49 [label="(...)"] ;
35 -> 49 ;
66 [label="WOA_Salinity <= 34.358\nmse = 14.894\nsamples = 3\nvalue = 115.88"] ;
34 -> 66 ;
67 [label="(...)"] ;
66 -> 67 ;
68 [label="(...)"] ;
66 -> 68 ;
71 [label="WOA_Salinity <= 35.234\nmse = 858.264\nsamples = 52\nvalue = 35.913"] ;
3 -> 71 ;
72 [label="WOA_Salinity <= 35.156\nmse = 1567.603\nsamples = 20\nvalue = 59.773"] ;
71 -> 72 ;
73 [label="WOA_TEMP_K <= 281.954\nmse = 378.838\nsamples = 12\nvalue = 32.482"] ;
72 -> 73 ;
74 [label="WOA_Salinity <= 34.955\nmse = 9.632\nsamples = 3\nvalue = 56.225"] ;
73 -> 74 ;
75 [label="(...)"] ;
74 -> 75 ;
78 [label="(...)"] ;
74 -> 78 ;
79 [label="WOA_Nitrate <= 2.2\nmse = 233.57\nsamples = 9\nvalue = 23.849"] ;
73 -> 79 ;
80 [label="(...)"] ;
79 -> 80 ;
89 [label="(...)"] ;
79 -> 89 ;
94 [label="WOA_Nitrate <= 2.377\nmse = 788.211\nsamples = 8\nvalue = 96.986"] ;
72 -> 94 ;
95 [label="mse = 0.0\nsamples = 1\nvalue = 157.37"] ;
94 -> 95 ;
96 [label="WOA_Nitrate <= 7.244\nmse = 465.952\nsamples = 7\nvalue = 90.948"] ;
94 -> 96 ;
97 [label="(...)"] ;
96 -> 97 ;
100 [label="(...)"] ;
96 -> 100 ;
101 [label="WOA_TEMP_K <= 283.274\nmse = 76.633\nsamples = 32\nvalue = 23.983"] ;
71 -> 101 ;
102 [label="WOA_Salinity <= 35.298\nmse = 38.194\nsamples = 5\nvalue = 13.844"] ;
101 -> 102 ;
103 [label="WOA_TEMP_K <= 282.971\nmse = 35.768\nsamples = 4\nvalue = 12.95"] ;
102 -> 103 ;
104 [label="(...)"] ;
103 -> 104 ;
105 [label="(...)"] ;
103 -> 105 ;
108 [label="mse = 0.0\nsamples = 1\nvalue = 21.0"] ;
102 -> 108 ;
109 [label="WOA_Salinity <= 35.344\nmse = 58.66\nsamples = 27\nvalue = 26.105"] ;
101 -> 109 ;
110 [label="WOA_TEMP_K <= 283.432\nmse = 78.567\nsamples = 13\nvalue = 29.027"] ;
109 -> 110 ;
111 [label="(...)"] ;
110 -> 111 ;
114 [label="(...)"] ;
110 -> 114 ;
125 [label="WOA_Nitrate <= 5.633\nmse = 19.49\nsamples = 14\nvalue = 23.044"] ;
109 -> 125 ;
126 [label="(...)"] ;
125 -> 126 ;
135 [label="(...)"] ;
125 -> 135 ;
136 [label="WOA_Salinity <= 33.868\nmse = 773.509\nsamples = 174\nvalue = 32.691"] ;
2 -> 136 ;
137 [label="WOA_Salinity <= 33.866\nmse = 1059.647\nsamples = 87\nvalue = 46.457"] ;
136 -> 137 ;
138 [label="WOA_Nitrate <= 14.137\nmse = 958.754\nsamples = 86\nvalue = 45.574"] ;
137 -> 138 ;
139 [label="WOA_Nitrate <= 11.556\nmse = 3789.674\nsamples = 13\nvalue = 63.291"] ;
138 -> 139 ;
140 [label="WOA_Nitrate <= 10.229\nmse = 53.547\nsamples = 3\nvalue = 42.766"] ;
139 -> 140 ;
141 [label="(...)"] ;
140 -> 141 ;
144 [label="(...)"] ;
140 -> 144 ;
145 [label="WOA_Nitrate <= 12.799\nmse = 4728.183\nsamples = 10\nvalue = 69.328"] ;
139 -> 145 ;
146 [label="(...)"] ;
145 -> 146 ;
147 [label="(...)"] ;
145 -> 147 ;
148 [label="WOA_TEMP_K <= 279.958\nmse = 351.029\nsamples = 73\nvalue = 42.213"] ;
138 -> 148 ;
149 [label="WOA_Salinity <= 33.565\nmse = 323.572\nsamples = 72\nvalue = 41.701"] ;
148 -> 149 ;
150 [label="(...)"] ;
149 -> 150 ;
181 [label="(...)"] ;
149 -> 181 ;
248 [label="mse = 0.0\nsamples = 1\nvalue = 101.19"] ;
148 -> 248 ;
249 [label="mse = -0.0\nsamples = 1\nvalue = 168.421"] ;
137 -> 249 ;
250 [label="WOA_Nitrate <= 28.005\nmse = 102.151\nsamples = 87\nvalue = 18.825"] ;
136 -> 250 ;
251 [label="WOA_Nitrate <= 25.276\nmse = 98.122\nsamples = 83\nvalue = 19.437"] ;
250 -> 251 ;
252 [label="WOA_Nitrate <= 24.207\nmse = 76.194\nsamples = 79\nvalue = 18.79"] ;
251 -> 252 ;
253 [label="WOA_TEMP_K <= 280.859\nmse = 73.949\nsamples = 71\nvalue = 19.689"] ;
252 -> 253 ;
254 [label="(...)"] ;
253 -> 254 ;
305 [label="(...)"] ;
253 -> 305 ;
344 [label="WOA_Salinity <= 33.903\nmse = 25.711\nsamples = 8\nvalue = 10.84"] ;
252 -> 344 ;
345 [label="(...)"] ;
344 -> 345 ;
348 [label="(...)"] ;
344 -> 348 ;
355 [label="WOA_TEMP_K <= 276.518\nmse = 358.309\nsamples = 4\nvalue = 40.128"] ;
251 -> 355 ;
356 [label="WOA_Salinity <= 33.902\nmse = 15.974\nsamples = 3\nvalue = 50.872"] ;
355 -> 356 ;
357 [label="(...)"] ;
356 -> 357 ;
360 [label="(...)"] ;
356 -> 360 ;
361 [label="mse = -0.0\nsamples = 1\nvalue = 7.895"] ;
355 -> 361 ;
362 [label="WOA_Nitrate <= 29.071\nmse = 1.602\nsamples = 4\nvalue = 5.373"] ;
250 -> 362 ;
363 [label="mse = 0.0\nsamples = 1\nvalue = 2.632"] ;
362 -> 363 ;
364 [label="WOA_TEMP_K <= 272.736\nmse = 0.118\nsamples = 3\nvalue = 5.922"] ;
362 -> 364 ;
365 [label="mse = 0.0\nsamples = 1\nvalue = 5.263"] ;
364 -> 365 ;
366 [label="mse = 0.012\nsamples = 2\nvalue = 6.086"] ;
364 -> 366 ;
367 [label="WOA_Salinity <= 32.073\nmse = 3800.159\nsamples = 149\nvalue = 95.491"] ;
1 -> 367 ;
368 [label="WOA_Nitrate <= 0.212\nmse = 11165.039\nsamples = 15\nvalue = 149.479"] ;
367 -> 368 ;
369 [label="WOA_TEMP_K <= 289.07\nmse = 7903.333\nsamples = 7\nvalue = 260.333"] ;
368 -> 369 ;
370 [label="mse = 0.0\nsamples = 1\nvalue = 91.0"] ;
369 -> 370 ;
371 [label="WOA_TEMP_K <= 290.521\nmse = 4859.0\nsamples = 6\nvalue = 281.5"] ;
369 -> 371 ;
372 [label="WOA_Salinity <= 31.55\nmse = 3837.837\nsamples = 5\nvalue = 296.143"] ;
371 -> 372 ;
373 [label="WOA_TEMP_K <= 289.987\nmse = 552.25\nsamples = 2\nvalue = 336.5"] ;
372 -> 373 ;
374 [label="(...)"] ;
373 -> 374 ;
375 [label="(...)"] ;
373 -> 375 ;
376 [label="WOA_TEMP_K <= 289.338\nmse = 4240.0\nsamples = 3\nvalue = 280.0"] ;
372 -> 376 ;
377 [label="(...)"] ;
376 -> 377 ;
378 [label="(...)"] ;
376 -> 378 ;
379 [label="mse = 0.0\nsamples = 1\nvalue = 179.0"] ;
371 -> 379 ;
380 [label="WOA_Nitrate <= 1.521\nmse = 1324.962\nsamples = 8\nvalue = 82.967"] ;
368 -> 380 ;
381 [label="WOA_Salinity <= 12.722\nmse = 20.303\nsamples = 5\nvalue = 61.682"] ;
380 -> 381 ;
382 [label="WOA_TEMP_K <= 290.448\nmse = 3.556\nsamples = 2\nvalue = 56.667"] ;
381 -> 382 ;
383 [label="mse = 0.0\nsamples = 1\nvalue = 54.0"] ;
382 -> 383 ;
384 [label="mse = 0.0\nsamples = 1\nvalue = 58.0"] ;
382 -> 384 ;
385 [label="WOA_Nitrate <= 0.286\nmse = 13.615\nsamples = 3\nvalue = 63.562"] ;
381 -> 385 ;
386 [label="mse = 19.44\nsamples = 2\nvalue = 64.5"] ;
385 -> 386 ;
387 [label="mse = 0.0\nsamples = 1\nvalue = 62.0"] ;
385 -> 387 ;
388 [label="WOA_Salinity <= 30.645\nmse = 240.75\nsamples = 3\nvalue = 141.5"] ;
380 -> 388 ;
389 [label="mse = 0.0\nsamples = 1\nvalue = 158.0"] ;
388 -> 389 ;
390 [label="mse = 200.0\nsamples = 2\nvalue = 136.0"] ;
388 -> 390 ;
391 [label="WOA_Nitrate <= 5.949\nmse = 2524.636\nsamples = 134\nvalue = 89.013"] ;
367 -> 391 ;
392 [label="WOA_TEMP_K <= 292.469\nmse = 1964.872\nsamples = 128\nvalue = 85.625"] ;
391 -> 392 ;
393 [label="WOA_Salinity <= 35.49\nmse = 1405.807\nsamples = 89\nvalue = 76.763"] ;
392 -> 393 ;
394 [label="WOA_Nitrate <= 1.926\nmse = 2069.677\nsamples = 42\nvalue = 93.135"] ;
393 -> 394 ;
395 [label="WOA_Nitrate <= 1.702\nmse = 2228.808\nsamples = 31\nvalue = 103.341"] ;
394 -> 395 ;
396 [label="(...)"] ;
395 -> 396 ;
443 [label="(...)"] ;
395 -> 443 ;
446 [label="WOA_Salinity <= 34.182\nmse = 978.626\nsamples = 11\nvalue = 70.573"] ;
394 -> 446 ;
447 [label="(...)"] ;
446 -> 447 ;
452 [label="(...)"] ;
446 -> 452 ;
465 [label="WOA_TEMP_K <= 290.193\nmse = 354.142\nsamples = 47\nvalue = 62.077"] ;
393 -> 465 ;
466 [label="WOA_Salinity <= 37.02\nmse = 343.959\nsamples = 13\nvalue = 47.463"] ;
465 -> 466 ;
467 [label="(...)"] ;
466 -> 467 ;
486 [label="(...)"] ;
466 -> 486 ;
489 [label="WOA_Salinity <= 35.911\nmse = 279.476\nsamples = 34\nvalue = 66.213"] ;
465 -> 489 ;
490 [label="(...)"] ;
489 -> 490 ;
515 [label="(...)"] ;
489 -> 515 ;
534 [label="WOA_TEMP_K <= 292.902\nmse = 2614.389\nsamples = 39\nvalue = 103.487"] ;
392 -> 534 ;
535 [label="WOA_Salinity <= 36.613\nmse = 2774.136\nsamples = 17\nvalue = 129.002"] ;
534 -> 535 ;
536 [label="WOA_Salinity <= 36.564\nmse = 585.451\nsamples = 12\nvalue = 106.717"] ;
535 -> 536 ;
537 [label="(...)"] ;
536 -> 537 ;
540 [label="(...)"] ;
536 -> 540 ;
547 [label="WOA_TEMP_K <= 292.695\nmse = 3793.75\nsamples = 5\nvalue = 187.5"] ;
535 -> 547 ;
548 [label="(...)"] ;
547 -> 548 ;
549 [label="(...)"] ;
547 -> 549 ;
552 [label="WOA_Salinity <= 35.574\nmse = 1495.698\nsamples = 22\nvalue = 82.346"] ;
534 -> 552 ;
553 [label="WOA_Salinity <= 35.523\nmse = 1875.379\nsamples = 7\nvalue = 120.442"] ;
552 -> 553 ;
554 [label="(...)"] ;
553 -> 554 ;
565 [label="(...)"] ;
553 -> 565 ;
566 [label="WOA_Salinity <= 36.689\nmse = 531.121\nsamples = 15\nvalue = 67.108"] ;
552 -> 566 ;
567 [label="(...)"] ;
566 -> 567 ;
584 [label="(...)"] ;
566 -> 584 ;
591 [label="WOA_Nitrate <= 6.237\nmse = 8917.493\nsamples = 6\nvalue = 182.416"] ;
391 -> 591 ;
592 [label="WOA_Salinity <= 35.007\nmse = 6938.89\nsamples = 2\nvalue = 313.9"] ;
591 -> 592 ;
593 [label="mse = 0.0\nsamples = 1\nvalue = 230.6"] ;
592 -> 593 ;
594 [label="mse = 0.0\nsamples = 1\nvalue = 397.2"] ;
592 -> 594 ;
595 [label="WOA_Salinity <= 33.828\nmse = 27.629\nsamples = 4\nvalue = 129.822"] ;
591 -> 595 ;
596 [label="mse = 0.0\nsamples = 1\nvalue = 120.545"] ;
595 -> 596 ;
597 [label="WOA_Nitrate <= 8.399\nmse = 7.642\nsamples = 3\nvalue = 132.142"] ;
595 -> 597 ;
598 [label="WOA_Nitrate <= 7.209\nmse = 2.513\nsamples = 2\nvalue = 129.615"] ;
597 -> 598 ;
599 [label="(...)"] ;
598 -> 599 ;
600 [label="(...)"] ;
598 -> 600 ;
601 [label="mse = 0.0\nsamples = 1\nvalue = 134.669"] ;
597 -> 601 ;
602 [label="WOA_Salinity <= 35.69\nmse = 3543.201\nsamples = 243\nvalue = 158.386"] ;
0 -> 602 [labeldistance=2.5, labelangle=-45, headlabel="False"] ;
603 [label="WOA_Salinity <= 34.119\nmse = 2042.777\nsamples = 157\nvalue = 140.392"] ;
602 -> 603 ;
604 [label="WOA_Salinity <= 33.831\nmse = 1342.893\nsamples = 77\nvalue = 150.487"] ;
603 -> 604 ;
605 [label="WOA_TEMP_K <= 302.277\nmse = 724.756\nsamples = 53\nvalue = 142.233"] ;
604 -> 605 ;
606 [label="WOA_Salinity <= 29.984\nmse = 493.735\nsamples = 50\nvalue = 138.477"] ;
605 -> 606 ;
607 [label="WOA_TEMP_K <= 297.822\nmse = 538.776\nsamples = 5\nvalue = 164.286"] ;
606 -> 607 ;
608 [label="WOA_TEMP_K <= 297.111\nmse = 96.0\nsamples = 4\nvalue = 178.0"] ;
607 -> 608 ;
609 [label="(...)"] ;
608 -> 609 ;
610 [label="(...)"] ;
608 -> 610 ;
611 [label="mse = 0.0\nsamples = 1\nvalue = 130.0"] ;
607 -> 611 ;
612 [label="WOA_TEMP_K <= 301.528\nmse = 413.473\nsamples = 45\nvalue = 135.821"] ;
606 -> 612 ;
613 [label="WOA_TEMP_K <= 297.981\nmse = 411.967\nsamples = 43\nvalue = 137.067"] ;
612 -> 613 ;
614 [label="(...)"] ;
613 -> 614 ;
669 [label="(...)"] ;
613 -> 669 ;
682 [label="WOA_TEMP_K <= 302.004\nmse = 15.044\nsamples = 2\nvalue = 115.879"] ;
612 -> 682 ;
683 [label="(...)"] ;
682 -> 683 ;
684 [label="(...)"] ;
682 -> 684 ;
685 [label="WOA_Salinity <= 33.413\nmse = 804.206\nsamples = 3\nvalue = 198.574"] ;
605 -> 685 ;
686 [label="WOA_Salinity <= 33.237\nmse = 178.594\nsamples = 2\nvalue = 185.716"] ;
685 -> 686 ;
687 [label="mse = 0.0\nsamples = 1\nvalue = 178.0"] ;
686 -> 687 ;
688 [label="mse = -0.0\nsamples = 1\nvalue = 208.863"] ;
686 -> 688 ;
689 [label="mse = 0.0\nsamples = 1\nvalue = 250.007"] ;
685 -> 689 ;
690 [label="WOA_Nitrate <= 0.134\nmse = 2228.775\nsamples = 24\nvalue = 168.827"] ;
604 -> 690 ;
691 [label="WOA_Salinity <= 33.866\nmse = 3229.591\nsamples = 10\nvalue = 202.764"] ;
690 -> 691 ;
692 [label="mse = 0.0\nsamples = 1\nvalue = 324.91"] ;
691 -> 692 ;
693 [label="WOA_Nitrate <= 0.119\nmse = 2151.808\nsamples = 9\nvalue = 192.585"] ;
691 -> 693 ;
694 [label="WOA_Salinity <= 33.917\nmse = 2352.469\nsamples = 6\nvalue = 199.444"] ;
693 -> 694 ;
695 [label="(...)"] ;
694 -> 695 ;
696 [label="(...)"] ;
694 -> 696 ;
699 [label="WOA_Salinity <= 33.927\nmse = 985.201\nsamples = 3\nvalue = 172.007"] ;
693 -> 699 ;
700 [label="(...)"] ;
699 -> 700 ;
703 [label="(...)"] ;
699 -> 703 ;
704 [label="WOA_Salinity <= 33.872\nmse = 644.218\nsamples = 14\nvalue = 149.646"] ;
690 -> 704 ;
705 [label="mse = 571.974\nsamples = 2\nvalue = 188.072"] ;
704 -> 705 ;
706 [label="WOA_TEMP_K <= 296.816\nmse = 283.137\nsamples = 12\nvalue = 141.556"] ;
704 -> 706 ;
707 [label="mse = 31.361\nsamples = 2\nvalue = 172.876"] ;
706 -> 707 ;
708 [label="WOA_TEMP_K <= 298.577\nmse = 111.945\nsamples = 10\nvalue = 135.684"] ;
706 -> 708 ;
709 [label="(...)"] ;
708 -> 709 ;
716 [label="(...)"] ;
708 -> 716 ;
719 [label="WOA_TEMP_K <= 301.08\nmse = 2522.394\nsamples = 80\nvalue = 130.714"] ;
603 -> 719 ;
720 [label="WOA_Nitrate <= 0.027\nmse = 2455.026\nsamples = 66\nvalue = 137.165"] ;
719 -> 720 ;
721 [label="WOA_Nitrate <= 0.024\nmse = 3876.558\nsamples = 8\nvalue = 174.662"] ;
720 -> 721 ;
722 [label="WOA_TEMP_K <= 297.255\nmse = 2909.689\nsamples = 7\nvalue = 164.177"] ;
721 -> 722 ;
723 [label="WOA_TEMP_K <= 296.784\nmse = 1718.525\nsamples = 5\nvalue = 124.601"] ;
722 -> 723 ;
724 [label="(...)"] ;
723 -> 724 ;
731 [label="(...)"] ;
723 -> 731 ;
732 [label="WOA_TEMP_K <= 297.79\nmse = 204.213\nsamples = 2\nvalue = 211.668"] ;
722 -> 732 ;
733 [label="(...)"] ;
732 -> 733 ;
734 [label="(...)"] ;
732 -> 734 ;
735 [label="mse = 0.0\nsamples = 1\nvalue = 290.0"] ;
721 -> 735 ;
736 [label="WOA_Nitrate <= 0.127\nmse = 2071.14\nsamples = 58\nvalue = 132.378"] ;
720 -> 736 ;
737 [label="WOA_TEMP_K <= 296.144\nmse = 933.967\nsamples = 18\nvalue = 111.036"] ;
736 -> 737 ;
738 [label="WOA_Nitrate <= 0.111\nmse = 338.686\nsamples = 5\nvalue = 84.805"] ;
737 -> 738 ;
739 [label="(...)"] ;
738 -> 739 ;
744 [label="(...)"] ;
738 -> 744 ;
745 [label="WOA_TEMP_K <= 299.562\nmse = 818.467\nsamples = 13\nvalue = 120.159"] ;
737 -> 745 ;
746 [label="(...)"] ;
745 -> 746 ;
755 [label="(...)"] ;
745 -> 755 ;
762 [label="WOA_Nitrate <= 0.133\nmse = 2296.29\nsamples = 40\nvalue = 142.879"] ;
736 -> 762 ;
763 [label="mse = 1567.188\nsamples = 3\nvalue = 218.75"] ;
762 -> 763 ;
764 [label="WOA_TEMP_K <= 294.78\nmse = 1929.001\nsamples = 37\nvalue = 137.736"] ;
762 -> 764 ;
765 [label="(...)"] ;
764 -> 765 ;
768 [label="(...)"] ;
764 -> 768 ;
829 [label="WOA_Salinity <= 34.5\nmse = 626.776\nsamples = 14\nvalue = 85.133"] ;
719 -> 829 ;
830 [label="WOA_Nitrate <= 0.033\nmse = 145.73\nsamples = 5\nvalue = 56.109"] ;
829 -> 830 ;
831 [label="mse = 0.0\nsamples = 1\nvalue = 79.545"] ;
830 -> 831 ;
832 [label="WOA_Nitrate <= 0.047\nmse = 10.518\nsamples = 4\nvalue = 50.25"] ;
830 -> 832 ;
833 [label="mse = 0.0\nsamples = 1\nvalue = 45.455"] ;
832 -> 833 ;
834 [label="WOA_Salinity <= 34.421\nmse = 3.803\nsamples = 3\nvalue = 51.848"] ;
832 -> 834 ;
835 [label="(...)"] ;
834 -> 835 ;
838 [label="(...)"] ;
834 -> 838 ;
839 [label="WOA_TEMP_K <= 301.426\nmse = 235.512\nsamples = 9\nvalue = 99.645"] ;
829 -> 839 ;
840 [label="mse = 0.0\nsamples = 2\nvalue = 78.947"] ;
839 -> 840 ;
841 [label="WOA_Nitrate <= 0.33\nmse = 160.519\nsamples = 7\nvalue = 104.819"] ;
839 -> 841 ;
842 [label="WOA_Nitrate <= 0.18\nmse = 45.192\nsamples = 6\nvalue = 100.662"] ;
841 -> 842 ;
843 [label="(...)"] ;
842 -> 843 ;
846 [label="(...)"] ;
842 -> 846 ;
853 [label="mse = -0.0\nsamples = 1\nvalue = 133.92"] ;
841 -> 853 ;
854 [label="WOA_Nitrate <= 2.09\nmse = 4602.637\nsamples = 86\nvalue = 188.002"] ;
602 -> 854 ;
855 [label="WOA_Nitrate <= 0.273\nmse = 3658.185\nsamples = 81\nvalue = 179.271"] ;
854 -> 855 ;
856 [label="WOA_Salinity <= 36.69\nmse = 3508.507\nsamples = 69\nvalue = 189.552"] ;
855 -> 856 ;
857 [label="WOA_TEMP_K <= 299.559\nmse = 3009.633\nsamples = 63\nvalue = 196.932"] ;
856 -> 857 ;
858 [label="WOA_TEMP_K <= 298.93\nmse = 2919.106\nsamples = 46\nvalue = 185.911"] ;
857 -> 858 ;
859 [label="WOA_TEMP_K <= 298.73\nmse = 2730.43\nsamples = 43\nvalue = 191.531"] ;
858 -> 859 ;
860 [label="(...)"] ;
859 -> 860 ;
905 [label="(...)"] ;
859 -> 905 ;
908 [label="WOA_TEMP_K <= 299.051\nmse = 255.512\nsamples = 3\nvalue = 118.467"] ;
858 -> 908 ;
909 [label="(...)"] ;
908 -> 909 ;
910 [label="(...)"] ;
908 -> 910 ;
913 [label="WOA_Salinity <= 36.434\nmse = 1730.789\nsamples = 17\nvalue = 231.317"] ;
857 -> 913 ;
914 [label="WOA_TEMP_K <= 300.478\nmse = 1256.299\nsamples = 16\nvalue = 238.388"] ;
913 -> 914 ;
915 [label="(...)"] ;
914 -> 915 ;
920 [label="(...)"] ;
914 -> 920 ;
925 [label="mse = 0.0\nsamples = 1\nvalue = 150.0"] ;
913 -> 925 ;
926 [label="WOA_Nitrate <= 0.089\nmse = 2308.968\nsamples = 6\nvalue = 113.545"] ;
856 -> 926 ;
927 [label="WOA_Nitrate <= 0.026\nmse = 1596.009\nsamples = 5\nvalue = 97.482"] ;
926 -> 927 ;
928 [label="mse = 0.0\nsamples = 1\nvalue = 148.88"] ;
927 -> 928 ;
929 [label="WOA_Salinity <= 37.661\nmse = 17.515\nsamples = 4\nvalue = 66.643"] ;
927 -> 929 ;
930 [label="(...)"] ;
929 -> 930 ;
935 [label="(...)"] ;
929 -> 935 ;
936 [label="mse = 0.0\nsamples = 1\nvalue = 177.8"] ;
926 -> 936 ;
937 [label="WOA_Salinity <= 36.169\nmse = 834.01\nsamples = 12\nvalue = 123.947"] ;
855 -> 937 ;
938 [label="WOA_Salinity <= 35.965\nmse = 789.993\nsamples = 4\nvalue = 143.879"] ;
937 -> 938 ;
939 [label="mse = 0.0\nsamples = 1\nvalue = 98.516"] ;
938 -> 939 ;
940 [label="WOA_Nitrate <= 1.066\nmse = 138.76\nsamples = 3\nvalue = 159.0"] ;
938 -> 940 ;
941 [label="WOA_Salinity <= 36.073\nmse = 1.47\nsamples = 2\nvalue = 150.7"] ;
940 -> 941 ;
942 [label="(...)"] ;
941 -> 942 ;
943 [label="(...)"] ;
941 -> 943 ;
944 [label="mse = -0.0\nsamples = 1\nvalue = 175.6"] ;
940 -> 944 ;
945 [label="WOA_TEMP_K <= 297.368\nmse = 466.147\nsamples = 8\nvalue = 111.681"] ;
937 -> 945 ;
946 [label="WOA_TEMP_K <= 295.414\nmse = 1.915\nsamples = 2\nvalue = 95.464"] ;
945 -> 946 ;
947 [label="mse = 0.0\nsamples = 1\nvalue = 94.772"] ;
946 -> 947 ;
948 [label="mse = 0.0\nsamples = 1\nvalue = 98.232"] ;
946 -> 948 ;
949 [label="WOA_Salinity <= 36.409\nmse = 489.214\nsamples = 6\nvalue = 121.816"] ;
945 -> 949 ;
950 [label="WOA_TEMP_K <= 299.897\nmse = 49.0\nsamples = 2\nvalue = 93.0"] ;
949 -> 950 ;
951 [label="(...)"] ;
950 -> 951 ;
952 [label="(...)"] ;
950 -> 952 ;
953 [label="WOA_Salinity <= 36.53\nmse = 266.907\nsamples = 4\nvalue = 131.421"] ;
949 -> 953 ;
954 [label="(...)"] ;
953 -> 954 ;
955 [label="(...)"] ;
953 -> 955 ;
960 [label="WOA_TEMP_K <= 297.522\nmse = 2548.264\nsamples = 5\nvalue = 305.0"] ;
854 -> 960 ;
961 [label="mse = 0.0\nsamples = 1\nvalue = 394.8"] ;
960 -> 961 ;
962 [label="WOA_TEMP_K <= 301.661\nmse = 665.317\nsamples = 4\nvalue = 282.55"] ;
960 -> 962 ;
963 [label="WOA_Salinity <= 35.839\nmse = 221.505\nsamples = 3\nvalue = 290.757"] ;
962 -> 963 ;
964 [label="WOA_TEMP_K <= 300.695\nmse = 1.92\nsamples = 2\nvalue = 277.9"] ;
963 -> 964 ;
965 [label="mse = 0.0\nsamples = 1\nvalue = 280.3"] ;
964 -> 965 ;
966 [label="mse = -0.0\nsamples = 1\nvalue = 277.1"] ;
964 -> 966 ;
967 [label="mse = -0.0\nsamples = 1\nvalue = 307.9"] ;
963 -> 967 ;
968 [label="mse = 0.0\nsamples = 1\nvalue = 225.1"] ;
962 -> 968 ;
}